-0.109649433022, 0.110624961325, 0.202649022906, 0.0941898166009, 0.281921322734, 0.321111727978, 0.150839680397, -0.0314169917021, -0.13008901933, 0.281683557031, 0.00181044732459, 0.24777079259, 0.0328490862558, 0.227846536434, 0.192812661303, -0.0596740825121, 0.332895197471, -0.0733235683772, -0.386830521285, -0.386949609393, 0.260485970322, -0.140295047952, -0.319722253974, -0.0247481247663, 0.194876207934, -0.430182023159, -0.379278111932, -0.152158922891, 0.367307803347, 0.309246454271, 0.239644300666, 0.0186248014942, -0.545041840955, 0.756221323428, -0.134865097707, 0.130953302689, -0.0814719192568, -0.121069161024, 0.79028731304, -0.198775317306, 0.517890392082, 0.293288530166, -0.15027285925, -0.253764278557, 0.101377803421, -0.233516777799, -0.203676023115, 0.368901049501, -0.15540658205, -0.119443429441, -0.108123517036, 0.397583632631, 0.0368932715803, -0.464187838835, 0.356919869563, -0.564662072409, -0.461519654087, -0.354452344173, 0.3287793928, 0.124363040474, 0.0100891359421, -0.107393348352, -0.0565666356928, -0.0731886325313, 0.673382407506, 0.292059197672, 0.238592952544, -0.361979841926, 0.105681040856, 0.205094898576, 0.169561120641, 0.259427608317, 0.00878428988984, -0.18175182916, 0.0234395553714, 0.194804897712, 0.0910008013913, -0.42779100064, -0.0121984476809, -0.136441815681, -0.147469724713, 0.577659716207, 0.420875717878, -0.324186704103, -0.37451763838, 0.488893115598, 0.18132454509, 0.134512220613, 0.319016831697, 0.106257980592, 0.0402993667956, -0.146850034782, -0.0838267078989, 0.33498591196, 0.250868417198, 0.374546201646, 0.185324107906, 0.497184278641, -0.123435807243, 0.464556034186, 0.172015438413, 0.949064226652, 0.157046633073, 0.146608928754, -0.666600785957, -0.126891312881, -0.3262478105, 0.1316150093, 0.064577497916, -0.00569419097615, 0.0760816623414, 0.18705237923, 0.44514662709, 0.675707263352, 0.461042866943, -0.28259944997, -0.443866262549, 0.0155925466749, -0.384986464423, 0.196549388089, -0.116135509578, 0.0610709114016, -0.437136908678, -0.407504247842, -0.236918300548, -0.0990264447535, 0.407255480215, -0.0138391800704, -0.48810497213, -0.159419064952, 0.441368240582, -0.16873858902, 0.130192116046, 0.164189254817, -0.0586996554178, 0.0400654596868, 0.228644702416, 0.350830438609, 0.0572214221843, -0.186466697146, 0.442267506118, 0.0200530204918, -0.439960145141, -0.507143836985, 0.457202052277, 0.422714855471, -0.396823884128, 0.0767120660422, 0.397707035068, 0.143493134612, 0.332369575412, 0.188392990081, -0.0785255030648, -0.0823236555819, -0.0529297688209, -0.756843439608, 0.092104398814, -0.539820486474, 0.38821544311, -0.572423488773, -0.356371817388, 0.181779841718, 0.0226488848284, 0.0883797656942, 0.0872209832651, 0.00505854821971, -0.989109005926, -0.204331424191, -0.540386993235, 0.502616384985, 0.125969016867, -0.47620236462, -0.0630163415883, 0.126394139086, -0.870401648644, 0.0224462360696, -0.0345120757056, 0.259141231235, 0.421051332485, 0.495257500548, -0.269986176088, 0.52222847311, 0.253340093076, 0.0206459244111, 0.139354205088, -0.16086727067, -0.00826985274932, -0.26777391778, -0.105464027809, 0.544322382092, 0.000954023565101, -0.110762921773, -0.132810999287, -0.0688542979593, 0.187519762214, 0.174043186599, -0.0388411415689, -0.206209503272, 0.0180246709408, 0.273490347951
-0.342364029263, -0.00209882603474, 0.0209775586651, 0.244609785091, -0.15750007052, -0.278702487179, -0.190502568253, -0.170267951652, -0.135968257551, -0.026803971931, -0.367573241138, 0.314710910643, -0.1300082849, 0.234470109776, -0.243896727625, 0.174630826048, 0.00370123020282, -0.0967399150143, -0.497950750839, -0.100610604054, -0.53985822879, -0.299212754725, 0.0693024072574, -0.582671609407, -0.681248368193, -0.0518444289957, 0.339840590125, -0.0586663187914, -0.281055340854, -0.766344544201, -0.508113734755, 0.190362068137, -0.138187856894, 0.291628187663, -0.0490260796126, -0.125046467088, -0.263260520613, -0.107700806644, 0.5828124213, -0.394701080722, -0.59891669679, 0.402288692796, -0.368026373519, -0.057743198017, 0.445031657083, 0.14765046571, -0.399894500297, 0.162048329267, -0.352176513366, 0.392882589084, 0.00774609562257, -0.194848131034, 0.633672210761, -0.250572240271, 0.565728846428, 0.530293826073, -0.32180206095, 0.310911092717, 0.136567236148, 0.113366328747, -0.203860643659, -0.257228976898, 0.0579187358768, -0.28980189278, -0.050468887236, 0.0943425079179, 0.229770072505, -0.718869616302, -0.141533409813, -0.158107337994, 0.0884032351896, 0.0460419161459, 0.400642545631, -0.326290003236, -0.16492653752, -0.633718898601, -0.0229632084379, -0.0525311808094, -0.410762671723, -0.617616846347, 0.117765791032, 0.0486166606127, 0.0366473617986, -0.0683689475369, -0.415819944997, 0.300975488658, -0.157108608194, 0.0369185045508, -0.519710296978, 0.223836440428, -0.0225629472125, 0.336016876911, 0.408150015185, 0.211368859247, -0.48103893711, 0.185057486081, 0.241983466141, -0.0350477838805, 0.169479332633, 0.468287505733, -0.311369608743, -0.164561988749, -0.389737568416, -0.314581924645, -0.382919735849, -0.493509582843, -0.139644636528, 0.315058928816, -0.444914569951, -0.113587401583, -0.520467225377, 0.298602278731, -0.000568511665384, 0.239663390319, 0.180368102718, 0.138279850154, 0.145083442948, 0.0659732415819, -0.789424080624, -0.163129217778, -0.0531552857983, -0.116266282878, -0.519547882728, -0.102036450042, -0.225350935176, -0.226562930821, 0.548610520806, -0.593105692346, -0.0132069575246, -0.261444153055, 0.376786566286, -0.215128117654, -0.22389505545, -0.204976129478, -0.045901129362, -0.168216039359, 0.146504812299, 0.0034346178724, 0.10022123526, 0.377392238809, 0.402199091231, -0.565097071981, 0.0151617152317, -0.0149844100705, 0.121565368543, 0.431456022453, -0.284974458323, -0.216647762359, 0.116206368004, -0.108149734706, 0.0255409709214, -0.0455597383096, -0.262370691904, -0.316012298139, -0.841938540514, -0.202671109906, -0.17685479882, -0.749071014881, 0.541398715008, -0.0225858710257, -0.200367673866, -0.101435034835, 0.105540264171, 0.0651513616279, -0.311924054588, 0.208317930294, -0.235159660442, -0.13689719182, -0.447882303559, 0.0362553027289, -0.145555278725, -0.328857710285, -0.248900159998, 0.237073010403, -0.278658916433, -0.141151394121, -0.250200512188, -0.270775961819, -0.0615711741317, -0.109079019489, 0.274923278157, -0.21827902775, 0.126118351951, 0.424370266844, 0.498432250432, 0.0349981826539, -0.375679343555, 0.429578118067, 0.360394986607, 0.467240311439, -0.191377558004, -0.117687513235, 0.27079005231, -0.136590930019, -0.349166486134, -0.261361094764, 0.0119899907148, -0.105385858364, 0.0450687720471, 0.0072196094865
-0.281919691417, 0.220096932492, 0.174796025876, -0.0692852440545, -0.280481133716, -0.0716605879928, -0.126070231778, -0.286535191302, 0.142461307168, -0.0107119171028, 0.208881828582, -0.0954673951065, -0.0197766028766, -0.0949973483376, 0.499566017324, 0.460365954686, -0.0221575766868, 0.11096621432, 0.00157101978943, 0.241760757669, -0.0106196348847, 0.319981164565, -0.239557645489, 0.0239351766076, -0.221094478307, 0.603251752645, 0.317139267519, -0.171724274859, -0.151078132586, 0.119023453851, -0.153534599255, 0.0419419429336, 0.158126997174, -0.130944749033, -0.163964158753, 0.34623174717, 0.101142896964, 0.335092782752, 0.288200992749, -0.384631986401, -0.0388560241156, 0.155792557458, -0.0464278516582, -0.0710115432441, -0.117335062727, 0.308835648651, 0.134633599245, 0.0470120586542, -0.406693135328, 0.149845053907, 0.164279304931, 0.00262882762874, 0.237238144962, 0.145881157629, 0.0661346551375, 0.585461437987, -0.113871296451, 0.20361995592, 0.325318448457, 0.201329169407, -0.210583535123, 0.48454733676, -0.0488878152078, -0.454317183882, 0.241880290654, 0.138161776201, -0.277190017607, 0.00470833233614, -0.0135729259105, -0.0344785672599, 0.168960710588, 0.11254226746, 0.314095753051, -0.118392929962, -0.120838915607, -0.386613869393, -0.00359997481779, -0.186955350631, 0.219828820603, 0.177964455671, -0.209762080273, 0.198363051124, 0.0655334596627, 0.247143996968, -0.0152897947912, -0.0703571539424, -0.442818491197, 0.00015066222709, -0.119510262135, 0.0268006676374, 0.303726894286, 0.182705919445, 0.497844378768, 0.136361173759, 0.2788561428, -0.117708771756, 0.0937441898759, 0.12963671197, -0.178097869375, 0.0951037987676, -0.163360016386, -0.43758478589, 0.0327549895018, 0.0385189511554, 0.226772242213, 0.307251933602, 0.0577258304643, -0.029411303019, 0.114606255149, 0.208490989231, -0.317474856412, -0.0945486009572, 0.00175395066104, -0.211790829986, -0.0762624757511, 0.105638968846, 0.170425952008, 0.108794327891, -0.141130918554, 0.375245901676, 0.372880552444, 0.270527770049, -0.168497602237, 0.0213652009546, 0.0236298503857, -0.183664329239, 0.0178523493389, 0.0470571890336, -0.215202507135, -0.018488807928, -0.218480336455, 0.0212787241273, -0.37412544438, -0.268700430695, 0.251605498864, -0.138943661876, 0.044210101159, 0.203586462942, 0.0492823556583, 0.307303358796, 0.184120341233, -0.180249292113, -0.00723164800081, -0.0161599645756, -0.0193773061545, 0.253225003229, 0.0843199750883, -0.0268304214234, -0.110685525192, 0.0431313395959, -0.280982598339, 0.104788044794, 0.415033810897, -0.189089888161, 0.0424102445322, 0.550274183915, 0.163979377802, 0.363601182475, 0.0864289510922, 0.345768776227, 0.122264065977, -0.0610995238066, -0.124212675729, -0.410308207761, -0.302122572139, 0.0389703105523, 0.434277835852, 0.0852225215059, 0.284283504659, 0.00767538151667, -0.307474802555, 0.596378723827, 0.140891078289, 0.155059650882, 0.251899929304, 0.0412454878094, -0.108819149729, 0.113995101911, -0.0849003274483, -0.208817900568, 0.0459632020122, -0.0863160967272, 0.0139017070151, 0.183308350356, -0.0524179275881, -0.0403782585442, 0.321159620953, 0.0625403997113, 0.111134250331, 0.482511349711, -0.157705110866, 0.0830030145283, 0.288034940737, 0.291656735636, 0.101093857897, 0.127303114999, 0.214556108211, -0.117662767153, 0.177952589092, -0.0703120639175
0.581571920511, 0.00729573829951, -0.208654457028, 0.11828243091, 0.0352356380016, -0.00945735656581, 0.167412233113, -0.0519736245614, -0.0295227194267, -0.205065892492, -0.534026177544, -0.118971958109, -0.266952010025, 0.313708427093, -0.355660809707, 0.202504633841, -0.00494493065172, 0.306147476381, 0.0178519943233, -0.0417965495051, 0.693739603584, -0.162071874624, 0.376005279758, -0.174137015951, -0.0228153012972, 0.454568744191, 0.356710918115, 1.00252370222, 0.362512324567, -0.537185733223, -0.161004681498, 0.318740832439, 0.0211369421665, -0.040007748332, 0.241299118301, -0.30365805574, 0.161100724446, 0.333702222682, -0.128218379119, 0.194408006477, -0.142168575367, 0.122118390622, 0.244836656285, 0.355870293783, 0.42267675591, 0.194695675816, 0.0399656278931, 0.31652053145, 0.0521708513883, 0.26032766799, 0.266064131636, -0.0308806167569, -0.105719666685, -0.217176105651, -0.154619560865, -0.040751486104, -0.112556459715, 0.0281612012425, 0.245928393387, 0.0978153720596, 0.31299122522, -0.035928851128, 0.115858268584, -0.298558920041, 0.0520751068907, -0.285447075155, 0.378411445223, -0.133988804389, 0.184580616535, 0.207162978247, -0.362070427958, 0.00800240602826, -0.362139000373, 0.0510072002384, 0.124423825167, 0.00460059189355, 0.187509453459, 0.163149060327, 0.0555045156844, 0.00854514726689, 0.0143507997429, -0.0393496985546, 0.0673330553639, 0.293260545752, 0.0429389821904, 0.246310883257, 0.17343338531, -0.289611669864, -0.139297273412, 0.169473931308, -0.142363293133, 0.025169546217, 0.438673096354, 0.413939285136, -0.286250624317, -0.345038090828, -0.0969160365088, 0.15088410474, 0.230443242039, 0.396238192058, 0.499633477396, -0.176811116786, 0.0802844979713, -0.306191241837, 0.0282859878999, 0.148547448367, -0.118205126039, -0.301958731411, 0.1793327126, 0.105684895815, -0.274736582922, 0.246532621268, -0.211545259056, 0.192373401588, 0.108550733066, 0.434702271755, 0.264555580846, -0.0295257130093, -0.281319829451, -0.281932876025, 0.158511265676, 0.410393597147, -0.511441871035, 0.19384165095, -0.00485014998026, 0.0577450709723, 0.754326345226, 0.122510877706, 0.45997323781, -0.115150664211, 0.27727265639, 0.236413089542, 0.268545663037, 0.0567038894857, -0.0442932307685, 0.136928840055, 0.0691364625102, 0.330470381813, 0.470522888679, 0.050733974471, 0.115272766737, -0.161578223052, -0.279942304582, 0.527023255634, 0.00101447021138, -0.143128388209, 0.294418455635, -0.154051517977, -0.109978715927, -0.19102682469, 0.396441864284, 0.306535676768, -0.232849557079, -0.25007416651, -0.509829373296, 0.26331016213, 0.0872610142689, 0.00814817612615, 0.363573039653, -0.138093840377, 0.0471424429614, -0.181520773192, 0.0162721455617, 0.420537312394, -0.0565624840147, 0.106736344152, 0.12280733094, 0.0801279648835, -0.0402231575231, 0.0599985159958, -0.269293801569, 0.277220528429, -0.09999491373, -0.0543357808721, 0.0542711088617, -0.328766636177, -0.170436258264, -0.145309103617, 0.282803200074, 0.0561828182576, 0.0888751675404, -0.0293759454661, 0.410442819699, -0.144565475591, -0.285093960126, 0.615618901735, 0.349171666037, -0.21372075214, -0.361767314256, 0.154739126507, 0.22508973057, -0.17840554114, 0.0363290927807, 0.0631368717176, -0.168511187106, -0.322105201911, -0.220256756516, -0.0199451574482, 0.364529072857, 0.19135407526
-0.0476138501149, 0.132710842183, 0.675349986711, -0.150563971849, 0.249540957452, 0.0548691473374, -0.00856223025344, -0.0894335876161, 0.121602444807, -0.458749298643, 0.0198982096144, -0.163552783462, 0.169213533277, -0.241435894323, -0.142198290232, 0.280975300287, -0.400983668066, 0.0723015127662, -0.193615551055, -0.253280237077, 0.178947534178, -0.127986642402, 0.136234801289, -0.0969556317986, -0.00919248694919, -0.0951237292837, 0.123076478258, 0.0685132068858, -0.0535260936564, 0.180011595934, 0.444047551899, -0.0896497200846, -0.0531703377552, 0.0493320178306, 0.0450436467499, -0.0617129577676, 0.0501026699371, -0.198109473084, -0.0741873106478, -0.103824213175, 0.163544394299, 0.0901473393256, -0.176714316893, -0.0607123571425, -0.389400845516, 0.257854618852, -0.0704643196324, -0.0902156241921, -0.0778719848386, 0.330124051137, -0.331340706641, -0.0253619243836, -0.117348251613, 0.177178129754, 0.259075414286, -0.287410766926, -0.274772042772, -0.357744578292, 0.218176854983, 0.30480334345, 0.419372578517, -0.291126199862, -0.364583941744, 0.0146648377329, 0.165557180506, -0.443058844504, -0.098262841072, -0.515011026325, 0.0817676160486, -0.0295374559116, 0.154696212844, 0.0824171664073, 0.118874115199, -0.014043033137, 0.423279748395, -0.394030996997, 0.141760337537, -0.144571751891, -0.11581941276, 0.102710840964, -0.0375432378507, -0.12991069948, -0.165602083364, -0.00163002726388, -0.0908304794705, 0.36723665133, -0.181159697165, 0.110215384893, -0.0817991475563, -0.112099095668, 0.0125415722666, -0.356774588187, -0.215368587225, 0.515764429437, 0.140401833226, 0.0192965604893, 0.0757754139625, -0.157221421982, 0.0386254981682, 0.429531201011, -0.295892087001, 0.285290606841, -0.0334143491674, 0.159898083089, -0.0246368423475, 0.420766331682, -0.196205426275, -0.307572557758, -0.103902556452, -0.115668401422, -0.131679614038, 0.139148940682, 0.40972193931, 0.313964630011, 0.0641863276559, -0.75361347416, 0.0601557909697, -0.319749195492, -0.125924405055, 0.207606481457, -0.401741155879, 0.274906256873, -0.00329484739889, -0.203843130034, 0.32875039415, 0.365814348744, -0.173580353253, -0.307451660073, 0.216160493304, -0.130298955416, -0.301586431272, -0.36633355092, 0.530629249503, 0.369519369324, -0.394788702997, -0.0717263241313, 0.308521359961, -0.241289087476, 0.139650302513, -0.156762575136, -0.11760232419, 0.119910669347, 0.244337843816, 0.0527997815763, 0.197874574909, 0.173330583367, 0.034503175564, -0.108682263722, -0.278413475792, 0.194115804127, -0.269816424724, -0.0679184888545, 0.144874601736, 0.137373575386, -0.101419944174, -0.261928777747, 0.161425637345, -0.117035562607, 0.301547326533, -0.162410586514, 0.039969320819, 0.0714862405753, -0.161279608266, 0.184765382891, -0.154477958829, 0.215635655738, -0.357191849366, -0.272711769888, -0.100840442806, 0.304548630188, -0.123892784338, 0.745277337058, -0.145691134299, 0.196243847423, -0.0941669176849, 0.0208222787462, 0.259259491702, -0.208752753007, 0.024242122199, 0.362752365793, -0.549116071767, -0.0104133138923, 0.56449591582, 0.151209588805, -0.00593436888793, 0.371644064335, -0.289555219868, -0.191709079, -0.0348328083911, -0.153680472449, -0.484915514116, -0.50884668647, 0.440373638594, 0.0452148521803, 0.123815117001, -0.0245437055275, 0.210683866598, 0.218301516911, -0.373977418883, 0.043487346447
-0.10104271686, 0.00285233303507, 0.209082974055, 0.343048480781, 0.295417306043, -0.0201735248973, 0.172596358508, -0.0510631488933, 0.229793931697, 0.119750045392, -0.0222550534764, -0.0605320007455, 0.158679590853, -0.18609579361, 0.132517253998, 0.486627748776, -0.135078245748, 0.288656935485, 0.396643758648, 0.347712384535, 0.213717868342, 0.072600852474, 0.0927092310752, -0.0477530920338, 0.174152649962, -0.0395787208212, 0.306005725796, -0.000807669804794, -0.0131740146648, 0.582764468254, 0.338134241327, -0.0999715191145, 0.310695363245, -0.00885528383665, 0.0715413212184, 0.0762576411036, 0.439770755304, -0.0350562179308, 0.64083149863, -0.0374260431469, 0.466543817182, -0.193474028748, 0.268022276655, 0.335417182893, 0.0149595225955, 0.106581894414, 0.223649783627, 0.0939159612131, 0.236292231717, 0.199944129633, 0.70026067599, 0.0420523798558, 0.0692647530022, -0.100188256896, 0.0290271177853, 0.189109955996, 0.0551873037645, -0.50080635939, 0.229952771101, 0.402611435552, -0.0861831368031, 0.00470711520804, -0.263325870119, -0.324179521884, 0.201675779083, -0.0270056816664, 0.0869633946283, -0.0428683966178, 0.295017974525, 0.0143857311778, 0.329373730471, 0.289314558083, 0.0371125387498, 0.177214899559, 0.519920406955, -0.0808011283329, -0.235362696722, 0.154208549206, 0.342891821585, 0.157551411742, -0.153717304289, 0.362347427107, -0.00867179108086, -0.0433079165918, 0.108312655868, 0.0943173044256, 0.207895660845, 0.432091771548, -0.137074503322, 0.0544027781276, 0.0171640105692, -0.260232704687, 0.0429833551604, -0.121806906895, 0.299874463205, -0.298872668026, -0.121652222071, 0.287546923315, 0.082349236197, 0.46150066033, 0.450630887083, -0.09112334013, 0.496468750803, 0.46418779962, -0.228842043515, 0.338787850014, 0.00359058712798, -0.438015168003, -0.387619801786, 0.599371437868, 0.102421373581, 0.387791528613, -0.262493287038, 0.372861580905, -0.141482175438, -0.0850385831917, -0.185788348613, 0.372981649516, 0.730673581423, 0.213773071035, -0.54617775216, 0.0243592694266, 0.484041294944, -0.0935550261286, -0.234829674863, -0.409926131664, -0.0335044885589, 0.237450245918, -0.164505278419, -0.0846425575604, -0.0545631783152, 0.117777992871, 0.553523059538, 0.0475375624704, 0.0112341961219, 0.0542657122323, 0.11480772429, 0.226099454745, 0.0996596569658, -0.361429769851, 0.0539149626568, 0.439621165574, 0.238971422111, -0.149389458451, -0.193004869592, -0.35061097256, -0.104980967185, 0.172901188103, -0.314778251441, 0.287200231679, 0.0730779947059, 0.258389773875, 0.501074437382, 0.104590926108, 0.102500035792, -0.200855513914, 0.344173668863, 0.431757540952, -0.227199159013, 0.110026733833, -0.233355736548, 0.563955969071, 0.350046116173, 0.185338226094, 0.17217444511, -0.0101284347957, 0.44769666299, 0.134985417426, 0.163892912206, -0.450334957904, 0.248238710057, 0.261684839432, 0.0434218402974, 0.167439723979, 0.373333458797, 0.21953521653, 0.0109343655943, 0.179596502062, 0.405815820332, 0.100531874738, -0.270660343238, 0.473962190693, 0.296051815555, -0.385674336833, -0.613289840119, -0.242956218281, 0.306168605215, -0.70290965583, -0.312306770307, 0.139343480335, 0.327614189933, 0.0584308838819, 0.540723543948, 0.357645033298, 0.477722216493, 0.524353193146, 0.278864713698, 0.183119434673, -0.128616142041, 0.324323871484
-0.284995660502, -0.0322775503652, -0.0827238471706, -0.126046941683, -0.252125673855, 0.205011164856, 0.010530132408, -0.0157657755496, 0.260034429352, -0.0714355743153, 0.078019951946, -0.179949560522, 0.169143080416, 0.320002204233, 0.297684102459, -0.0185675974489, 0.0272697579571, -0.290696194239, -0.073059815428, 0.243957981413, 0.539645396291, 0.209869667088, -0.0173611503162, 0.067933874652, -0.0087067199128, 0.106183428094, -0.0253744052925, -0.569889718145, 0.631366119404, 0.373119200485, 0.44589757431, 0.088714818582, 0.410267703929, -0.261307534387, -0.14116069277, 0.229969763587, 0.404920621539, 0.390874213258, -0.124907708798, -0.153490356327, 0.223557600789, -0.020027974788, -0.145291128787, 0.222977234216, -0.21294889819, -0.0474265743611, 0.284309089079, -0.190002157157, -0.312064767275, -0.0730171523503, 0.53089192142, 0.135980529339, -0.0144269704021, -0.0512289658799, -0.180644153771, -0.161092041278, 0.292103858888, 0.897501593514, 0.103543870189, 0.252162114173, 0.418672957354, 0.237652152635, 0.329307788838, 0.20287440533, 0.167801126903, 0.486462852015, -0.0436028469992, 0.0486947668167, 0.16999466162, 0.0274425884787, 0.250112305566, 0.183167251669, -0.345624109931, -0.00280962098436, 0.259807861835, 0.24878667889, 0.440376921019, 0.0504598666975, -0.100656968285, 0.512169402365, 0.0725297063122, 0.0548869596739, -0.0443872025518, 0.261896678271, 0.350521544989, 0.101773251536, 0.0538059699216, -0.129014788336, 0.408343504033, 0.0706768164436, 0.263164702578, -0.1455630509, 0.208549501361, 0.0107593454167, 0.217611561027, 0.148029603548, 0.33668828847, 0.0837933029147, -0.181546995916, 0.363110837071, -0.189787876805, -0.308604099107, 0.113726759321, -0.281785750052, -0.0156617594577, -0.058538137294, 0.124593138684, -0.0716170997265, 0.469530719364, 0.244085141829, 0.272951620199, -0.28554140691, 0.248128992243, 0.111180882032, 0.102347079255, -0.00177811326426, -0.0757620538439, -0.0375792729875, -0.351716615296, 0.667549843746, 0.226005251421, 0.194367723233, -0.113806299697, 0.029593892566, -0.0236862217237, -0.115720332702, -0.0275639721541, -0.0602410109813, 0.250438657017, -0.0199585445456, 0.0454148138426, 0.269187116119, -0.159031930435, -0.097040694588, 0.332172663895, 0.0952199069039, -0.143765021024, 0.207290712913, 0.155064236544, 0.00445100012227, 0.277340908209, 0.34501321469, -0.151237525044, -0.264660583533, 0.0529113604322, -0.382616405556, 0.100155436917, -0.192089074987, -0.204819142546, 0.483264324128, -0.00252323469337, 0.313184792586, 0.518330875947, 0.326101662628, 0.262831841897, 0.214912290582, 0.451500926998, 0.516936198972, -0.00392177644169, -0.0314105260314, 0.176558070337, -0.251259807203, -0.228300693563, -0.179617135043, 0.373367891802, 0.0615915154325, -0.143971442401, 0.0145400424118, 0.301983330221, 0.0198749748321, 0.216817661555, 0.647693928794, 0.299852795675, -0.114016005755, 0.0674666531777, 0.300829276396, 0.0983397224705, -0.30477973962, 0.18616563605, -0.122111383941, -0.0534595526239, 0.336378882404, 0.287185054001, 0.118707252269, 0.0675365169152, 0.37542589197, 0.373532949288, 0.4508075417, -0.545198661213, -0.224032457495, 0.32059676368, 0.0186554683231, -0.253583983533, 0.458658836374, 0.0573024494759, 0.386400431863, 0.16430615811, 0.220405543115, -0.0773616929461, 0.0417069617436
0.0205545365081, -0.0267299957341, -0.269202484389, -0.234278033547, -0.000908726253793, -0.388769654669, -0.0575308152965, 0.0599862295358, 0.0701934761557, -0.122920608935, -0.135535547998, 0.0825200016396, 0.203150034811, 0.0487815335248, 0.0062949439619, -0.00107680428758, 0.0609253711726, 0.0361085227221, -0.356922927962, 0.202597255959, 0.334423308985, 0.0254853272334, -0.325305075178, -0.238692460679, 0.202781742193, 0.082293256705, -0.144154222199, 0.108459016488, -0.147919971961, 0.330876962754, 0.0525457408017, -0.023948319333, -0.174842781994, 0.150043921649, 0.0903999296733, 0.0783791490771, -0.00320109769171, 0.19124771042, 0.0806629534351, -0.0809817802365, 0.179116472863, 0.209249626627, -0.0781662954892, 0.0451407682089, 0.197646372161, -0.0880223812002, -0.337943222078, -0.0322929461469, -0.000551418286444, 0.0853520310625, 0.0668127974709, 0.00524666768189, -0.116872749884, -0.251814421765, 0.108932028134, -0.0684500146419, -0.0764895712327, 0.138550180583, 0.0501279453687, 0.159477190752, 0.21164420944, -0.13082942033, -0.558514444295, -0.0415729423415, 0.137669393805, -0.292091785819, 0.336018612679, -0.251991112787, 0.0850921992647, 0.114944737642, -0.0987363445431, 0.103590550436, 0.248807817281, 0.194101969726, -0.158467484466, -0.030479713286, 0.0430693073776, -0.425605775241, -0.147870400138, -0.411940398769, 0.0463818590267, 0.211213793299, 0.413444890781, 0.0628854147401, -0.192771000392, 0.149110622001, -0.258624293301, 0.132492200953, -0.239347445046, 0.196111079865, -0.195370941931, 0.229881538628, 0.251455747287, 0.188581072757, 0.408250409517, 0.142208691548, -0.0783814796499, 0.317617875288, 0.167320126938, 0.0392461792087, 0.22634395648, -0.151828201917, 0.0300382294166, -0.376890165253, -0.283681239101, -0.0328703240789, -0.102770553455, -0.662565181551, 0.240811066114, 0.224113119354, -0.0444024150849, 0.551047176342, -0.00586141629929, 0.141169855224, -0.0631784662798, 0.0500144708693, 0.132105526188, 0.0855330783329, 0.0267956685309, -0.328897758745, 0.307034608655, 0.612196954618, -0.323504579861, 0.0976722394046, -0.0379222529591, 0.0390266295028, -0.185885683883, -0.354038161175, -0.119134539548, 0.103842351781, 0.116744481141, 0.155573729564, -0.28553390448, 0.129658218844, -0.121289372414, 0.227594396244, -0.0751808700377, 0.0778017866486, 0.119162420401, -0.236238003237, 0.312451751677, -0.449823852591, -0.355033682801, -0.0395287191809, 0.19101872505, 0.0190273126604, 0.289112350598, -0.108476835935, -0.155219204839, 0.0153369993752, -0.0965661317452, 0.0272789820344, 0.066960790745, 0.111828434511, 0.174773440569, 0.0263347178922, 0.0453283792689, -0.227461453813, 0.332066045555, -0.0399490958693, -0.371066344728, 0.13987859871, 0.31478991835, -0.164888820217, -0.239706263147, 0.218716745985, -0.474655149068, -0.0749581122037, -0.147819146784, 0.0840270787139, -0.428146252628, 0.372567602417, 0.164747564046, 0.422678402073, -0.405364632473, 0.0323428756948, -0.188212483132, -0.271414664737, -0.318356371477, -0.0890717143157, 0.257072612506, -0.275181326218, 0.0861485318031, -0.017778223038, 0.365841278375, 0.163265290449, -0.0949746536421, 0.196699821451, -0.084980170636, 0.41870434322, -0.507956679728, -0.378987041852, 0.0179822535015, 0.00864057955488, 0.00253588710983, 0.112032281612, -0.113296565189, 0.212576908571, -0.0456736027584, 0.112096672996
-0.141874877092, -0.697526340981, -0.200690288078, 0.551893538579, -0.0100332467433, -0.299503085594, -0.0594774555472, -0.0563548885881, 0.110209954153, -0.00533707791672, 0.166420661663, -0.482656573161, -0.239383496994, -0.301362393889, -0.145373052203, 0.0696613014123, -0.112279534561, -0.0335275268676, -0.0991156481965, 0.239304853064, -0.124862831878, -0.396319714049, 0.539029728917, -0.405291892748, -0.150071153407, 0.250733340037, 0.0929699166954, -0.277820776979, -0.428492141113, -0.286759148213, -0.206463202056, -0.125036536336, 0.0907098306617, -0.139460979444, 0.0640233135277, -0.222506164719, -0.0865222555814, 0.0151664473274, 0.219544556499, -0.167096535507, 0.120713429553, 0.0483976314332, 0.297653418541, -0.0290146118892, -0.189888179698, -0.163195361982, -0.155178809464, 0.334437309607, 0.0376373013974, -0.0797914472471, -0.768052665597, -0.048301055172, -0.201700564984, 0.191393932134, 0.314988116439, -0.140609382606, 0.442338871273, 0.0335252631308, -0.0859337087594, 0.249742347837, -0.0571457700016, 0.313517491135, -0.397607445815, 0.0968680029841, -0.1022005371, 0.166660116654, -0.104579026723, 0.228288088207, -0.0256340133848, -0.152700699456, -0.197547572967, 0.129906813292, -0.0569808601158, 0.294759481647, 0.161283811532, 0.264565591708, -0.462336421003, 0.0812777769223, -0.0193295637983, -0.604933636802, 0.861302537408, 0.107087552325, 0.566417426524, 0.0925089470669, -0.24874494555, -0.113057807842, -0.0377773825621, 0.158440534119, -0.0463364883396, 0.120037774127, -0.422138967905, 0.572616396025, 0.272644173216, -0.14810062524, 0.298047975236, -0.406510441842, -0.751719892356, -0.316821465165, 0.488924927988, 0.258866112203, 0.140299412925, 0.0536968241206, -0.412928354403, -0.372633758028, 0.0392878942988, -0.503039092373, -0.377158504182, 0.263944483345, -0.0575917885565, 0.298124934835, -0.173164879444, -0.365514217481, -0.515129974897, -0.232543229233, 0.298510593945, 0.176820441629, -0.366637299233, -0.0692166966963, -0.0338703910981, -0.471419299998, 0.0464725614523, -0.563081630854, 0.0789857505598, 0.314885258994, 0.0282979280348, -0.0556050712994, -0.785956698068, -0.363406866642, 0.037226581658, -0.0643777924886, 0.202059296286, -0.0783951921815, 0.388245083297, -0.318972971262, 0.045119549798, -0.147366177997, -0.0158641650328, -0.285243326798, -0.180797320977, -0.0525847380044, -0.11640068079, -0.493094653794, -0.182157292628, 0.00984804108351, -0.153420983939, -0.0805652502537, 0.36706530481, -0.488808291118, -0.378601815774, 0.0909870526253, -0.191568685822, 0.0538258672424, 0.297801541727, 0.275947089525, -0.525997180027, 0.0881937098628, -0.0437129232163, -0.71916003999, 0.16321506567, 0.112801821063, 0.13773181289, 0.499112144489, 0.709986214323, 0.0788743451122, -0.277904707196, 0.224495346732, -0.0663631744169, 0.126767819882, 0.66745174794, -0.2728406482, -0.593060257576, -0.218396473913, -0.192767309266, 0.0915097903808, 0.135361097856, -0.239800967856, -0.210917238778, 0.705093711249, 0.0362656360074, 0.087093516872, 0.690845717604, -0.349630730651, -0.495545727904, 0.166614437499, 0.595369108185, 0.487023744375, -0.308277746807, 0.247996696868, 0.2106698355, 0.141280891375, 0.315785171631, 0.308448508286, 0.232089053106, -0.352440295582, 0.121158473099, 0.198720388723, 0.0967210732886, 0.0600215203799, 0.246092888596, -0.0357481450761
-0.0638236523037, -0.409493113089, 0.0381584240413, 0.0132378132664, 0.124817470547, 0.0672750569566, 0.147369355423, 0.032429132917, 0.042619307207, -0.15346616596, -0.0217015810508, -0.123691272591, -0.0678736474851, -0.198726048637, -0.142738550869, -0.287275038068, -0.400436193409, 0.203956019359, 0.101598102396, 0.260673730598, 0.0832280166042, -0.0509314301611, 0.295196875317, 0.0968269168473, 0.0801541654607, -0.27928439908, 0.525334767461, 0.111674650875, -0.437446651072, -0.098578822007, 0.225766924124, 0.198773647025, 0.0331330059058, 0.301608002948, 0.0148978910226, -0.339295432417, 0.204219210262, 0.17038548047, 0.0645279072769, 0.468457376436, 0.0171821652115, 0.700392524458, 0.0876964285279, 0.276406864976, -0.38564140868, -0.0823103051562, -0.0954457316616, -0.107638641237, -0.427369839147, -0.120579977513, 0.427506184401, 0.140214931026, -0.316755300165, 0.112494411737, -0.191880321992, 0.0775080342749, 0.0377181330984, -0.328474114107, -0.0773414972613, 0.279066241498, 0.235284454952, -0.0404064261045, -0.223931855069, 0.290784860687, -0.32486765239, -0.412308465102, -0.222581567569, 0.235811449193, 0.135059530778, 0.442566145306, -0.0674255485901, -0.130642489625, 0.299569724822, 0.111308618714, 0.396872324473, 0.0325269997993, 0.0874935533697, 0.294781542534, -0.0473403296618, -0.571029805309, 0.141309622196, -0.405829174607, -0.239408424801, -0.217578639122, 0.177964085623, -0.0392730181787, 0.174265933888, -0.13338285479, -0.679636969885, 0.0425334453722, -0.386282125008, 0.0911529239437, 0.465709144157, -0.0217609664777, 0.197322116798, 0.0282897274463, -0.0167557446018, -0.384106896868, 0.464243367392, -0.0245884861043, 0.305101689303, -0.501336585995, 0.0332391789478, 0.353337589448, 0.319110438212, 0.545293588469, 0.386855981579, -0.852147957976, 0.122237012421, -0.0423286943166, -0.0490271666472, 0.468609082718, -0.200097633988, 0.212698656785, 0.0219740172715, 0.177698573888, 0.584411666883, 0.235794005116, 0.342527965916, 0.0663101731876, -0.426357253158, 0.185935594005, 0.322667831828, -0.0529388835308, 0.192954305143, -0.567253368877, 0.0438904250741, -0.468255344399, 0.697001920969, -0.117152902832, -0.054738059843, 0.27793674516, 0.238366673879, 0.0987120305556, -0.0533233197608, -0.156617486135, -0.00501718622783, -0.602274154342, 0.000624313107501, 0.047690542017, -0.435170214018, 0.620767224755, -0.107020325879, 0.701226041664, 0.0494116285305, 0.108418589138, 0.375784779553, -0.249662681244, -0.497679366138, 0.362500259159, 0.0422917880626, 0.223281475951, 0.642984104387, 0.188040636597, -0.434581262672, 0.0763435093272, 0.171939209309, -0.200283622133, -0.371162961726, 0.147073892389, -0.529599805841, 1.0036266704, 0.19807591829, 0.077586798306, -0.0348516176224, 0.322209310866, -0.183594585247, -0.132820249486, 0.0554663707407, -0.078831440203, -0.14233359938, 0.20887962897, 0.106162903143, 0.335520776098, 0.0784002331978, -0.0744903417826, -0.275770724517, -0.172431306261, 0.540942450127, 0.0146243603436, -0.14537157171, -0.208504286194, -0.0603448116549, 0.178475180537, -0.29588689023, 0.668846117506, -0.174144294958, -0.0496045506145, 0.327056523376, -0.393398224089, 0.187617632907, 0.220252648506, 0.0266595846685, -0.0854860719358, -0.529140091165, -0.104566782512, -0.293339213985, 0.405767769299, 0.0599150508831, 0.0594822222249
0.218369086399, -0.339801382107, -0.449662231859, 0.0426472545029, -0.133743938751, 0.107724580278, -0.0157296460382, -0.22743029378, 0.059980477199, 0.108006545146, 0.133338517067, -0.192583822383, -0.173933260282, -0.0316928629166, 0.0537302614875, -0.312370157618, -0.500108835841, -0.0361755737036, -0.148667992026, -0.0892276583029, 0.181219241932, -0.0186465265034, 0.241123687361, -0.355155737199, 0.112512025573, -0.0848258706382, -0.199283000615, 0.577403059035, 0.0394133468534, 0.582897426206, 0.101367651044, -0.135381495643, -0.474327335904, 0.0764909268238, 0.106175392881, 0.368634273838, 0.350723405341, 0.0726074296616, 0.185253776654, 0.0796766191513, -0.0843912317853, -0.422368066768, 0.0847745181737, 0.0248778058176, 0.280991958117, -0.475766455217, 0.118292765005, 0.566062341087, -0.0752162625064, -0.261074497371, -0.65784186261, 0.231567188968, -0.193647083347, 0.07881754126, -0.119806222815, -0.171632281645, -0.0364581946948, -0.282968933398, 0.162930095798, -0.0881041028186, -0.0281427183384, 0.000661721091408, 0.0549341532297, 0.119395337221, -0.0769520372216, 0.259392118784, 0.20694099428, 0.172076072112, 0.296144905283, 0.0987554349797, 0.164604419201, 0.201043220893, 0.0253478322852, 0.421302852244, 0.333157064353, -0.00284713278002, 0.0718972805197, -0.368561373539, 0.0921527972815, -0.250699033129, 0.571419148334, 0.00539709856885, 0.346616096812, 0.0921034718812, -0.296470288866, 0.528737484144, -0.0112874234054, -0.131268259106, -0.160226841925, 0.745407910664, 0.117260974368, 0.361487263248, 0.344917560368, 0.103290248608, -0.15980457196, -0.156521519837, -0.155668680093, 0.202411817267, 0.34262180874, 0.252381942029, -0.043242357622, -0.0433545419959, -0.290855635969, -0.118362313722, -0.131662153081, -0.129859576979, -0.267113798504, -0.143607082199, 0.0412586452645, 0.381873549251, 0.248764816305, 0.313956612459, 0.000509627992574, -0.0263742525744, 0.166469597298, 0.0835469700016, -0.291777295677, -0.230733294146, -0.128297512109, 0.445426602902, 0.102859102886, -0.139393425413, -0.354816421679, -0.026429638504, -0.312769702574, 0.037028191484, 0.581548928535, 0.243584649226, 0.5432991946, -0.124886447473, 0.307038405037, 0.250935720552, -0.232890949302, 0.202606492431, 0.283415832325, 0.239810370115, -0.0705645589053, 0.450503699198, 0.24184851016, -0.13529091941, 0.339960816365, -0.156701985474, -0.56971994346, -0.236531947538, 0.0587281691331, 0.387538566684, 0.169663882749, 0.156214799519, 0.452730113488, 0.118283476182, 0.269141961152, 0.137797593527, 0.484902192066, -0.298601700035, 0.0504717113185, -0.237057959878, 0.170703603372, 0.119906940288, 0.233597374127, -0.554612635621, -0.0625449421953, 0.0911880698359, -0.466660513406, 0.0932141174514, -0.107551259253, 0.241800968576, -0.328053642099, -0.00567252771057, 0.149993222461, 0.309701083427, 0.0688315528796, -0.114902387458, -0.18196347521, 0.140915193346, -0.385118740205, 0.134617122171, -0.0461370155949, 0.170867522581, 0.648549705037, 0.193851798533, -0.36577259741, 0.0112020901355, -0.201162637577, 0.0701604904909, 0.307827461201, 0.680332984328, 0.199255175046, -0.534365436705, -0.0348634047437, 0.219939775328, 0.306167897087, 0.443760434827, -0.558771133961, -0.26649643667, -0.284908837759, -0.0322804491533, 0.139850862842, 0.390532467468, 0.307671576026, 0.409312132073
0.0803215587712, 0.240702776002, -0.126346154616, 0.0733507525413, 0.121783537703, -0.203344414848, -0.0529495954262, -0.043518484318, -0.00190874664336, -0.00234601065503, -0.150050768186, -0.295656411502, 0.289335322152, 0.228997180599, -0.154127226525, 0.196700483692, 0.166578713266, -0.490554647339, -0.255306180051, 0.00987511698368, 0.142539895669, 0.456837699167, -0.0413154735344, 0.112187468103, 0.0764234885, -0.498605875395, 0.397885275765, -0.289063766681, -0.0971118858009, -0.138757791576, 0.662220167175, -0.262722572139, 0.0160999008996, -0.0363513046078, 0.155433606601, -0.0154131986322, -0.280971132486, 0.177474433321, -0.454689929672, 0.24476007881, 0.139175127812, -0.217806911809, 0.343634370396, 0.142290112899, 0.217223348229, -0.140618844859, -0.319385411725, 0.0118989868979, 0.616626604885, 0.108557191966, -0.180754844659, -0.129332482818, -0.191802095708, 0.417071238765, 0.0807692511023, 0.150591992605, 0.031133751228, 0.0513814292774, -0.0652996174609, 0.449740701427, 0.0882026633859, -0.251630097821, -0.37773426891, 0.079427065885, 0.389889038835, -0.174244882293, -0.62475915774, 0.248437280528, -0.0847864327108, -0.218499688343, 0.0676847613414, 0.0310188993174, 0.139386168134, 0.200956324834, -0.464306617757, 0.425293924022, -0.197664741643, 0.201734012844, -0.156445333086, -0.0412083861758, 0.213979066341, 0.136356794533, -0.143600482266, -0.594643588189, -0.224945593079, -0.0908175760527, 0.0470017881667, 0.246856435867, 0.422658773355, -0.254034095357, -0.130694483125, 0.487084000232, 0.199762098826, -0.284319653546, -0.347247731502, -0.361192501052, -0.217569649585, -0.42220739531, -0.0566862286641, 0.0930074252675, -0.450969636272, 0.170584064156, 0.320203242989, -0.0361387667062, 0.416089444652, -0.184807160728, -0.0292170124876, 0.152758596156, 0.176622071262, -0.00388785818425, 0.135851279584, -0.407056184473, 0.14429964509, -0.281332579234, -0.274584843174, 0.471359137018, -0.0479672177444, -0.101324531102, -0.226060046611, -0.212049613614, 0.237704849806, 0.415342559617, -0.0720266542159, 0.346153067165, 0.020429710819, -0.11319759077, -0.0970831843709, 0.710192437302, -0.247216456623, -0.0275235494637, 0.0889821604332, 0.601063353798, 0.0545212301037, -0.268692616679, -0.196465615909, 0.0201194690704, -0.016852966801, -0.0294387328054, 0.0420076554108, -0.302022830592, 0.0147018617004, -0.278065370732, -0.135886202072, 0.338681095197, -0.296570613097, 0.0235135685366, 0.267468039469, -0.307679157025, 0.0157721913302, 0.0169516605633, -0.185315250053, 0.270615593305, 0.0232989003479, 0.0577504435142, 0.258738529619, 0.530320972692, -0.215986226503, 0.0091394672437, 0.0662221315854, 0.647438308311, 0.197324690857, -0.226759428737, -0.0704099537747, 0.0824473741461, 0.0260180996065, 0.258317441843, 0.296659863675, -0.156376941535, 0.501784325817, -0.057857881296, 0.241691590401, -0.361491417482, -0.134152657416, 0.0479206956223, 0.183841306482, 0.107519040629, -0.341079470573, 0.342308265436, -0.153591567416, -0.355700735687, 0.36979771023, -0.121223283308, -0.0829658368663, 0.051101214101, 0.242556804664, 0.342024585651, -0.07554974147, -0.3228449271, 0.196708563791, -0.114702640828, 0.143000210994, 0.017132276763, -0.0266812347857, -0.193209800821, 0.0423692618112, -0.19959737983, -0.0968845269805, -0.319703846132, -0.217036152045, 0.0100507779426
0.323600547762, -0.63373354426, 0.0374014145204, -0.437411512945, -0.33682111605, 0.0730222346087, 0.000149960959058, 0.266391531749, 0.170030714465, 0.0673546135368, 0.223432611211, -0.171422548548, 0.00487637807114, -0.297628591242, 0.190837653956, -0.331274234673, -0.619754792872, -0.0936413162884, -0.181214543598, -0.112054944223, 0.0703201953181, -0.239168043269, 0.150230781009, -0.514264232069, 0.200795477541, -0.323597333662, -0.155635968772, 0.118825994783, 0.0417451057337, 0.331951916994, 0.247520934818, -0.399309550333, 0.00582767794653, -0.25527868118, 0.492029366906, 0.271101150942, 0.0898419568013, 0.149285066014, -0.148477949231, -0.0955621367787, 0.289216592658, 0.691031788409, -0.177268952399, 0.0347766938118, -0.0980951113605, -0.537639497919, -0.459502999822, -0.240150394896, -0.257520253, -0.279670303565, -0.258567392511, -0.0784430683035, -0.130748673712, 0.345661217817, -0.00984555283857, 0.413180199358, 0.167096058999, -0.358188828985, 0.0653829367922, 0.0896946610148, -0.208849527342, 0.0331024201229, -0.106081311275, 0.535003120315, 0.0517987144752, 0.268554814908, 0.183533669935, 0.262426282234, 0.195617537777, 0.161265024207, -0.0605545333531, 0.00849005128357, -0.104700513706, 0.166788800646, -0.431247829729, -0.252838544731, -0.190141577386, 0.137527882875, 0.135748799445, -0.109604835461, 0.554978782064, -0.602236614616, 0.200494664205, 0.0634839453026, -0.0964413640108, 0.360124222457, -0.192001388581, -0.326291256459, -0.21009526038, 0.0343192094206, 0.165732141802, -0.0995588978756, 0.079849038316, 0.208917005054, 0.860489226782, -0.0657433424244, -0.392876032163, 0.0910999831953, -0.0137909863338, -0.242909919809, 0.350111495877, -0.162811779854, 0.123654756364, 0.101012495923, -0.181394806295, 0.305788996375, 0.0170671573172, 0.297797992862, 0.284681173809, 0.0583476253072, -0.0988885703532, 0.547919519197, -0.385008930052, 0.0357605528227, 0.111430843623, 0.031389226863, -0.0946905905232, 0.408751806116, 0.0376508073182, -0.0423819538245, -0.243904608966, -0.624556991673, 0.0525661781259, 0.27948459543, 0.289223901263, 0.221854833995, 0.307528719432, -0.00525138553705, -0.134944762278, 0.587051093756, -0.455911284109, 0.0548716556276, 0.019502530057, 0.00329676910969, 0.0378362872873, -0.12779568355, -0.0360025154976, -0.389364055694, -0.00327594937931, 0.391249893923, -0.267030040677, 0.267706529755, -0.175571818213, 0.108793227389, 0.238237875775, 0.0302466170813, 0.217379936447, 0.263266000221, 0.0123899912378, 0.199554993751, 0.225264074532, -0.342065171261, 0.221883210499, 0.489674867031, 0.183245090874, -0.0747639421829, -0.231895179806, -0.39291457881, -0.299065805765, 0.0897385559402, -0.342021832817, 0.260243187741, -0.0869260382624, 0.15137468124, -0.146770291055, -0.147367080522, -0.298381105525, -0.0242581580632, -0.148319507822, -0.201371183629, -0.286634322839, 0.035888130973, -0.151071516663, -0.111832790506, 0.117645199133, -0.0193157928659, 0.124959833427, 0.0816967927349, 0.00414534146579, 0.0203052117254, -0.103949933264, -0.0463087406693, -0.167163134551, -0.0310109363044, 0.683503623743, 0.577900299463, -0.0237105907527, 0.0738733143349, 0.582768908354, -0.376102593614, 0.0597504251554, 0.192666429257, 0.524234905883, -0.165386651957, 0.0336423377863, 0.412379546356, -0.215721523113, 0.424008381373, 0.0617345506518, 0.115658310881
0.10011281647, -0.018543322164, -0.146580651942, 0.498445967793, -0.0259630228918, -0.196039725307, -0.0252208027694, 0.140630069112, 0.111383616325, 0.238929560324, -0.0126088802555, 0.435620305299, 0.164345566004, -0.0715367971859, -0.169852567928, -0.0600977619196, -0.0500954959432, 0.160570125756, 0.507396812145, 0.437984516879, 0.00766030358792, -0.344860795683, 0.148175435272, -0.0683228520652, 0.169950380055, 0.103789091558, 0.338839251244, 0.00436255418795, -0.0295463676324, -0.0961182082356, 0.205925949806, -0.0509690205541, -0.138466911802, 0.425138721375, 0.522852938807, 0.1056039055, 0.398612789022, -0.409030200682, 0.142062788727, 0.422171747254, 0.165368402986, 0.219981545311, 0.128786559664, 0.0722657323469, -0.0469133593298, -0.383640081651, -0.215077341056, 0.144217704797, 0.435470976992, 0.203958989836, -0.663356859008, 0.312812157277, -0.723281437036, -0.0873216963092, 0.0258781220118, 0.00290082505956, -0.138500249531, -0.202119703883, -0.129118767629, 0.10308601315, 0.13911065765, -0.0508732365802, -0.0207961187471, -0.343397907867, -0.445791678945, 0.108036390689, 0.200549096794, -0.270319533389, -0.0978315412498, -0.0183894786253, 0.133246421315, -0.0997993254709, 0.162260195597, 0.113575320078, 0.314827531626, -0.0108451246469, -0.242327770358, -0.115515969076, 0.417381274201, -0.104058102099, 0.172174179527, 0.421571063995, 0.00106215709796, -0.0178004466199, -0.100924632545, -0.135596541649, 0.304083204408, -0.0406868428247, -0.50115835168, -0.0697163346028, -0.247107500586, 0.218576053243, -0.0534305344815, -0.0322038368739, 0.458225130036, 0.347730599534, 0.0788470937839, -0.0850084644751, 0.463063219801, 0.106774827728, 0.439616452837, -0.142983709883, 0.0104376697483, 0.0394421521464, 0.0735331864978, 0.0158237533779, -0.0978498755184, -0.7045608859, -0.412523158, 0.263555557502, 0.0968244719552, 0.490937961315, 0.312314510969, 0.724553299419, 0.337459026889, -0.0504281319355, 0.0201518492406, 0.0827579383657, 0.13684621785, -0.639179838482, -0.106673978072, 0.31990310868, -0.120407661949, 0.249426317709, -0.360736315149, 0.239691039578, -0.291581935985, -0.221845590203, -0.557716681882, 0.0859809645641, -0.0087921140352, 0.0107069366648, 0.444649927965, 0.682355749794, -0.199236963824, 0.163787563705, 0.19828123898, -0.146196574382, -0.0941338214066, -0.289045426595, -0.161013558266, -0.0667630124775, 0.033777276663, -0.0673771557153, -0.226092584696, 0.346077516757, -0.275022393114, -0.324617860692, 0.271441654681, -0.0790808913445, 0.269597948712, 0.650658776765, 0.0933949246237, 0.309202097991, 0.135028882007, -0.157164851221, -0.187891591873, -0.782790635115, 0.0879374708818, 0.128238377521, -0.551857553794, 0.211363140513, -0.272681354318, 0.0507273785439, -0.352302036482, 0.0716994056796, -0.210366114184, 0.0788598650838, 0.159691539151, -0.0589157585105, -0.0693238798545, -0.199252011522, 0.0797054188821, 0.341835785352, -0.0276998376297, 0.0263449999411, 0.105558141892, 0.0885568889933, 0.128646240471, 0.497591484505, 0.497569611774, -0.413011147269, -0.0817749221442, 0.194504960174, 0.0656324126907, -0.221836459064, -0.49946318392, -0.0617520048093, 0.265396300881, -0.0118732121192, -0.174577095209, -0.211735858796, 0.0520638058104, -0.0128860809395, 0.080125516849, 0.162989022577, -0.198239619664, -0.0442227969061, -0.0787585486779, -0.114865306046
0.190315137131, 0.567439635831, 0.565443714383, -0.45043099158, -0.168026453808, 0.459128252219, 0.0392422678267, 0.44131171287, 0.149805716202, 0.05191745595, 0.20774823018, -0.0669767323447, 0.311922068054, 0.109035401168, -0.00441258915522, 0.264715418077, -0.12839421242, 0.164135598694, -0.0221717421645, 0.074246465591, 0.774945339413, 0.299537098775, -0.0821144474671, -0.0992523151, 0.118236038521, -0.0387230122015, 0.310754304279, -0.0723554945189, 0.345181756398, 0.280938615309, 0.484616471682, 0.0701960190213, 0.369343245641, 0.0376631863569, 0.203482501394, 0.104780919218, -0.0570875071265, -0.00331570913952, -0.152390655994, -0.000198629395132, 0.220637457902, 0.139488522308, 0.437313879767, 0.266203789044, -0.236623849949, 0.2176564191, -0.109894105679, -0.18044378625, 0.473430686074, -0.0123575079144, 0.0186664179634, -0.0709290032083, -0.0726237737474, 0.225820224979, -0.420983729925, -0.00764673898043, -0.278693512546, 0.0998076359194, 0.0671356820013, 0.609882736321, 0.222133874257, -0.431735266006, 0.121683493984, -0.071202073365, 0.429470129438, 0.203517238858, -0.29481220433, 0.265321803068, 0.131845508301, 0.16572958983, 0.102536754153, 0.0178757760719, 0.262944695378, 0.173577989378, -0.335545162328, -0.174629045325, 0.00950044335213, -0.0355105960603, 0.258424848602, -0.133556740338, -0.175781997316, 0.406767148136, -0.310065326268, 0.20444174188, 0.0796163749147, 0.326677391642, 0.400577549351, 0.00152677750522, 0.138855312796, -0.452345134665, -0.235561723815, -0.0393148893933, 0.24595290692, 0.141645479366, 0.204623324522, -0.310777043448, -0.0890307822582, 0.18375088774, 0.143024896708, 0.454620911961, 0.279744935015, 0.121157263804, 0.500445178466, -0.067687469146, -0.140038820467, 0.157660539523, 0.117717304801, -0.26376488897, 0.228289260184, 0.16791426747, 0.335506231766, -0.00650312387942, 0.214463246239, 0.100330385612, -0.0400118312677, 0.00533329800703, 0.267208033143, 0.0980292375988, 0.191604195224, 0.169721345229, -0.105087614095, 0.638201867421, 0.132974241728, 0.0665557211692, -0.0117543571422, -0.196585402176, 0.234866465225, 0.036884549698, 0.0664487906547, -0.204653516984, -0.0672746839933, 0.42777108357, -0.0562085633325, 0.296053158218, 0.391475268207, 0.218312638594, 0.336424224206, 0.198329228905, 0.0597312497021, 0.160347419583, -0.212999036462, 0.335940861023, -0.0068626407499, 0.381664680548, 0.0496488341911, -0.0414798250527, 0.508318400091, -0.0384142071001, -0.0326648127161, -0.0949938931949, 0.320844566829, 0.452134328582, 0.553330646369, 0.213606069197, 0.455585034888, -0.2383949006, 0.0809518640906, 0.353758441215, -0.303696033836, 0.0800664523259, -0.206929978802, -0.586481360563, -0.00625491289871, -0.210304082136, -0.0976596700381, -0.00148674807217, -0.283198662798, 0.163783326406, 0.0284258941702, -0.0958372102629, 0.443386149606, 0.39980918604, 0.00296511687969, 0.0574320187936, -0.090961069062, 0.0405713815843, -0.48976991564, -0.0245883703382, 0.603820795327, -0.215492666794, 0.116309264668, -0.0698122253112, 0.191429672155, 0.0836972361312, -0.273499265589, 0.0840910987526, -0.291074369113, -0.760530526151, -0.173074685542, -0.284496862418, -0.0921458899505, -0.158569837896, 0.186677211844, 0.399369404285, 0.324395044552, 0.00804235618883, -0.137324914045, -0.259199619708, 0.0352603965251, -0.00253029786837
-0.023985361618, 0.182661578437, 0.244105857524, 0.621157374483, 0.427472207755, 0.473504865052, 0.0667593422179, -0.182174869465, 0.106932260062, 0.0909644000541, 0.145289043516, -0.226168642316, -0.398180692268, 0.118372373178, -0.165989817928, 0.00883208450233, 0.0138134050979, 0.235899600985, -0.200783349613, 0.113345339554, 0.285770169378, -0.0179479806049, 0.148338791163, -0.451612298147, 0.0771171029387, 0.627779099589, 0.215072765103, 0.0994586626543, 0.0206299321302, 0.39280351676, 0.227991741299, 0.0565246994055, -0.48868868333, 0.103171057236, 0.0445343649826, 0.412642736681, 0.373913090163, 0.199035380674, 0.0418493366143, 0.318078561253, -0.103241583037, 0.384229254786, -0.0839965226728, 0.34138185982, -0.070133893374, 0.306205066064, 0.160233341872, -0.0075522999081, 0.375462771397, 0.0455701904814, -0.224991266494, 0.421753459671, -0.154498753407, 0.153155961414, 0.529003843908, 0.239446523945, -0.458104526291, -0.438174504474, 0.15629828342, 0.354850704904, 0.204269233768, -0.150355775773, -0.127153913727, -0.499456964678, 0.0087165772319, 0.0360681047343, -0.224576707272, -0.374109980542, -0.158158092026, -0.0310814473029, -0.0562295671113, 0.237108572918, 0.184982282216, -0.0708435875405, 0.0289513197967, -0.344321242454, -0.00261018112664, -0.0967588370257, 0.116267067431, -0.0159631685318, -0.0650605053322, 0.517517959821, -0.0813424764753, -0.00814098263523, -0.0223142973627, -0.265509410535, -0.148791611411, 0.113597005211, -0.0426534633344, 0.280640587579, -0.0636301451053, 0.168137546284, 0.568149653325, 0.0668806126326, 0.0496054531704, 0.129081627871, 0.176621943739, 0.366544566595, 0.178353537678, -0.074442680865, -0.360720759074, 0.306814163351, -0.0916329050938, 0.439565282897, 0.641780989154, -0.194029697905, -0.00481403529305, -0.373748330761, -0.0551583852999, 0.459653850944, -0.373918322161, 0.326550824707, 0.262793321481, 0.492311540389, 0.450214972336, 0.133425130732, 0.141662385639, -0.0455368120916, 0.0467109568803, 0.0555393781059, -0.150656500571, 0.442901140074, -0.304404573905, -0.297239015811, -0.242664229982, -0.233182836414, -0.445226260597, -0.45604190385, 0.369103908501, -0.250126274096, 0.116213597193, 0.0223220218039, 0.403029645652, 0.739345795024, 0.333440912208, -0.0939371471802, 0.168858197941, 0.557224898787, -0.288017205577, -0.133629257115, 0.159834892105, 0.276238319582, 0.0563657171027, -0.267616957094, 0.220773927283, 0.202880361675, -0.0240994462739, 0.199394003166, -0.00245755132924, 0.288646323062, 0.0121468478366, 0.415530591622, 0.270015556563, 0.498957777728, -0.326656599861, -0.238620789586, 0.386957563748, -0.00098791382979, 0.31686783744, 0.104098390097, -0.487145973113, -0.0246220057899, -0.880728368741, 0.01438556784, -0.429004673242, 0.251835229684, -0.274815982428, -0.281197153408, 0.125393109746, -0.0284833874143, 0.223107112011, 0.185828803838, 0.134903778085, -0.0669835790839, 0.0499871706379, -0.140475030783, 0.00859727772632, -0.221735637853, 1.12238793818, 0.44069775694, -0.0439383633977, 0.401101045671, 0.438903275387, 0.077494284025, -0.378468672646, -0.335916092172, -0.448349609095, -0.280876772465, 0.235339563686, 0.185065574081, -0.0978800566634, -0.0980715096989, -0.084279281072, 0.411644774396, 0.468227712795, 0.238709553514, -0.235560164585, -0.309098875777, -0.205115799595, 0.149929051665
-0.212407376402, 0.339965872168, 0.00779082758597, -0.0312967179042, -0.0810673689148, 0.099534246037, -0.045672771885, -0.501345313314, -0.0352366805908, 0.0938648125027, 0.0397965162036, -0.0848705671528, 0.192727488311, -0.0105613721039, 0.136489916268, 0.225041002806, 0.164040258019, -0.265582342815, 0.16688415587, 0.437926362834, 0.32274684945, 0.092924901682, -0.0408307620658, 0.293719646983, -0.0363101964766, -0.0728233277994, 0.463563435635, -0.142414167422, -0.105993795365, 0.170449470043, 0.283995535268, -0.101877970746, 0.0370834411903, 0.356785525102, -0.0207241972874, -0.329397904632, 0.070932768397, -0.177684676833, 0.479510061437, 0.0973113998786, 0.107049015192, 0.402948546943, 0.257351375947, -0.245463470249, -0.0726631674526, -0.214293771572, -0.08793740076, 0.275798806831, 0.237581434988, 0.0999589177349, -0.0965905554165, -0.0427617049123, -0.0512060985714, 0.0475131449977, -0.153891703736, -0.0687429322605, 0.189282496613, -0.988832769965, 0.261344835912, 0.0872132980567, -0.241341952743, 0.32692769171, -0.192120198013, 0.110082430323, 0.148744349527, -0.0694568656612, -0.268314084032, 0.312857921153, 0.197927541045, 0.0871558397124, 0.0665916757433, 0.148275700198, 0.297193090023, 0.0832293260114, -0.0732613188922, 0.404879951066, -0.293242751119, -0.212105517916, 0.195643378315, -0.33420407774, 0.108471133017, 0.241227030104, -0.0644912204042, -0.268532308417, -0.261201409851, 0.115898481129, 0.0120384164278, 0.0202863207511, -0.0020617632814, -0.195540331362, -0.0739328887246, -0.319602800511, 0.165159180091, 0.16354593049, 0.019249732442, 0.317473968143, -0.367034833023, -0.185263713295, 0.0365937929146, 0.571025039475, 0.0805094523779, -0.11638482724, 0.128200524062, 0.250233766688, -0.0491669397273, 0.290526135351, 0.0476683477525, -0.0925348151524, 0.00909049142497, 0.0354262607569, 0.0576077255635, -0.230736445248, 0.165515416786, 0.48872948374, -0.00569619167525, -0.163665183465, -0.303437351531, -0.361879713176, 0.124440277781, 0.377830331839, 0.128538480492, -0.0945340556364, 0.0232627587908, 0.0457042766797, -0.131287650456, -0.143883458437, 0.128918291366, 0.319364325099, -0.049339481882, 0.126171184688, 0.306716790491, 0.145173288491, 0.451077479979, -0.076453756811, -0.546382311336, 0.297846740422, 0.117765185465, -0.144168063948, 0.143777295903, -0.06402647089, -0.065647029544, 0.126787315495, -0.167950162631, 0.180266359188, -0.0631966343229, 0.0148369499076, 0.0522275074881, 0.0320215828124, 0.0468134432102, 0.169392981704, 0.357920505128, 0.576904544969, 0.275035210899, -0.137808133723, 0.361093762714, -0.417874057318, 0.200789568194, -0.151402940058, -0.415674304592, -0.19024031089, 0.413821052658, 0.33762436692, 0.0605220406652, 0.265068336757, -0.120945157977, -0.0844433518693, -0.0842126900677, -0.118832290898, 0.183789569959, -0.0164575245625, -0.220191808211, -0.433318409003, 0.0197576699511, 0.389685120378, -0.324613078011, 0.0646708604262, -0.188588024687, 0.138171017472, -0.100542239981, 0.295931278513, -0.0925539490032, 0.227200924096, -0.254445185327, -0.228942027346, -0.0301979180849, 0.329452375306, 0.5081320078, -0.329248843867, 0.0718566614756, -0.187689991445, 0.184296126072, -0.191535087539, 0.00846261540497, -0.102328728616, 0.0445932163838, 0.145932270425, -0.046030860535, -0.226575884411, 0.237106585488, 0.182906648145
-0.0937687758132, -0.00437555605944, 0.13296087682, 0.127009067931, 0.0661182925382, 0.0612925325628, 0.177347920678, -0.0706390955192, -0.015613583607, -0.046834903968, -0.46725425511, 0.256621292084, 0.00653386440779, 0.24285134105, -0.122841916004, -0.0131606775735, 0.241935755471, 0.062083618852, -0.0816793745006, -0.27780709214, 0.358492832913, -0.110954034622, 0.0571884510536, -0.0334908958881, -0.0630664094745, -0.00681811873676, 0.246420166811, 0.300923439574, 0.182544250312, 0.0131432517909, 0.0846628502835, -0.0420524917005, -0.175419698465, 0.0612316398627, 0.271333033273, 0.125277499922, -0.126480813469, 0.237211773851, 0.0660147866652, 0.230780669303, 0.0717739814995, 0.556794113308, -0.018514765304, 0.086218782777, 0.251281337883, -0.0202454440349, -0.0019781485309, 0.0334839017751, -0.0331509009943, 0.217347263543, -0.00223566653376, -0.0158022858398, -0.148419976799, 0.0480822786204, 0.300114390243, 0.0624159589256, -0.253339661802, -0.000980556999223, 0.0717723249117, 0.265699016126, 0.0787398236845, -0.541690329493, -0.138035948652, 0.366354635167, 0.234414449632, -0.261356247785, 0.125897017537, -0.367224664026, 0.0501046025462, -0.0759924237298, -0.0517673327922, 0.0743274911988, -0.0280175434841, -0.153937839538, -0.195930569884, 0.0228448174326, 0.024189981751, 0.164556103637, -0.345457797604, 0.124111114841, 0.145708128793, 0.101038300792, -0.102247246094, 0.199169280458, -0.0343588083148, 0.0484329035108, 0.141741052161, 0.10680406642, -0.0783999858132, -0.110768200476, 0.0016424982652, -0.125280815264, 0.141914664215, 0.138956322949, 0.116466609555, 0.0494197646162, 0.148768969298, -0.0848506579509, -0.0192287073604, 0.252988711063, -0.217499417746, 0.292164304264, 0.0632922751218, 0.0359256478175, -0.0155000247489, 0.379073365244, -0.183699445776, -0.0389365346011, 0.330604705208, -0.071567151345, 0.207466148691, 0.141066004364, 0.241601333335, 0.288333224412, 0.213226217912, 0.0893976269698, 0.222416339837, -0.0377224866101, -0.309276677994, -0.315355688065, -0.244358111564, 0.4335360414, 0.0567199223764, -0.0185653638818, 0.139842039553, 0.200110670988, 0.0389810200957, 0.207657029571, -0.478489406549, -0.00714214207803, 0.225058472617, -0.032603742098, 0.248650267247, 0.155168323813, 0.0966208382745, -0.0663359015807, 0.103346155952, 0.132835691157, 0.154744865654, -0.227579518628, 0.0504017179586, -0.20072987715, 0.00889034240274, -0.186862415663, 0.203387740613, 0.353340666533, -0.0285138432353, -0.30844540436, 0.191386015328, 0.464984781677, -0.249466055961, -0.0260460309969, -0.162008161999, 0.0666904908896, -0.231138015123, -0.145890138803, -0.17700093625, -0.315477070262, 0.25969665009, 0.175445341365, 0.114232834065, 0.108657622804, -0.0945138584874, -0.0886845010495, 0.200839148946, 0.10878407572, -0.168971335616, -0.293724341581, -0.269713091301, 0.0325483106269, 0.0143707422447, 0.176797196345, -0.250086885539, -0.0303206329468, -0.0417316925436, -0.050630906308, -0.0865506250593, 0.0710472503258, 0.101236757567, 0.286535850172, 0.165250718448, 0.0365917956331, 0.558343236108, -0.163610657717, -0.11606884431, 0.324380317892, -0.0719576860143, -0.308724157274, 0.135500334372, 0.17183027401, 0.0179907479057, -0.0889088897111, 0.348237540047, -0.18696384515, 0.0461461141746, -0.0313850544325, -0.122239917644, -0.0285416232839, -0.0289298517407, 0.0485278609026
-0.136531173193, 0.0937306409834, 0.0685859182274, -0.00500697722671, 0.362725279081, -0.187096626777, 0.30184918244, -0.0590143733324, 0.190538966984, -0.326446896923, -0.026431790605, 0.0588117883973, 0.192564024986, 0.0118403816494, 0.222928007523, 0.0532127113506, -0.0479087448379, 0.150608247079, 0.00736024182024, -0.00968740472066, 0.287525413909, 0.142321458929, 0.0158527546197, 0.352160534938, 0.205062874968, -0.235788666539, -0.109099191668, -0.0116701144018, 0.180683840843, 0.37876288528, 0.485304795353, 0.238026510512, 0.260167416185, -0.097573851535, 0.137447356885, 0.521402932615, 0.105085433832, 0.382754166006, 0.149758372439, -0.138228306578, 0.0448461863203, -0.557769856426, -0.256773932986, 0.244022101675, -0.144859243264, 0.105201020399, 0.0523988132653, -0.136089349889, -0.0522139873889, 0.363516508499, 0.814856493018, 0.209607134609, 0.159321524197, 0.13772246424, 0.112011075408, -0.0573859508236, -0.142234200013, 0.26196167769, 0.304744842643, 0.0690353596946, 0.340091974888, -0.378963465719, -0.284891223636, -0.151782059379, 0.417688671989, 0.00705236670875, 0.243446737486, -0.142414262037, 0.189379132203, 0.00405434700162, 0.290135762235, 0.13930935631, -0.0830022383862, 0.0461255589116, 0.24506410879, -0.0173077832356, 0.318063143767, 0.0761957065139, -0.231997762286, 0.510898858934, -0.241920394993, 0.000695067773712, 0.0201288285823, -0.124966223882, 0.171547924642, 0.268035333794, -0.165639331691, -0.0128442220782, -0.0214040997488, 0.0150304558159, 0.349873579824, 0.0742126153163, -0.0832883938569, 0.398207955474, 0.00785763555785, 0.0133323953535, 0.107870442792, 0.436893571954, -0.260123705997, -0.00256065808064, -0.0785390586634, 0.443254530785, 0.434006546696, 0.29784711874, 0.222433460337, 0.541963485387, 0.156217208907, 0.0996514805555, 0.442599527944, 0.235438005913, 0.264884420559, 0.330749312066, 0.0783014996361, 0.126611783872, -0.0991845209931, -0.34542163497, 0.512495393571, 0.292309424266, -0.116708615603, 0.262983275812, 0.245489272618, 0.496246555969, 0.0991631748521, -0.212568861954, 0.17001826647, 0.546154787035, 0.433754560402, 0.715684112851, -0.0125086442249, -0.17475637132, -0.329058596657, 0.2392112553, 0.0762219504119, -0.06081316805, 0.00768326372433, 0.171245565133, -0.147878501651, 0.0438028072519, 0.326542456903, -0.0349146488796, 0.3428478192, 0.280465874798, -0.0107278431366, -0.0578801714627, 0.188582160311, 0.0596954034122, -0.0744320092422, -0.102405032007, 0.111328891626, 0.270870555339, 0.0254645585093, 0.120574544684, -0.147832413755, 0.246085485832, -0.00495938562878, 0.417244009401, 0.321796739752, 0.791032256757, 0.502197462951, 0.0511571340474, 0.104827903003, -0.0362766789548, 0.154806279657, 0.271660118127, 0.0626020185459, 0.198926157511, 0.536124959569, 0.0107515430815, 0.162351717236, 0.0713495272496, 0.423212716187, 0.511291526835, 0.0726942504338, -0.0160406062464, 0.346845930178, 0.223258771675, 0.210822941782, -0.157644502202, 0.0909671769404, 0.128602274107, -0.488077445067, 0.109970242631, 0.488826580535, -0.0601416686439, -0.56165620044, -0.289856990001, 0.344441470303, -0.372501388788, -0.152230735776, 0.34499464055, 0.0114607088877, -0.23672213528, 0.336440477609, 0.46798630663, 0.0749081055348, 0.116755396952, 0.255954065138, 0.223675303797, -0.39103977961, 0.299256532449
-0.268706094193, 0.0558069688974, 0.109107545617, 0.294290644722, 0.630353424671, 0.15454548652, 0.199146440838, 0.0865479533229, -0.0753525130561, -0.288339991897, 0.346381763916, 0.00194190500599, -0.0520396863342, 0.0691918374918, 0.434865215172, 0.207816852388, -0.44063242084, 0.621355456469, 0.13876032418, -0.0680936661825, -0.278409390409, -0.128313916857, 0.0398817687136, 0.129321039588, 0.087530061092, 0.713728777314, -0.0519485748717, -0.0386493486303, -0.0870192107385, 0.0868444468816, -0.2255399165, -0.0760897023033, 0.174372272361, 0.142586131108, -0.366897596206, 0.324655698849, 0.034141575747, 0.255753482403, -0.112761212699, -0.200822703429, 0.254117984746, 0.15203361851, 0.260445987618, 0.299260470618, -0.151531209399, 0.0566705005279, 0.196646930948, 0.7643182049, 0.204873127416, -0.179939521662, 0.392797910095, 0.0998823996354, -0.372421275971, -0.260787683352, 0.0247120002862, -0.034358950952, -0.114729783818, -0.227620996277, 0.00284045552587, 0.376343202168, -0.240337692986, -0.289758986197, -0.0894118962473, -0.42939702685, 0.485554109168, 0.0774907677195, 0.0867535076331, 0.273729837866, 0.0533728291755, 0.239501680195, 0.0913945392215, 0.0301170066532, 0.154662458488, 0.0792255809655, 0.196290693143, 0.255192664651, -0.0345535973102, 0.116867945925, 0.306606379262, -0.148664780977, -0.154903429651, -0.122056693934, 0.548759295003, -0.109781519224, 0.0517092756985, 0.0581380721901, 0.261463156834, 0.159518815265, 0.261179159814, 0.228687905646, -0.213216761221, 0.597204720883, 0.46844121667, 0.151717771988, 0.53743676706, -0.221678972525, 0.194657420015, 0.186479457908, 0.0933129225403, -0.154208425269, 0.358941311248, 0.0630601090912, -0.250233998405, 0.234363229785, 0.0599944542838, -0.136362332697, 0.0127038388226, 0.00706394354691, 0.104475367348, 0.0657697660059, -0.224247881643, 0.0913301411571, -0.0191693187485, -0.0669623704701, 0.53733090084, 0.338348151774, -0.16696105851, 0.310769923757, 1.19678550894, 0.0235587468837, 0.228872528161, -0.00587559867998, 0.172787886668, -0.0424548068469, -0.191653839599, -0.501642902487, -0.046481932008, 0.288438906299, -0.341540678902, 0.265697056999, -0.0660869618409, -0.0561125295044, -0.570373881416, 0.0384247743434, 0.282920994743, 0.185771601011, 0.263362397607, -0.0772271739801, 0.0928248869198, 0.250786027334, -0.236171176553, 0.0918618457825, -0.0744439484377, -0.194709150053, 0.218244717025, 0.0620400441968, -0.0746701942742, -0.0760501902869, -0.11844085981, 0.165742886272, -0.150855701583, 0.0154795484257, -0.0210449659704, 0.0904777203151, -0.370961876681, -0.150524364537, 0.251514958773, -0.176613810272, 0.272848895532, 0.200372309407, -0.418484672934, 0.484622568023, 0.0363316998179, -0.0407911003263, -0.0164844334953, 0.151677509725, 0.292476614824, 0.221476773438, 0.0098911526735, -0.0337420845245, 0.0745576073345, 0.281354377056, -0.24199650047, 0.0463432871569, -0.397473515191, -0.0171158610899, -0.02172585301, 0.586596323782, 0.383565286862, 0.219184426851, 0.291711565272, 0.171897398941, -0.275339406114, 0.189588261345, -0.818110708822, -0.0298335742255, 0.43626973746, -0.365148407455, 0.560054869397, 0.527650927435, 0.0773238175009, 0.152048777046, 0.149384038032, 0.267156646709, 0.129138050568, 0.0232886137145, 0.144385626804, -0.176112325609, 0.198333209138, -0.0299391684644
-0.196271917592, 0.0145852368496, 0.152471846536, 0.194761774425, 0.0774184284726, 0.0581577541823, 0.164071640997, 0.095633375304, -0.0957024177911, -0.122046640625, 0.212652711575, -0.107858679996, 0.176963216356, 0.138095219949, 0.0418739436812, -0.0117434268091, -0.309257926082, 0.0717878993749, -0.535946201444, -0.290050570641, 1.036105229, -0.103421735176, -0.140987971588, 0.107620720637, 0.0787073918241, -0.205079246195, 0.332606452072, 0.138458922558, 0.223160468973, 0.0278849192038, 0.0431604526705, 0.0127460260392, 0.117050027699, 0.243549504554, -0.174858676396, 0.0980950342832, 0.158056871032, -0.100060303297, -0.118415535755, -0.0273502330378, 0.469166856541, 0.435397110492, -0.305594620596, -0.26157879712, 0.00466483583965, -0.185778924274, -0.302611530754, -0.080876177411, -0.0806676837239, -0.013390059677, 0.184068142097, -0.0189593109179, -0.306381916624, 0.0351879007813, 0.241058665815, -0.247826013583, -0.0727547052591, -0.872045604485, 0.263582601493, 0.442089004569, 0.1095924321, 0.112863295655, -0.373233475347, 0.103991165109, 0.491311265967, 0.00166480929345, -0.200504873567, -0.257955395269, 0.107527870463, -0.0229088255504, 0.178773296798, 0.392488001373, -0.13059233375, -0.127109375513, -0.0106368496351, -0.0370315150258, -0.0361928669684, -0.330288249805, 0.271326063675, -0.248789707704, -0.256114162544, 0.36371231964, -0.295927490343, -0.656877635393, -0.282844099754, 0.364978476255, 0.0622119556634, 0.130905061824, 0.365469064987, 0.101228874998, 0.0671377085391, -0.438187003222, 0.436307979139, 0.00369934211424, 0.266560584824, 0.115817098544, -0.225270965916, 0.034740561373, -0.108932449953, 0.465404895818, -0.171519871301, 0.235518877646, 0.107096080754, 0.0716632188471, 0.00165133699428, 0.359775979072, -0.230688043206, -0.408395056728, -0.0147628691611, -0.0765229866352, -0.0946053560186, 0.328457678712, 0.435534185563, 0.390298878105, 0.0209474464865, -0.0453587761917, -0.639476448084, 0.113172214652, 0.283722318866, 0.241533911443, -0.714727574577, 0.332299715076, 0.0915411395536, -0.199583753097, 0.184738682644, -0.958113702148, 0.291976842168, -0.0661901070926, 0.155540727522, 0.22126577449, -0.082144147049, -0.400071572061, 0.0624013158357, 0.226753256516, -0.458175710043, -0.298548005071, 0.192664929449, -0.230570089626, 0.0689159110247, -0.112292841691, -0.0243834181965, 0.113748163038, -0.217373165914, 0.0556689015219, -0.108414079419, 0.175703933484, 0.010250332884, -0.0521895902066, -0.0879165184215, 0.37867374516, -0.020068969776, 0.00698272312495, -0.155249069117, 0.15375872874, 0.3627679522, -0.261404260311, 0.0636159355412, -0.660237434826, -0.139379475019, -0.539971074429, 0.200626400143, 0.327422758323, -0.248502518633, -0.257751008528, -0.156131477796, -0.0385885877679, -0.330720101209, -0.361126105927, 0.067037196182, 0.161471855029, 0.00687261261485, -0.015668246998, 0.14767830683, -0.00255506748312, -0.543368201508, 0.391843939897, -0.432576266573, 0.195216608112, 0.440294357148, -0.102747050078, 0.135452002371, 0.152105070544, 0.356679565931, -0.0915216534171, -0.152558615403, -0.0545657891605, 0.0558664997423, -0.127919259443, -0.32123392494, 0.254907172633, -0.365855851528, -0.231079660176, 0.116130723865, 0.210340677729, 0.181158088908, 0.0921835004556, 0.100965068234, -0.23867752261, 0.0469025779563, 0.215978666404
0.116085684942, 0.600519312337, -0.0448840490509, -0.131365300524, 0.0206581796418, -0.0422049010623, 0.0382952956442, -0.0301717029603, 0.0715811043823, -0.202547141969, -0.0953754178243, 0.0811589344488, 0.294619118049, 0.0886702456641, -0.106930601697, -0.627415583669, 0.0306716288791, -0.0665866929954, -0.04142063936, -0.142497716924, 0.509800887533, 0.044372246107, 0.0792193367373, -0.0839900091725, 0.186014336212, 0.191945982631, 0.260277042422, -0.229470731351, -0.0673422947943, 0.148484041963, 0.296447158539, -0.320024922206, -0.0774295571024, 0.0220581928084, 0.0586773805956, -0.051082645457, 0.486466105137, -0.21099192791, -0.00345729451905, 0.199079524795, 0.14597757637, 0.266211097363, 0.145090991943, 0.277869658239, -0.447906676458, 0.501511975367, -0.0588307274926, 0.23084408497, 0.329031304716, 0.453350223261, 0.125675983095, 0.0130173622058, -0.529290687959, 0.0297459315736, 0.179112344271, 0.372198275757, -0.171742510106, -0.177160097323, -0.0677191216473, 0.315633762287, -0.168966123953, 0.276618420223, 0.0361280575964, -0.0888751920385, -0.179262083234, -0.0970820231552, -0.055360015576, 0.0550450819618, 0.119516208007, 0.172409322199, 0.169757665011, 0.128460640008, -0.137585602043, 0.134372568399, 0.0260654580925, -0.0582932446878, -0.362041718186, -0.379054747449, 0.487855205822, -0.358016081671, -0.11945166256, 0.1023376653, -0.36567701241, -0.192509656726, 0.0817071568406, 0.294527104349, 0.279180130155, 0.144059168772, 0.0236917334196, 0.118556893037, -0.0775928056655, -0.23931887031, 0.188070213279, 0.253088477951, 0.330917321703, 0.114275295216, -0.103882614661, -0.113910925392, 0.221098741822, 0.173084562052, 0.654443531481, 0.281986907325, 0.14139346909, 0.133522862264, -0.0893138397249, -0.156451344059, -0.0851250690326, -0.180142067756, -0.63080437094, 0.244805195003, 0.124620110398, 0.380327619849, -0.200434419235, 0.463286218526, -0.434577077221, -0.220231774, -0.283143672551, 0.487069974076, 0.570822604764, -0.192979044928, 0.230060554174, -0.11953010332, 0.0474673592171, 0.0655573655174, -0.097840949144, -0.272766745607, 0.322061950003, -0.699108193823, -0.223576340716, 0.391287651339, -0.339502018365, 0.273961315196, -0.257651106959, -0.0120626291039, 0.176080154171, 0.00609771039595, 0.398234588566, -0.243745043859, 0.081120867749, -0.358939574876, -0.123687350761, 0.0617462063916, 0.133575035417, 0.235525176878, 0.0208103744144, -0.384496733343, -0.131119615048, -0.2045737116, -0.193768167111, -0.542852716321, -0.057740305131, 0.19816629099, -0.416784742791, -0.0248850928535, 0.14983152855, 0.241039649454, 0.337709831969, -0.159859352018, -0.197918465301, 0.409517452626, -0.311860831918, 0.32121791485, 0.625468915087, 0.099811908982, -0.286768296805, 0.125233796214, 0.267591154572, 0.275105815185, 0.248935105318, -0.131384777112, 0.376723429646, -0.25226713052, 0.12775379194, -0.0993995590797, -0.251644000246, 0.184432708026, 0.438655324743, 0.01776027631, 0.485617259852, -0.276776063957, 0.229742424934, -0.0420693214098, -0.147539290053, -0.180992445726, 0.0385584775608, -0.323533248112, 0.0483546285057, -0.190450301804, -0.105229711059, -0.185147048501, 0.0236097430044, -0.262719868657, 0.539732915223, 0.24537081786, 0.423656451901, 0.39835063728, 0.122776917318, -0.0710185140599, -0.0717712360264, 0.299661626821
-0.195112781862, 0.0699578857, -0.28309745043, -0.465393776278, -0.443425266435, 0.0854370932022, -0.326248781093, -0.034005272991, 0.189997609326, 0.156716800608, -0.264040560287, 0.141853820808, 0.294237564046, 0.160851394683, 0.225547627083, 0.494711628373, 0.0991788980259, -0.194350504668, 0.117069407197, 0.388593999735, -0.430246511839, 0.306942573446, -0.23585322646, -0.0780576128461, -0.0604587447207, 0.127689798454, 0.201222571205, -0.333166311507, 0.0868291017257, 0.738013668965, 0.269057494498, -0.166690235012, 0.0831664976109, 0.131615351663, 0.521916547102, 0.467372626667, -0.129998833368, -0.131503715865, -0.23428205896, -0.299730778414, -0.143092294703, 0.12366600762, 0.129716917384, -0.0634118908362, 0.434708350058, -0.202175592392, 0.0480758915751, 0.233803000684, 0.049677902555, 0.209210213272, -0.675841485699, -0.13785702862, -0.166627213573, 0.695144968492, -0.0388429969613, 0.676339059228, 0.407432344699, 0.384291233159, -0.0308077703245, 0.0461275015071, -0.165925913103, 0.577407718067, 0.316403292273, 0.211216400218, -0.162500468768, 0.0327404414711, -0.641278468185, -0.272400309569, 0.10998426067, -0.0954276976685, 0.0987553327697, 0.093564133556, 0.264402030076, 0.568676257898, -0.0732320589667, 0.338240627199, 0.0585180047884, -0.0685915373189, 0.0496393045419, 0.122899600335, 0.0509595174698, 0.134403074566, -0.21397678393, 0.057180646374, 0.144212446871, 0.109240210329, -0.291697422758, 0.270782672769, -0.0766754261235, 0.187597314625, 0.142665100642, 0.741432209518, 0.0720913332023, 0.0366557600707, 0.0335602564496, -0.416214179149, 0.030932703633, -0.0939419626924, 0.189859000722, 0.469677678981, 0.39592114184, -0.28423242435, -0.154781709521, -0.257497640398, -0.000255859001013, -0.154965562302, 0.15469198935, 0.750900402546, -0.38743288229, 0.454055895055, 0.507460174318, -0.00280388046966, 0.439106558208, -0.20893841674, -0.246789379576, 0.360659019445, -0.0716844166123, -0.0101408935377, 0.0720417812908, 0.178665646803, 0.352169422183, -0.0899153669293, 0.0609537422976, 0.228104867324, -0.115801171012, -0.153154848472, 0.520704427914, -0.212656555588, -0.105480471375, 0.43650972952, 0.601279039024, 0.373827202432, -0.575491733517, 0.371388143113, 0.325459817655, 0.230481651315, -0.0648952297975, 0.21510591111, -0.0764125803004, -0.176051461337, 0.275728801729, -0.0393473251088, 0.338745709679, -0.60663897715, 0.113260228202, 0.167079782917, -0.0438884056831, 0.391535443659, 0.404624832567, -0.262988161544, 0.125795569825, 0.0794328177027, 0.542649785146, -0.00441020909592, 1.09387950625, 0.143465898187, -0.330171792603, 0.34971044573, 0.116293673824, 0.279643846288, -0.217288803095, -0.338398070429, -0.131560182704, -0.50309550201, 0.251344799637, 0.379917214838, -0.117342353121, 0.389645317395, 0.0549851546682, -0.0951092192836, -0.0234391426822, 0.013963977588, -0.163192894474, 0.411361254664, -0.354329379803, 0.329527401785, -0.67593048042, 0.192289556091, 0.0337311159845, -0.231811916327, 0.311972175136, -0.0143582202784, -0.286662145822, -0.236861147505, 0.915889264667, 0.33805172413, 0.000844355318315, -0.108796924681, -0.154805374467, 0.143841307085, 0.129496086052, 0.663709826355, -0.183087956378, 0.181861292709, -0.159470252734, 0.208469247192, 0.19538472482, 0.418378171055, 0.0685347853728, -0.0162497413197
-0.12385154582, 0.0707501934745, -0.0111440885158, -0.0840650685938, -0.47169992372, 0.0383393316187, -0.10894949579, -0.0271392396807, 0.0364938607639, -0.124798497293, 0.16497418589, -0.164190429497, 0.255502982685, 0.370085346545, -0.180290267143, -0.247711615812, -0.0278648970084, -0.0517093792873, -0.137429912188, -0.0755905207647, 0.0426683842163, 0.0458404081673, 0.178632733564, -0.254558469343, -0.186076499865, 0.356478944067, 0.140798848091, 0.373080539192, 0.531864410928, -0.0938658543899, 0.119204120433, -0.124875584801, 0.0172546243035, 0.0376298123197, -0.216076524813, 0.332812385816, 0.0356610439134, 0.229701465193, 0.0439649075072, -0.0579841239447, -0.318555608033, 0.298766753119, 0.110738475682, 0.00635784761391, 0.330131917556, 0.0949151364535, 0.00864507907882, 0.137910625135, 0.137004442957, -0.0269804450405, -0.105099443381, -0.234470705016, 0.00594448270852, 0.0816804010563, -0.24703525081, 0.149705742454, 0.029611938277, 0.692167104911, 0.125490422686, 0.404200387596, 0.136788990798, -0.245669232042, 0.667142750255, -0.0181577674597, -0.118736566039, 0.482044902126, -0.234229945365, 0.445543620195, 0.167007758256, -0.14268279452, 0.276843724438, -0.038878590331, -0.152103101412, 0.0555864074992, -0.214354018756, 0.173172196922, -0.0169862240784, 0.103610563891, -0.114384244494, 0.428866791801, 0.671282866796, -0.132060998739, 0.0443319157137, 0.165515356096, 0.262867991148, 0.254045158994, 0.351368332233, -0.177951339771, 0.250163568, -0.0585697070102, 0.133066460081, -0.0584245563054, 0.487217822237, 0.398305735814, -0.0813131603253, 0.236806348034, -0.185353840376, -0.12506668619, 0.0145240770026, 0.64408476322, -0.405930170616, -0.439516233854, -0.100248392133, -0.562745481576, 0.144883342685, -0.136158210073, 0.0360142939005, 0.205628760622, 0.172647373994, -0.048906790175, 0.331621770662, -0.478113523569, -0.0602471699451, -0.178156264531, 0.467289116536, 0.532358421052, -0.0831713651191, 0.0313436574245, 0.0609552420139, 0.280096156923, 0.271699111594, -0.108795343475, 0.182744738438, 0.579096689041, -0.135698176864, -0.068254035871, 0.0652085343842, 0.501169611769, 0.190769106455, 0.240254918164, 0.209767029113, 0.357870382568, -0.242722568711, 0.230445654837, 0.216205353056, 0.0861393606846, 0.0733733199346, 0.0582456328484, 0.402575210374, -0.00818182194626, 0.0824806945272, -0.092489595952, -0.285732955843, 0.0198911970248, -0.0924564402175, 0.248254984344, 0.209185494471, -0.384305823316, 0.261328920219, 0.0158386028121, 0.0418070661818, 0.0820331039336, -0.0371226302816, -0.181244901368, -0.247603667356, 0.425101558652, -0.0931159004527, -0.160187853127, 0.156830820124, 0.0302010650747, 0.589519027352, -0.36441761323, 0.0785023866836, -0.183916984339, -0.197156547359, 0.0109656491384, 0.264217847652, -0.0493403940043, 0.0571432039124, 0.142901629588, 0.545646913043, 0.0485057883192, -0.0832010357215, -0.178885503849, -0.158258862039, 0.10382756222, -0.0300383023539, -0.0280904891893, 0.24900091196, -0.219180875354, 0.278975450285, -0.134571323595, -0.117084397283, -0.0376196722133, -0.113002658603, 0.673222652829, 0.251423971368, 0.0838650465428, 0.542441021326, 0.0168315989574, 0.123669670211, 0.030039834871, -0.00446383132762, 0.0143506402019, -0.497324349716, -0.121282752585, 0.0772419835881, -0.00989109722655, 0.609336721723, -0.0927555777944
0.114181312131, -0.249733045173, -0.0295282918343, -0.308976989142, 0.588913466695, 0.000386348971794, 0.209426303159, 0.536097847698, 0.0630621948589, -0.458362891362, -0.0132528420386, -0.285622651962, 0.318181217492, 0.301304827442, -0.0416386042963, 0.271195258884, -0.52676114044, 0.334123223114, -0.342245733559, -0.017349566763, -0.308340838424, 0.145056026228, 0.33939109494, -0.181524305249, 0.144417195336, -0.349202455256, -0.0968908188812, 0.0992637623735, -0.0494639163477, 0.517369119265, 0.756446224358, 0.178578527567, 0.376076293963, -0.300635624294, 0.00675892110258, 0.168943189277, -0.126856535891, 0.178228459116, -0.243058177244, -0.233418203093, -0.322462770528, -0.625430930416, -0.112430714598, 0.245210107655, 0.156496946002, -0.282136425222, 0.0415295109639, 0.101673544814, 0.0210069558089, 0.190931710638, 0.388536308289, -0.119371084151, 0.206793892821, -0.0728996824908, -0.00328796974806, -0.223961100724, 0.16160547744, 0.582492217302, -0.0852342931161, 0.304351791695, 0.534536064196, -0.33700242215, 0.00738411646692, -0.282668018038, 0.111900202988, 0.0149823089754, 0.110506256433, 0.0814538676512, 0.230628589584, -0.0692587558661, 0.145916330201, 0.111436772592, -0.0713133068326, 0.175060340525, 0.0964533333984, 0.0585509587575, 0.408648492152, 0.257933337216, -0.370020088344, -0.142671726356, 0.0791747915531, -0.233005755428, 0.178229577618, -0.19518924748, 0.0844063251535, 0.421852792186, 0.143579343644, 0.124957350862, 0.10299559553, 0.117097881819, 0.156048202598, 0.589942871639, 0.0959201624534, -0.351871870915, -0.51668756627, -0.477962592415, 0.340114031077, 0.121792809902, 0.219374733167, 0.409122149853, 0.206270899527, 0.197056587882, 0.00678135613666, -0.0356751504981, -0.450970379574, 0.289407840323, 0.0557973899346, 0.267093604567, 0.00708889395839, 0.176805393012, -0.0935368733062, 0.410958826033, -0.249602129209, -0.0869073627796, -0.176873362949, 0.0732852683339, 0.0685005266436, -0.0531925904788, 0.524145299978, 0.199863571546, 0.0361138382741, -0.158696261623, 0.00847159446969, -0.0555456774759, 0.339677540118, 0.133224655973, 0.921399837313, 0.166840317257, 0.831348502652, -0.336072611692, 0.068272893636, 0.432874546143, -0.119787517612, -0.0664437065693, 0.329384178923, 0.0953111131823, -0.13358510434, -0.0995118968771, 0.384043104743, 0.494452464686, 0.199087530898, 0.404829714022, 0.213702059222, -0.277928626423, 0.0827463065375, -0.154972798213, 0.197356259283, -0.288361306126, -0.073889956078, 0.0896452313022, 0.0896499884154, -0.189613464113, 0.123197802704, 0.268692863225, -0.108773191734, -0.12178913442, 0.286109423904, 0.204107692369, 0.553597017904, -0.281915670692, -0.360375389216, -0.476417117076, 0.0638656393265, 0.195319612624, 0.44326488128, 0.359185921678, -0.14406195445, 0.0201340439016, -0.247453058192, -0.0734764950185, 0.46880242394, 0.79815918515, -0.434808573185, 0.0899459172842, -0.0357104841897, 0.425054362459, -0.392012676582, 0.0123917423845, 0.0894783268918, -0.113402974023, -0.420651657465, 0.00772825247104, 0.279450072972, 0.312925659505, -0.0685264829621, 0.520271653167, -0.0413797029195, -0.413846343887, -0.258956544361, 0.0230081333853, 0.609948398045, 0.0315577348204, -0.0980371709563, 0.312526911445, -0.00727981260565, -0.22913394284, 0.161736587346, 0.567336876424, -0.256366546136, 0.315473994474
0.101733185523, 0.326235055093, 0.201029552446, 0.371619575288, 0.141718134829, 0.194957585856, 0.0950905233861, 0.253641979616, -0.100905319181, -0.162539646605, -0.0216743351516, 0.317053829694, -0.0747640538943, 0.105515259617, 0.111233658507, -0.27598050889, 0.00857142374634, 0.333970574898, -0.208302884255, -0.0332962737339, -0.0169342400156, -0.215240948002, 0.236834240817, -0.0643170268111, -0.256597654893, 0.310895885144, 0.0160534871519, 0.122630392395, 0.130069291001, -0.236150452605, -0.153907759495, -0.0427376031629, -0.49241294705, 0.374594157514, -0.0301881740709, 0.0236424970901, 0.139716809407, -0.018804446924, -0.178927798256, 0.191709738999, -0.186598187915, 0.342481645225, -0.359500108525, 0.113861018299, 0.0257556469394, -0.00258946184773, -0.23234097915, 0.394487416583, -0.244217623851, 0.229717497227, -0.0289052380847, 0.068463662439, -0.157216665274, -0.0683361207902, 0.388591687193, 0.12586102903, 0.0711921002234, -0.0452816360354, 0.0863913618276, 0.0342623673394, -0.0336724566201, -0.267910262298, 0.12610012964, -0.0611392895047, -0.0723444171628, -0.117664526726, 0.0594881645043, -0.418578130985, 0.0659687063183, -0.0493945440113, 0.107846904297, 0.277929967234, 0.00839760530825, 0.177767710557, 0.0867125642649, -0.0228347947946, 0.243728453611, 0.110620853078, 0.150092533522, 0.0491860794732, -0.254009870086, 0.101875116865, -0.208400383932, -0.0225773719624, -0.251107591823, 0.363048998683, -0.0538236955026, 0.0784288997834, -0.351475751633, 0.527502452044, -0.182134321128, 0.278984191113, 0.36659663567, -0.0504279972828, 0.163101267332, 0.483201090237, 0.0891932295583, -0.0508294234684, 0.141740736338, 0.370263235076, 0.106606364042, -0.0771599352214, -0.397761317822, -0.0602891894942, 0.0641317643627, 0.369891344835, -0.131559677236, -0.0440215325127, -0.017943711726, 0.137819837409, -0.275055993042, 0.156530519789, 0.649466564863, 0.212236285722, 0.252634364869, -0.136933176958, 0.371423917339, 0.00499099441801, -0.283023687763, -0.20385187185, -0.0323849090379, -0.0311554946009, -0.360352362358, -0.0447536297981, -0.0144896178158, -0.251226152745, 0.464727178963, -0.22750245084, -0.217706567632, 0.213406606893, -0.0713901559437, -0.239675244738, 0.224802556541, 0.203139109057, -0.19998493977, -0.0115556724798, 0.187340593747, 0.0450650510173, 0.221221588847, -0.0072497966826, 0.0250863392355, 0.149812937121, 0.0742019511624, -0.373168446187, 0.157139947949, 0.130169555623, -0.0465510300402, -0.0590858935663, -0.245067017506, 0.109178539702, -0.152264910375, 0.324306984675, 0.00527582775523, -0.110576169542, 0.30396794204, -0.271956383786, 0.111491957032, -0.206502365302, -0.130982221165, -0.188927332588, -0.22919976993, 0.31209123931, -0.605303954115, -0.0813361015372, 0.00716778678325, 0.294186459648, -0.150571969816, 0.0666931993443, 0.222016829968, 0.285368723426, -0.235806875364, 0.382454590138, -0.234137016366, 0.189173353083, -0.179882005132, 0.123355024916, -0.00344650201553, -0.112251864877, 0.695948588365, 0.459748934351, 0.296203613771, -0.282496993196, -0.159480122867, 0.26041340986, 0.136501970506, 0.0650424360039, 0.261887560637, -0.0357589683095, 0.0960142577141, 0.176043502325, -0.200920699908, 0.113004047367, -0.0300089564585, 0.0598816860389, 0.0464100618958, 0.0697720567637, -0.108073760661, -0.0632184532374, 0.131716845606, 0.165928151446
-0.474793450037, -0.496033143382, -0.366693139742, -0.501920088857, -0.145092519176, -0.366904339583, -0.321074381314, -0.431378678228, 0.148001282868, 0.34003457576, -0.205656894871, 0.21433190042, 0.161525267297, 0.124251615449, 0.10394996427, 0.0968152442443, -0.139967730087, -0.412587843784, -0.0771556745607, 0.0161597367973, -0.256217717537, 0.279913057561, -0.0925395146183, -0.0808574554964, -0.199061638167, 0.059350826763, 0.338624310741, 0.0256535218291, 0.0272597374095, 0.185831919937, 0.228454179976, -0.0233854356547, -0.00120747433916, 0.11298368254, 0.199988315299, 0.130126934441, -0.00430844120347, 0.150100947603, 0.183386916465, 0.158512121974, 0.256810201724, 0.254809258913, 0.0901007038706, -0.240142765145, 0.0650630675049, -0.217274939568, -0.00981478450724, 0.386083787354, -0.0464932688327, -0.0536631341148, 0.0430350240525, 0.0218274491683, 0.146737103543, 0.363099971821, -0.0601607870253, 0.33736012213, 0.101401909653, 0.154342199782, 0.162226337741, 0.247883125145, 0.00773068824531, 0.230093948776, 0.188495582278, -0.147824837101, -0.121762295749, -0.0510943358659, -0.257656159275, -0.186161867139, 0.242176392328, 0.0576704111525, 0.118858256105, 0.0240595212739, -0.354214344507, -0.0427469442949, 0.219813916751, 0.0953088626209, 0.0352484018229, -0.178939081699, -0.0777177384571, -0.0280097468465, 0.930794528086, 0.296679685233, -0.190004408007, 0.145754001859, 0.036091755969, 0.25758206859, -0.145669133121, -0.0550948327616, 0.132876320424, 0.0858594939797, 0.147411951956, 0.237849085574, 0.207933653528, 0.131689977834, 0.0322583335925, -0.289808341367, -0.117798496397, 0.0125852644077, 0.149232729896, 0.238243411751, 0.116584732914, -0.255311744878, -0.0358638388646, -0.252530566657, 0.0225608843041, 0.0447808244031, 0.0633639734312, 0.0557196883758, 0.027973016745, 0.215021162347, 0.318706989575, -0.253698635001, -0.00601768344185, 0.0123955841506, 0.203889969146, 0.118554628636, -0.285405842366, 0.307804627845, -0.008449281891, 0.239214387787, 0.568429096733, 0.118058818978, -0.0520927971159, 0.354979815545, 0.0834674430887, 0.407731078791, 0.313286269471, 0.1105170074, -0.0294975369723, 0.227543865682, 0.124523584353, 0.299650029311, -0.394716814712, -0.0981959380919, 0.227142768706, -0.0788524690457, -0.0180664256391, -0.175073365146, 0.303160790195, -0.240987819708, 0.340681609606, -0.655312066004, -0.453722060568, -0.252921939797, -0.19745206934, 0.0796608295269, 0.192830196262, 0.0129130276511, 0.342424591575, -0.213242528161, -0.0976173437701, -0.0935015674993, 0.113842846707, -0.147265986905, -0.0080865013146, 0.732768311483, 0.26363442529, -0.171919571728, 0.141363904459, 0.306064559815, 0.745742613599, 0.227001016947, 0.81956487807, -0.2395670818, 0.204205926653, 0.0153797165533, 0.258095343004, -0.114838444161, -0.282805259006, 0.174623429331, 0.0579980622123, -0.218945371936, 0.18118575288, 0.232741212088, 0.301923817558, -0.0880237083631, -0.352566112804, 0.365738431915, -0.25845757879, -0.304423415216, 0.255390701465, -0.0241310831675, -0.0517631448121, -0.0762251603021, 0.638495292517, 0.575274262229, -0.0503184902698, 0.190090696536, -0.0837892707406, 0.382258257151, -0.0847952987906, 0.494576144694, 0.103877332031, -0.267478715853, -0.574663996285, -0.0159779352711, 0.226145406947, 0.373914739023, 0.248459381823, 0.154307626981
0.117669401189, 0.210795978963, -0.592511192519, -0.0641076172326, 0.266712924644, -0.220648999926, 0.0683355645398, -0.0182503628683, 0.0164544594927, 0.0015634921151, -0.0749957294542, -0.0282066237027, 0.0297972365415, 0.227355911581, 0.0580857691911, 0.121676035978, -0.2601436184, -0.0818363002708, 0.264955373568, 0.254959993335, 0.25708314891, 0.0827005746276, -0.00381303157144, -0.146414233717, 0.291112185946, 0.143995330245, -0.0163749550316, 0.255824730231, -0.0491099320076, 0.188835809052, 0.0275242731072, -0.454519117664, 0.123710899968, -0.379869550866, -0.0670813465224, 0.271880905515, 0.454060053876, 0.309618475232, -0.149191044867, 0.298081930697, -0.0716864180609, 0.192810851677, 0.112765324335, 0.343615723062, -0.0728264734111, -0.279785387685, -0.103809161084, 0.151837740448, 0.161238926518, -0.0247926199299, 0.465033549216, -0.017489827923, -0.245242025594, -0.129338334866, -0.115886007648, 0.390866051848, -0.134870768649, -0.167986890147, -0.069216711347, -0.046321942419, -0.0752658496698, -0.115708775206, -0.413564919742, 0.100064568643, -0.00284013216029, 0.136259747804, 0.530638860006, 0.155240960341, 0.0779515921348, 0.12624683106, 0.207129930814, -0.0379681567819, 0.0710638367716, 0.0414156067618, -0.1441581534, -0.135517627829, 0.0267515425424, 0.00595442716469, 0.118249422937, -0.286426346454, -0.192063072018, -0.220969900664, 0.173916448101, -0.0408180785263, -0.130297417004, 0.00673809239479, -0.0920760189811, -0.0378528898727, 0.0673136921959, 0.317202621208, -0.104868212585, -0.132891617073, 0.317816082181, 0.254995916819, 0.349376356589, -0.141899300307, 0.149014025681, 0.195448532262, -0.0610393308325, -0.249604975098, 0.209475366863, -0.230521130568, 0.162941384477, 0.195016053793, -0.0931658219751, -0.155035283179, -0.214956388235, -0.240844695768, 0.45548364567, -0.052664400108, 0.0755593732543, 0.529930771919, 0.129543035942, 0.0992233199752, -0.25366432038, 0.53879967794, 0.156343309552, 0.0170190036569, -0.141098878462, 0.0711448725374, 0.145253440219, 0.261908824185, -0.214687462286, 0.0696424786715, -0.132165649921, -0.212567742074, 0.100310551684, 0.0300457293745, -0.114842822952, 0.114899125321, -0.271982672351, 0.369177155706, -0.0677000690063, 0.0346333064392, 0.228361316523, 0.259201988864, -0.09770800298, 0.133991320889, 0.199421042914, 0.24364223028, 0.154819981077, -0.217006009444, -0.308164809807, 0.348350186909, 0.0334059692731, -0.0976183659947, 0.00611655020167, 0.0283501611733, 0.0953129545132, -0.140801260777, -0.108194229853, 0.190926106121, 0.0358883637895, 0.0738528114502, 0.161796929614, 0.567315673311, -0.0749517523752, 0.500046708399, 0.0842217144756, 0.496269152113, -0.160176530495, -0.0860269350276, -0.173314086709, 0.496688673006, -0.167294583398, -0.056840117719, 0.466792599128, 0.115540450956, 0.181812022185, 0.0296243038456, -0.11856505638, -0.0418573952603, 0.0782412396215, -0.223421738178, 0.0201635130188, 0.20141887552, 0.106930416998, -0.198505108787, 0.125328479013, -0.352542360747, -0.039853586194, -0.00042498572721, 0.277057352565, -0.0418015457337, -0.0499501806805, 0.0594386050087, 0.577083635158, -0.335104647599, 0.414704926349, 0.0884447974537, 0.25971283072, -0.495556249757, -0.0624119587358, 0.250479979773, 0.0728612459024, 0.166633133889, 0.0452892388011, -0.0226972666703, -0.114358112317, -0.0485541709918
0.208587758952, -0.0848342762693, 0.199399221506, 0.0665225360622, 0.250137921328, 0.391151952306, 0.150283623738, -0.0626580072197, -0.102032883965, -0.0493139483906, -0.150832476881, -0.0352863264521, 0.145875539536, -0.0591818049657, -0.181745651681, -0.0813910100278, -0.155047894836, -0.0565236979227, 0.0368021160868, 0.0368699142509, 0.353631192, -0.0511801870267, 0.136675421212, -0.318555172946, 0.169262598267, -0.0826786403841, 0.189430738429, 0.199517460129, 0.102921688918, 0.258639477785, 0.786117591019, -0.1853545145, -0.168903852111, -0.0767672824439, -0.115487176984, -0.26875655755, 0.254704170098, -0.343177850221, 0.344207467541, 0.497411368852, 0.154247539748, 0.542955598249, 0.281261922965, 0.201172226053, -0.0869467237162, 0.0430921799755, -0.28096108135, -0.0366231778452, 0.23005298597, 0.0387659909506, -0.0372676527032, 0.110451291195, -0.485850150196, -0.0434805510793, -0.0935428671995, -0.053636707716, -0.336153791554, -0.449643930516, -0.126352686168, 0.24102905788, 0.174063837758, 0.0581498647769, -0.382772447778, 0.439830882049, 0.0249784067767, 0.1902304468, -0.259556098741, 0.169157425728, 0.0864328896493, 0.0940960893549, -0.0392368568436, 0.0240728578574, 0.103289332337, -0.137678687584, 0.313669282748, -0.220052472865, -0.135018937844, -0.152715229923, 0.0686694879452, -0.207049981168, 0.0953766201925, 0.0639733379928, -0.333867246039, -0.191554853089, 0.0923082804041, -0.133992992194, 0.446809206773, 0.0893466410109, -0.047271069619, -0.226464660269, -0.00669341017147, -0.181894029477, -0.00054800820331, 0.298881058509, 0.47825517093, -0.112946219872, 0.00705298615767, -0.0655498256016, 0.127310352627, 0.217143427958, 0.4462340253, 0.195957744975, 0.286387681559, 0.0295458293892, -0.175363113247, 0.0207718071372, -0.0312466477721, -0.534219146244, -0.223206947955, -0.188307337703, 0.0939750257033, 0.347759692226, -0.0604800081164, 0.593476090636, 0.0258787060125, -0.12873176452, -0.0798305058979, -0.0181325280642, -0.00790109156506, 0.108697640235, -0.277885449849, -0.180482764681, 0.139651457881, -0.0204284109308, -0.123882906448, -0.0696640613817, -0.0780698147687, -0.452085564494, -0.103250953555, 0.170400616895, 0.162624420906, 0.033761033276, 0.372590768486, 0.545890856512, 0.0134803415913, -0.16679672117, 0.34213527464, -0.350594949434, -0.133569308156, -0.316636711546, -0.166842966789, 0.177774332969, 0.126775762223, 0.0520392477199, 0.0578264140089, 0.215188766612, 0.238776482915, -0.200536644286, -0.413659527865, 0.0493349414571, 0.189599858965, 0.398124526803, -0.122908690651, 0.33516261982, -0.0099002363709, -0.250201039748, -0.0802913152458, -0.462031095651, -0.0506368401769, 0.304838572176, -0.420849910972, 0.269919696315, 0.617090223267, 0.263562762923, -0.312390788178, -0.151491138091, -0.691402478482, -0.0280819682727, -0.120072191758, -0.11317397368, -0.00242029312388, 0.0130800270014, -0.157739766922, -0.181700825419, -0.496540249947, 0.0767015851658, -0.375696926714, -0.112082747874, 0.355419354718, -0.0600250941834, 0.0381602408055, 0.124139246673, 0.309079079864, -0.203076086873, 0.140334808828, 0.0084416372564, -0.395799941625, -0.546664390734, 0.320370429471, -0.150823079235, 0.325373409946, -0.330616588603, 0.35467579737, 0.00645641030515, 0.132938107401, 0.317464617311, 0.0184174193596, -0.141826120923, -0.0334488536459, 0.0131286432093
