0.199403528651, 0.0769385122565, 0.0513628761824, 0.48132072644, -0.22848275415, -0.473068542368, -0.619297342669, 0.334938230268, -0.512765863596, 0.499151771666, -0.457768653604, 0.0840566738586, 0.98235173565, -0.287965059143, -0.417672816631, -0.0357946909857, -0.00311900814883, 0.182112735778, -0.345864197779, -0.181283662565, 0.201587348848, -0.673728095587, 0.562292276511, -0.109307604371, -0.246940874703, -0.215625174136, -0.105840135883, -0.165045493121, -0.0886918183489, -0.418269749464, -0.239571316939, 0.269617381578, 0.638818139205, -0.337796952449, -0.759501551771, 0.464297995905, -0.534060809133, -0.0900683306776, -0.0254251171924, 0.248709312156, 0.406315210666, 0.332014022569, 0.0532804812857, 0.648173621995, 0.129127114587, 0.236512792093, 0.790767687226, 0.714768910233, 0.139931722111, 0.538635936331, -0.431350948543, 0.0947039608818, -0.166162551006, 0.0380311627586, -0.325737636318, -0.469610365738, -0.191874336161, 0.311088853951, -0.872706812512, -0.339572104727, -0.22422859221, 0.257175023054, -0.219364543803, 0.32149397203, -0.765509911068, 0.273229680049, -0.0686826645738, -0.404288653835, -0.223647020498, -0.231480203597, -0.661039584778, -0.495214068601, -0.227086082891, 0.750583869583, -0.599023360497, 0.0385082462011, -0.104322761764, -0.206804447824, 0.291688753012, 0.167788225452, 0.345551121054, 0.151788015584, 0.0809919233849, 0.506792630622, 0.598069703763, -0.0826847682705, 0.384751197828, 0.154275028901, 1.11474800096, 1.19576238125, -0.033749970411, -0.442576242372, 0.253817499587, -0.034250922958, 0.585568765501, -0.185716936105, -0.898370494977, -0.307398187456, -0.114552662357, 0.50285128524, -0.230898524461, 1.12336423136, -0.0767343431231, -0.0937681113798, 0.386335224003, 0.321466403877, -0.0872082856319, 1.11831679415, -0.407420032123, 0.0226291290565, -0.546676300534, 0.266060395837, -0.568162890312, -0.122130703139, 0.426603203489, 0.0256617821753, 0.0915112764001, -0.0882945635919, -0.60894286105, -0.24023872117, -0.325181142627, 0.806636739105, 0.230069214956, -0.863243553006, -0.0534062030356, -0.366317950166, 0.244978900215, -0.00570931586433, -0.215001328279, 0.618298296317, 0.27114285096, 0.0724374657388, -0.353155903958, 0.48767539229, 0.0529352666357, -0.500944940744, -0.0832349320673, -0.166089803588, -0.0359803602444, 0.289565593744, -0.133394772411, 0.0765155989684, -0.365400071624, 0.254946657197, 0.203416061156, -0.277927806244, 0.0690328160881, -0.104125738424, 0.623317831962, -0.200165824968, -0.0219219867387, -0.499657103292, 0.282950768914, 0.161469032389, -0.267222227206, -0.480434622313, 0.087048391351, 0.633435589499, -0.159512413605, -0.00567578960132, 0.305975950481, -0.366795356408, -0.79899944158, 0.579447615682, -0.143534999517, 0.163898677782, 0.279236502546, -0.193853332083, 0.212289985346, -0.0421572981461, 1.10132509511, 0.0844089673932, -0.370001612361, 0.945903861337, 0.389962215842, -0.642940515097, 0.977811500699, 0.0656436756317, -0.5554655615, -0.108082025645, -0.429668701306, -0.204847298265, -0.35182768904, 0.0748739984037, -0.239743852213, 0.197618283594, -0.246052911082, 0.481151375025, -0.26583916418, 0.319999248178, 0.376430785443, -0.791038438671, 1.0468553094, 0.311093310332, -0.357370416764, -0.0169322496781, 0.520685274976, 0.396168388766, -0.0952728877563, -0.417260989879, -0.136117149573, 0.20473474037, -0.015808906607, -0.215716321026, -0.261036372896, 0.734222753064, -0.499247592403, -0.0909524227766, 0.359705247412, 0.177636876284, 0.0907654853859, 0.0322235003544, -0.143627294093, -0.00455938612281, -0.0863036581395, 0.146340149357, 0.528917053031, -0.0533228979308, -0.0782183565504, 0.070720780058, 0.464253434977, 0.386026925595, 0.15860745111, -0.0270140904618, -0.370523540764, 0.232129224484, -0.762676082744, -0.0796080405132, 0.090298460681, 0.241174395468, -0.314451295416, -0.0270551445132, -0.156197241945, 0.017310371218, -0.539567283959, 0.568149416722, 0.224104405929, -0.36295217363, -0.29750374004, -0.546316587587, 0.144585433139, -0.0934287794324, -0.761464612269, -0.149522746491, 0.121649411602, 0.0415813619794, -0.599803856677, 0.0404376829249, 0.197860168987, -0.965336194668
0.510497013946, 0.0268716825349, 0.446482002875, -0.378233105881, 0.167977614204, -0.155129234081, -0.0053392650246, 0.245823104995, -0.10397696925, 0.30731474366, 0.359964552913, 0.0166392624854, -0.769348204954, 0.503811956458, 0.512558768942, 0.0547299173888, 0.0269707491899, -0.162780289855, -0.0536888647045, 0.112018205875, 0.0762369263962, 0.341013721404, 0.246980418492, -0.101852808479, -0.198503809201, 0.291681976177, 0.242976632358, 0.851687324636, 0.0718584488312, -0.221266768516, -0.141607321159, -0.218982781599, 0.017573003, 0.199638934111, 0.165657088577, -0.378397225461, 0.185273770136, 0.0892538239644, -0.0701249819987, -0.0249038341557, -0.294407402793, -0.462219815722, 0.317907208291, 0.740313888921, -0.0576678048473, 0.106074204785, 0.0546056431072, -0.424633809183, -0.00946984578572, 0.692782218583, -0.255665970615, -0.123304564372, -0.00582974452792, 0.166162723491, -0.0328735018892, 0.177533579417, 0.289375797714, -0.166214222501, -0.188441222488, -0.217375616807, 0.533458783226, -0.14496590924, -0.10722715265, 0.107730978864, 0.252280781667, -0.559621466922, -0.085505951753, -0.147889860015, -0.289247466818, 0.239023481281, -0.234391306003, 0.366729439342, 0.429322807605, 0.0761097676968, 0.214321061567, 0.0649909774613, -0.12266911644, 0.124982926597, -0.13230557129, -0.10767513535, -0.197115639592, -0.113445380707, 0.0545664328758, -0.127718423454, 0.108647266533, 0.256859245306, 0.320302820839, -0.0470564807145, -0.744199570623, -0.46324110821, 0.502596519801, 0.347541499943, -0.0959251255983, 0.398404428896, -0.25004391639, 0.517487151987, -0.294037375033, -0.0223394174268, -0.0985667976539, 0.128500749892, -0.112112827681, 0.272240341659, 0.213059110111, -0.086887173882, -0.0684516651534, -0.132961016567, -0.211395215446, -0.297893899778, 0.251017994304, -0.207473712753, 0.101657473044, 0.37927709327, 0.0735078639947, 0.204172202027, -0.280969083127, -0.526495513743, -0.389839944601, 0.0753249191125, -0.142568805206, 0.628867855557, 0.418458984837, -0.203896844644, 0.125432419064, 0.126194582535, 0.105753127799, -0.412238045043, 0.17072906324, 0.107778912823, 0.179379928441, -0.163940288161, -0.307597736566, -0.266779959812, -0.0157837228726, -0.13223351226, 0.220655485438, -0.390589218702, -0.163537714531, 0.499859584589, -0.190976195615, 0.201671381701, 0.143374056062, 0.374562055911, 0.389851910393, -0.019746422731, 0.243818143333, -0.0773872937464, 0.00844153504807, 0.560296516356, -0.596521770291, 0.213446893489, 0.325840080047, -0.057548505419, -0.411439354035, 0.0633497003051, -0.386561137748, 0.136289411586, 0.271095341046, -0.234226544491, -0.335829333086, 0.201448702348, 0.0661014417031, -0.129649661718, 0.119957474739, -0.267861651605, -0.111853005581, -0.153704773125, -0.24296713478, -0.00554422351699, 0.0996573761388, -0.299695232903, -0.125655589626, 0.213353626532, 0.288704135164, -0.353743055832, 0.119836233873, 0.252410368609, 0.233602330472, -0.185949540046, -0.327800693431, -0.115934869747, -0.0962580309896, -0.0467577910358, -0.477876593091, -0.124227109351, 0.00348564879239, 0.483971035937, 0.484436487569, 0.271499390701, -0.159999100185, -0.38574354867, 0.293483981582, 0.0108240190164, -0.184753379807, 0.0568762514666, -0.224887922603, -0.15453400754, -0.435810614028, -0.0445707703058, 0.54528123173, -0.472814571776, 0.355014510768, 0.0103104943534, 0.164118441064, -0.150284174637, 0.0762518211987, -0.503810633125, 0.179364144661, -0.114127363122, -0.498955354703, -0.145177642711, -0.0148201831821, 0.0360287755359, -0.0283214724629, 0.00990026555378, -0.14116188704, -0.165918436889, -0.497923288751, -0.244450048797, -0.176343833101, 0.0391786083076, 0.52085000825, 0.244140488266, 0.16984309294, 0.0531731249437, -0.0744537469211, -0.509223169996, 1.05427988295, -0.00208071928807, -0.1333255793, 0.0912706817723, 0.223074236518, 0.204001981937, -0.133833975752, -0.124077558462, -0.213442305113, -0.376213721355, -0.333508867855, 0.047997558024, 0.137818934497, -0.0133478169697, -0.196951515028, -0.336044948883, -0.714417135962, -0.252412969974, -0.0765305516291, 0.199969679576, 0.20326929584, 0.259784484345, 0.159036808947, 0.116905548168
-0.419539019134, 0.192958650168, 0.302991865328, 0.0819238215442, -0.120476246929, 0.053682380761, 0.752401810056, -0.15401140509, 0.260474602839, 0.327417746448, -0.126578412884, 0.102183064545, -0.0245494532381, 0.199965504933, 0.133292236817, 0.214995534256, -0.0885559272009, -0.225011243957, 0.0161778212026, 0.141169558417, -0.0347699685809, -0.302798405283, -0.139561444497, -0.0856747513655, 0.194725637784, 1.02968279415, 0.190196994365, -0.142737481856, 0.0309993747163, -0.193698466762, -0.183033205851, -0.0118492668461, -0.106455917608, 0.656797353936, 0.0158297747183, -0.260903033033, 0.197201251764, 0.441415472331, -0.0706191439569, 0.426656453019, 0.175457642105, -0.11478740764, -0.0442085280859, -0.338884266026, -0.0860826251681, -0.210844972667, -0.339588339802, -0.328888101215, 0.174827681358, -0.197483783824, -0.0501497176894, -0.0573772091708, 0.0966581028328, -0.0924137716524, 0.275286625885, -0.217882741352, -0.143846854585, -0.425040869884, 0.319244294668, 0.113146280426, -0.324152472146, -0.397055943251, -0.0562081074696, -0.285095367484, -0.322516580551, -0.154504626131, -0.0730238061399, -0.24802142224, 0.578941233888, -0.368294560864, 0.389202035281, 0.180828506063, -0.422337471111, -0.0433380199915, 0.0070796242246, 0.33291250938, -0.0613657377003, -0.0200087533519, -0.00926587193602, 0.185827325201, -0.272592031135, -0.288152839091, 0.000770030208773, -0.100892145945, -0.23189468131, -0.0188557738002, 0.529740695182, -0.000355718347103, -0.192322983969, -0.711544776661, -0.339862726736, 0.0374769485932, 0.175141950999, -0.0757018075115, -0.098353097045, -0.334043703737, 0.19050077146, -0.0538034932539, -0.0613646522592, -0.265987835641, -0.0348852045895, 0.0782945615315, 0.450790675632, -0.044828757401, 0.618860229709, 0.0997707573767, -0.247153863291, 0.244825494689, 0.437110345321, -0.213339613204, 0.246327471505, 0.272714702904, 0.191922701997, 0.0345201885724, -0.60219199459, -0.0678406373795, 0.0565180980087, 0.0457156666781, -0.0500303770602, -0.0669311065264, 0.133021606553, -0.158019796542, 0.483434521222, 0.106569514115, 0.234331758325, 0.434600386318, -0.0165160732067, -0.138694587676, -0.0831295810514, 0.0220477666053, 0.0458894476994, -0.251896486801, -0.0133136508107, -0.189757909566, 0.0653298611587, -0.179495663998, -0.271226331463, -0.227795516974, -0.153897648749, -0.0138179030633, -0.0573601690107, 0.340906295715, -0.287727658393, 0.0647441953034, 0.263436713119, -0.0158655825148, 0.117690990117, 0.259310864196, -0.17572005348, 0.2509277178, 0.0543646159801, 0.529428533307, -0.437215347476, 0.0852631959371, -0.124690121508, 0.239216645934, -0.376983699347, -0.00695397532019, 0.314317288435, -0.106104388236, 0.09329811187, -0.215907921371, 0.261509499353, -0.0665074482947, -0.0229045876032, 0.0937605740591, -0.151705817206, 0.687470320912, 0.140026356949, 0.507215145909, 0.213685942444, 0.145884463445, -0.113828910898, -0.502163762256, 0.764240914648, 0.198466280843, -0.138723088003, 0.117977692039, -0.528589215568, -0.0938347135541, -0.10935853562, -0.0797497749491, -0.203903851412, -0.194761840811, -0.283873155263, 0.24917315521, -0.156339989092, -0.0508257594189, -0.180160942016, -0.230612117894, 0.10868039702, -0.237377928223, -0.445151687569, -0.211933557512, -0.078700798569, -0.187113272268, 0.158883196887, 0.467266847971, 0.395731873987, -0.174874736314, 0.452192576003, 0.0824234499186, 0.0458083345997, 0.0996333763389, -0.0388324156913, -0.126411500924, 0.132274792313, 0.0398289236248, -0.108789928984, -0.204405468602, 0.0456536277412, -0.0394950445478, 0.0390870588317, -0.428296296941, -0.126839377285, 0.15212367845, -0.0852984510785, -0.180543634296, -0.152158010092, 0.181321109245, -0.70221834458, 0.126575318982, -0.0110971339643, 0.459561864753, 0.446307966728, 0.110524724947, 0.291562695931, -0.189702212803, -0.00366850784527, -0.091139478533, -0.266987961685, 0.157203919236, -0.0625992534507, -0.00817815306606, -0.26522444874, -0.27339602587, -0.208574478579, 0.155222958569, 0.409893552506, -0.0613558800462, -0.0396129790734, 0.212521635806, 0.233135578672, -0.0551542672476, 0.12986884898, 0.141904142597, -0.100173749708, 0.228131955914, 0.29770283257, -0.213129545639
-0.0207686974403, 0.138164787898, 0.00304153773473, -0.70357859212, 0.129666639379, -0.0621645184141, 0.518837903373, 0.295396173434, -0.168203785581, -0.0691522970893, 0.344682745325, 0.116783832891, -0.713975938431, 0.520591380127, 0.564358123298, -0.202064753345, -0.156317050349, -0.133053751691, -0.025555962294, 0.226666617568, 0.00935992480805, 0.109489087269, 0.240949206819, -0.105778306446, -0.267528612207, -0.0357377990205, 0.0539804130431, 0.503001936442, 0.458548420763, -0.24694447267, -0.204407234903, -0.256589775606, -0.30958605799, 0.190998850565, 1.02747064208, -0.089298194483, 0.385251878203, 0.450235847617, -0.0593117746897, 0.0601786350391, -0.513218777004, -0.765740568502, -0.102937418384, 0.241218250777, 0.105726236008, -0.300980533583, 0.120486096825, -0.598316648922, -0.218369879233, 0.0346300798453, -0.381863392876, -0.137170393701, -0.0540769778763, 0.00803453416365, -0.341758559388, 0.143765537452, 0.387852886743, -0.0335686872931, 0.734116552031, -0.19407936295, 0.102731166148, 0.0819917095423, 0.0430123866606, -0.236658691231, 1.54434596639, 0.0538770324335, -0.154455411981, -0.0760548987674, 0.295590287496, 0.80771278467, -0.0989946710592, 1.10611117354, -0.159472123257, -0.288752373499, 0.238092557989, -0.553527604971, -0.115714667608, 0.15266697721, -0.122677133513, -0.250986540429, -0.281198890937, -0.0414674249891, -0.0112159136346, -0.209334270482, 0.175323177508, 0.175312327185, -0.383458063368, 0.142054197648, 0.116985975325, -1.04849697507, -0.0966688449729, 0.0864151779356, -0.137928708031, 0.592480237329, -0.256236984979, 0.682498914098, -0.17595083534, 0.0369068416163, -0.115642414771, 0.266357226069, -0.0652140921146, -0.365650392168, 0.236414846699, -0.0186241749177, 1.06907068134, -0.210098827954, -0.0987617624859, 0.29000704044, -0.130792564279, -0.131211563184, -0.190170961107, 0.300155160199, -0.0467455020081, 0.17013192172, -0.255544834811, -0.390834960196, 0.25411786122, 0.214769302313, -0.423111816457, 0.606532616534, 0.824738198454, -0.042037319044, 0.312750221823, 1.22409031913, -0.132405729851, 0.0564501562366, -0.155009225348, -0.12362978585, 0.84723458246, 0.293137142161, 0.169679759074, -0.328805647686, 0.110250098538, -0.196760102681, -0.385917983512, 0.667149304102, -0.323016195785, -0.23532968503, -0.183711098781, 1.20961001547, 0.0498828928368, -0.43382630512, 0.131330154578, -0.0875097746501, 0.00196082244519, -0.366170788432, -0.339377185267, 0.233133805523, 0.249045872908, 0.461730842835, 0.190250631635, -0.815749849189, -0.61420041866, -0.110912562446, -0.195301847079, 0.0173186119531, 0.16113633634, -0.192081348684, -0.0648752538249, -0.13385496654, -0.178336253244, 0.173855882494, -0.0933305451935, -0.281261128053, -0.129698245789, -0.187080503802, 0.535014035322, -0.0609779539398, -0.0198549831954, -0.518480508044, 0.40019823992, 0.321100986271, 0.59128909855, -0.352694144654, -0.210979245958, 0.628487223691, 0.384083694557, -0.0956325656108, -0.306862919704, -0.131093101382, -0.161100597824, -0.0900518696483, 0.109997666527, -0.00459689386034, 0.0346503720688, 0.164580048566, 0.607250578981, -0.118666788616, 0.140320625405, -0.873593565298, 0.13964467756, -0.127642294891, -0.459092195766, 0.209893799892, -0.219205690799, -0.0178780478906, -0.355206659093, -0.0366867520737, 0.85287635559, -0.63078585847, 0.387305898326, 0.113646764913, -0.0822376733987, -0.170785684055, 0.162320320075, -0.533138748914, -0.322582372354, -0.0819332607822, -0.413126596113, -0.24404278401, 0.081953116097, -0.0343092674075, -0.151200366295, -0.26654455198, -0.170656454254, -0.318842101345, -0.417285628812, -0.257420377435, -0.298575823356, -0.00413935675853, -0.174309575388, 0.060671103727, -0.0723413375642, 0.227862019014, 0.217590136315, -0.249120978886, 0.551187749506, -0.00231065047219, -0.0944504494889, 0.000873216877706, 0.164448690131, -0.260481203654, -0.137811334364, -0.303761466454, 0.454245889109, -0.41556881739, -0.355707260033, -0.236280599084, -0.205849074166, 0.627238033285, -0.116112285197, -0.0791355757667, -0.0466156840277, -0.0432445018378, -0.158981030578, -0.114620958296, -0.303059859174, -0.238668355364, 0.147646907797, 0.742480211928
-0.517122220368, -0.46260688027, -0.185524435564, -0.3068144911, -0.274669197805, 0.49285760107, -0.00621990638432, -0.387946410552, -0.0459919826534, -0.40676106546, 0.0761546835935, 0.252773297036, -0.101567020491, -0.246824105129, -0.0158808011471, 0.482126363935, -0.362558049943, 0.240243652903, 0.453210295645, 0.0393487359073, 0.223805690182, -0.706258408846, 1.40526523791, -0.132318251099, -0.0631060160086, 0.927157699054, -0.505341882854, -0.0817503166978, 0.00975371066107, 0.124328625904, 0.154719509529, -0.108742261032, -0.317266027246, 0.476751931736, 0.304104263489, -0.648047230384, -0.314774583069, 0.0592955898884, -0.137117558591, 0.0694125201934, 0.609685679179, -0.336079273506, -0.0340870226097, -0.675841252206, 0.199563727639, 0.112259454083, -0.748812756714, 0.452169657563, 0.0963735704099, -0.393542865121, -0.161524492529, 0.0164057076888, 0.205592478687, 0.118826527009, -0.383217220582, 0.152135922903, -0.870249472192, -0.301233762886, -0.175437370323, -0.209994317629, 0.289147285675, 0.491372915876, -0.242339785108, -0.0944040825152, 0.105254180986, -0.691408907528, -0.147653037556, -0.0212575562869, 0.467707068156, 0.139707299913, 0.531226870323, -0.0705988333141, -0.383518791878, 0.375452838867, -0.893027384077, 0.740401965661, -0.271719548755, 0.104884048116, -0.371676276939, 0.226876108006, 0.194637684279, 0.210672016276, -0.131244619203, 0.455202954913, -0.724348665211, 0.95905748614, 0.133762584478, -0.155466736055, 1.00631676932, -0.20913479687, -0.32879379374, 0.238526743814, 0.308650636926, -0.091089948989, 0.0819731887773, 0.851470678801, 0.74192772679, 0.283034298444, -0.0719319176748, -0.406656538028, 0.619234685691, -0.370621214463, 0.266927316585, 0.0130355109947, 0.165376751622, -0.163192519859, 0.0331745945651, -0.388982971011, 1.26115285313, 0.108957989581, 0.64259028817, 0.0673632526801, 0.464371914642, -0.295072784217, 0.158088879094, -0.56175242852, 0.181821064125, 0.0114750527293, -0.42435156207, -0.30405098066, 0.082254587225, -0.00270347222914, 0.194221454506, 0.0814785184154, 0.25965929268, 0.360019880788, -0.345299555024, -0.0925241115881, -0.559507137106, -0.45148165903, -0.322202075284, 0.183436334391, 0.304865138297, -0.201452608675, -0.0712621112626, 0.272609358381, -0.014896305491, -0.41150583527, -0.0691851681904, 0.212728631908, -0.297388114091, 0.106362468059, -0.200829748508, 1.53548192777, -0.272303672537, 0.0527912790772, 0.157118806432, 0.761989299064, 1.00355160981, -0.507613421153, -0.144051573682, 0.297227502279, -0.113034554008, 0.444897749021, 0.83725938961, 0.164733592405, 0.274911433734, -0.229675120822, 0.347193679325, 0.478236167286, 0.0801114970496, -0.0394777905756, 0.0689199638225, -0.061088781717, -0.215531702573, -0.193708933588, 0.333269551714, 0.630731374087, -0.426624883278, -0.231495965341, -0.628874240078, 0.19417170295, -0.545399431002, -0.250153922715, 0.175663783893, 0.212993826147, -0.577454257344, 0.281461409492, -0.0329282544781, -0.189272002783, 1.34040735605, 0.179845319271, -0.195608554464, -0.0925864109229, 0.146769210848, -0.676369040668, -0.933868148183, 1.29475610237, 0.0621877612666, -0.641784406593, -0.174573818839, 0.718857452237, -0.105506900175, -0.544471486646, 0.492174299243, 0.801907004222, -0.589638457575, -0.736457963903, 0.979473791253, -0.111128661271, 0.864770948601, -0.143750000355, 0.424750787088, 0.0277602019751, -0.728751476789, -0.589067420173, -0.395088219965, 0.285169580984, -0.255586850386, 0.426909827, -0.351870847362, -0.436903118707, -0.702112581036, -0.0565008264938, -0.117602731995, 0.656377524928, -0.446764780394, -0.342943034784, 0.374603588785, 0.431925488943, -0.234770123252, 0.36514956398, -1.00026194401, 0.252858282526, 0.581651448156, -0.395528960286, -0.488642536658, 0.245981479103, 0.10188269418, -0.559400440666, 0.224037653182, 0.338631507428, -0.0971569721021, -0.604441755125, -0.24159328898, 0.0835556694616, -0.0845137325349, -0.408905658128, 0.218968473537, -0.475199002396, -0.169545305926, -0.405691001385, -1.0250512181, 0.301242394105, 0.289581452599, -0.55021465624, 0.73603221548, 0.0901672627845, -0.449620589713, -0.499774791564
0.117041043761, 0.18981734382, -0.148977122617, 0.343671246649, 0.13301447642, -0.349427081483, 0.02753099536, 0.0723162228725, -0.0145987475956, 0.0457081874776, -0.135215843455, -0.011305871107, 0.394837131041, -0.18079566967, 0.137265452445, -0.165569862826, -0.0173736343267, -0.0464100261503, -0.141900491737, -0.0481787842314, -0.161649617129, 0.465350907261, 0.0823048138564, -0.0814093851725, 0.201933344722, 0.881271633519, -0.119794610609, -0.173462269197, -0.000913332715013, -0.0779893896557, 0.0462368251175, 0.263378898697, -0.145557719987, 0.153583138323, 0.184474412068, 0.830941491796, -0.206073538821, -0.0436744086802, -0.0808629634231, 0.311995169455, -0.269505255048, 0.0599664182712, 0.131155609591, -0.654584262678, -0.0026637586097, 0.0857496067367, -0.159099028957, -0.109502285269, -0.0117126808817, -0.435097092159, 0.267237820771, 0.0460450165269, -0.0177927420188, -0.0839482153007, -0.0261188048579, -0.34580373751, 0.636939535946, -0.231918579112, 0.403882533327, -0.1481478951, -0.390307924365, -0.179326576494, 0.00133547669224, -0.25326221138, 0.317297327416, 0.280153224713, -0.00865796263993, 0.0316700425386, 0.43797613543, 0.178399887662, -0.263666116141, -0.319500907224, 0.348689548107, -0.364702312196, 0.239973263414, 0.180392571094, -0.0921672687966, 0.210092830937, 0.0282423286333, -0.0523363773972, -0.184120005863, 0.06183674113, -0.0551687830132, -0.0594783387035, -0.340286307141, 0.0444080218651, 0.12959114833, -0.0432790688378, 0.0637360712237, -0.132606367624, -0.47238760094, -0.135271536291, 0.318629916552, -0.154411707613, 0.0383680620854, -0.23592916016, -0.0146172237522, 0.0610839487862, -0.0817385123384, 0.336350121183, -0.0761007866034, 0.442666744481, -0.016906897023, -0.0260529218761, -0.390716222314, 0.141997199783, -0.250718872266, -0.0959949112878, 0.217387606395, -0.144533871256, -0.0519432835769, -0.171619121453, -0.086971325392, -0.19500356287, 0.304341520188, 0.335999027001, 0.0296360410148, -0.0606436392841, 0.530516678286, 0.246437398422, 0.146641387904, -0.0286885382837, -0.202304950798, 0.233690418379, -0.12944890424, 0.421770526177, -0.312167079905, 0.112837618578, -0.264292843855, -0.252502012685, -0.142494106618, -0.0156542561833, -0.0866991659879, -0.177779414901, -0.0274130671025, 0.259046599146, 0.187286888037, 0.399012258605, -0.102031446523, 0.156341882269, 0.0327953004945, 0.158274643627, 0.646729847395, 0.556030286685, -0.085349136717, 0.154761022825, -0.0576818563457, -0.269928492382, -0.310598865872, -0.11921244803, -0.180322603526, 0.0428264045416, -0.0408142113208, -0.161338012601, -0.0377334406712, -0.0469748460349, 0.895674599054, 0.0701608944568, 0.141346442814, -0.147830254464, 0.0464582764481, 0.0417792248665, 0.135833218853, 0.16784833268, -0.00282290668969, -0.00141574241595, -0.105094206517, 0.494721220039, 0.0406247562724, 0.0411154711548, -0.0228585411956, -0.219038322425, 0.204508054714, -0.364857646544, -0.0114230654321, -0.25266276829, 0.31496741696, 0.0683463094174, 0.270192017337, -0.0881180611573, -0.185026633647, -0.0624828533404, -0.347279418319, 0.0385962981872, -0.242599929598, -0.024510042631, 0.300712844835, -0.500248151509, 0.21243988233, 0.0687395507891, 0.145200042817, 0.249262455096, 0.789896461722, 0.0190720245852, -0.191185803079, 0.224978526587, 0.53902592096, 0.155964358709, 0.00387412631494, -0.00234713068419, -0.388213436442, -0.228604963842, -0.310265228887, -0.0936568065716, -0.212766354618, -0.238520585901, -0.458253932644, 0.0239547862539, 0.205713861299, -0.0768013130375, -0.0468978374003, -0.158540390904, -0.302611462032, -0.278300621632, -0.122327887656, -0.327962904285, 0.144589751753, -0.172790756647, -0.138890197451, 0.160760588466, -0.826858346252, 0.0457998031525, -0.326083703849, 0.478199763836, 0.254257717298, 0.224296291328, 0.23157697724, -0.221368175842, 0.0933211792119, -0.0776285508013, -0.22285543679, -0.0519841934886, 0.0894823071657, -0.203717805045, -0.139715211037, -0.134873586776, -0.478660775857, 0.181827900969, 0.270240837155, 0.0923173890099, -0.0321768508206, -0.583073493268, -0.162951912676, 0.108727570298, -0.223079596843, -0.139755336927, 0.44034474751, -0.137269266532, 0.112876863298, 0.444042982482
0.53573110278, 0.0716971743131, 0.387847046511, -0.0890544187811, 0.0970307571714, 0.135902485132, 0.172027337904, 0.353029794617, 0.218812473174, -0.266787557592, 0.171519873211, 0.176338658356, -0.383762633937, 0.620141265779, 0.527079630289, -0.394150683259, 0.0571379520444, -0.113199229544, 0.226152586978, 0.313492720293, 0.0389684999846, -0.360813790994, 0.00519670412479, -0.0925316669845, 0.00563298569048, 0.694314241411, 0.238064298495, -0.00179501758116, 0.106613641114, -0.150336883598, -0.196660510614, -0.28310292402, -0.443046396795, 0.224543396953, 0.0300317742987, -0.193689599368, 0.154264172661, 0.0952247545872, -0.056207580504, -0.230265077322, 0.141507131314, -0.306215327964, -0.148053189574, 0.136339291854, 0.210914185074, -0.262163525128, 0.0221528640334, -0.489555828905, 0.114563461735, 0.733000164352, 0.105290891552, -0.0577549912992, 0.076729811144, -0.0141904052638, -0.401659446261, -0.109710379193, -0.166650188394, 0.0256415487652, -0.0663286161378, -0.061135935849, -0.424083950835, 0.133509103762, 0.0762551324504, 0.249991315561, 0.11381777174, -0.143499568935, -0.101609167565, 0.188473161323, 0.113656383101, 0.23948868737, -0.326810036028, 0.0183683470361, -0.174786279677, -0.0883186737433, 0.0464105065926, 0.120591773395, -0.09878071195, 0.0231297508263, -0.0391082405893, -0.0901373040853, -0.134908942592, -0.183927879418, -0.0620784636815, -0.0609136459421, 0.142914990664, -0.0405170899539, -0.256719535241, -0.0725184263285, 0.0466653229252, -0.498957295471, -0.27016512005, 0.272716874141, -0.203379402106, 0.0798926666721, -0.136857254928, 0.669988651549, -0.0611355561562, -0.0437526602776, -0.07308344224, -0.0463067236121, -0.050804757734, -0.585516551915, 0.0436659915234, -0.0302465929231, -0.241940457306, -0.00362778736095, 0.0313761264303, -0.0517209436193, 0.177048696132, -0.156130359924, 0.444041198636, 0.309288796003, 0.209797170435, 0.423652655239, -0.334334615171, -0.143672127215, 0.0848802526185, 0.129869563089, -0.0915822744563, 0.322794812013, 0.117927072508, 0.0426069740116, 0.164033764674, 0.366931048529, 0.107948820042, 0.154983637141, 0.014311594388, -0.0765867226144, 0.0499457548965, -0.12767801932, -0.182568451264, -0.247991150609, 0.312428042452, -0.165502328353, -0.309310370602, 0.616895771941, -0.0799188020045, -0.0697546198162, -0.109273281837, 0.320647500541, -0.0151596983374, -0.143555180003, -0.757219014188, 0.135907657144, -0.192814477495, -0.218777852593, 0.00366108418371, 0.112745801932, -0.175077328681, 0.252244679781, -0.0355822047241, -0.0628339953527, 0.0509567043343, 0.123261686573, 0.410409029144, -0.0421900673044, 0.220011718569, -0.277461215015, 0.00112773462273, -0.218028941229, -0.0895781551358, -0.0249187602855, 0.111365970385, -0.110455292263, -0.110264900723, 0.0498066512784, 0.29166515914, 0.662905407887, 0.0609472866271, -0.569806280846, 0.444209511645, 0.00207629958232, -0.0813859388587, -0.182407772541, 0.443582657382, 0.0317674769574, 0.0961626538091, 0.0174993660364, -0.357780140293, -0.106443607301, -0.0659448429634, -0.0980657658605, -0.0147466855458, -0.0384716195386, 0.119411137161, -0.212242232114, 0.0661703645387, 0.421868033963, 0.12027067161, -0.441738286273, 0.179745875175, 0.204046395924, -1.43167521285, -0.0173797525713, -0.000896857467057, -0.0807169060233, 0.108483064628, 0.0215443309383, 0.0130226298214, -0.346597048487, 0.0943832873403, 0.171483993764, -0.148178224159, 0.29027652057, 0.131654539618, -0.274035429476, 0.270886302206, -0.04214800382, -0.154894596785, -0.046637266431, 0.129988057276, 0.209015848185, -0.111259440017, -0.219959450742, -0.114486109859, -0.374663830739, -0.248438695742, -0.0993546697213, -0.129968650412, 0.00662023395672, 0.251645073626, 0.0310990189874, -0.0815027520531, 0.0136523884599, 0.115785355584, -0.287605286815, -0.0121069840469, 0.133256794306, -0.107688378037, 0.00686744920577, 0.111573348626, -0.107163040944, -0.106288689807, -0.231146293061, 0.30728616856, -0.201337318038, -0.259024685667, 0.269242500178, -0.104776975853, 0.100784168188, -0.0188056051004, -0.298973515414, 0.592392160118, 0.730214143535, 0.180399517799, 0.255595733432, -0.0418930071559, 0.0784820263311, 0.328483649433, -0.164165461276
-0.23507262695, 0.0822191721549, 0.0267885927774, -0.0619512527585, -0.132667115097, 0.0723824956712, -0.0113160218817, 0.251369600318, 0.195588302277, 0.258483829416, -0.0331289221522, -0.0946224239284, -0.224774260597, 0.127013672384, 0.372855900661, 0.216080207005, 0.0350153515444, 0.103562207369, -0.114671678242, -0.0948484893082, 0.325309884242, 0.294408104892, 0.805808222209, -0.0908286974731, -0.223281637859, -0.157301803545, 0.263260322937, 0.474179741127, -0.103324561891, -0.204057575589, -0.0753775883505, 0.0261902812972, 0.488632430816, -0.0109001732496, -0.313316163757, 0.13958535122, 0.00934712237287, -0.00712349904314, -0.0501312523855, -0.0987331394684, -0.120769350987, -0.441919717119, -0.250880118039, 0.110099732001, 0.0490913721345, 0.0551079978219, 0.176805617556, -0.109350046593, 0.301245488069, -0.119848472731, -0.0794962834263, -0.0596435532033, -0.0395411665129, 0.282093037479, -0.274738686033, -0.0782362837086, 0.116603173673, -0.131913541062, 0.235432740027, -0.239036467601, 0.355823486451, -0.0382357539272, -0.0788722992036, 0.275138051759, -0.598205800682, 0.022121347345, -0.063542103618, -0.324505586866, -0.111282411084, -0.477984539689, -0.0413491605135, -0.460300727286, 0.22247275669, 0.323906500337, 0.131197417882, 0.0991953796928, -0.0687725052411, 0.00410503788776, 0.0331220549673, -0.140103690236, -0.0250813424772, 0.0565879673231, -0.0711678671827, 0.000986303005678, -0.0989065972121, -0.0302291763538, 0.246026497275, -0.186614118429, 0.782742664118, 0.198627833238, -0.145179190985, -0.226686311441, -0.423724381607, 0.272463849523, 0.104381239662, 0.0178308216298, -0.27309828178, -0.0479289519805, -0.0869137826781, 0.221251477239, -0.112145253431, 0.305656665299, 0.000553926700089, -0.0446346720434, 0.0615317831059, -0.214199191825, -0.120896408972, 0.0771544397909, -0.0253912810934, -0.064284133889, 0.0280623907798, -0.0237509368823, -0.0388313784606, 0.13406499291, 0.13148750177, -0.094170887727, -0.263944726503, 0.00661148836232, -0.0498590828493, -0.131115614631, -0.0116578911454, 0.162112251013, 0.82400489263, -0.236614359108, -0.0956701128179, -0.15717388338, 0.278036399679, 0.176077670644, -0.0749599430554, -0.115206529049, -0.0745535235163, -0.0976706518126, -0.0430298266758, -0.104188220771, 0.185458604758, 0.0693070989135, -0.245707978747, 0.0534408617317, -0.0611553068157, -0.499760499608, 0.060618566847, 0.340437304802, 0.137910296033, -0.00955921730405, 0.0888471587781, 0.0917753320748, 0.123488109184, 0.393711632736, 0.0790299677414, 0.0337351977344, -0.150296421331, -0.292207434027, 0.0664179825322, 0.0991411878042, 0.434157078286, -0.053804361341, -0.099811890612, 0.41106605352, -0.198150761248, 0.121824733079, 0.0839426831786, -0.105906797437, 0.0546677502887, 0.0100299922392, -0.0908198785941, -0.031173677336, -0.175666251872, -0.18213262634, 0.191760125454, -0.287586897596, 0.214751224277, -0.147873567057, 0.114795046952, 0.170293741559, -0.313209902063, 0.0101235425525, 0.216618706466, -0.0753529226243, -0.177966609809, -0.0977127661107, 0.029847039051, -0.126791314097, -0.108371632241, -0.15941127275, -0.0886514963762, -0.122212229415, 0.28292201217, -0.126556337331, -0.0456711481858, 0.231391488803, -0.0390103471529, -0.109594151796, -0.0662148720803, 0.265604308305, -0.112823789558, -0.0695216148891, -0.162104022329, -0.0602815402121, 0.275350499309, -0.297844103193, 0.191635759494, 0.531479694735, 0.141192025635, 0.00149455932985, -0.10116444749, -0.0388472754487, 0.10189027988, -0.0736220011689, 0.188067066254, -0.0354797179881, -0.104861089449, 0.0562352325907, -0.0261321254423, -0.180755345434, -0.0959880153246, -0.0278734707168, -0.0963783039415, -0.0983463805687, -0.0861072235674, -0.0529015970337, 0.285768144722, 0.209449803453, -0.146551550353, 0.351847769019, -0.0781664815534, -0.030963633874, 0.0436105716, -0.36682899433, -0.0788194662668, -0.111058266962, -0.179659361743, -0.0370001707923, -0.0675590068482, -0.0521096679509, 0.0372316252155, 0.0211505956638, -0.181027358384, 0.0373678628356, -0.209332509051, 0.0441333739027, 0.00755980834361, 0.0594635731891, -0.355186694651, 0.0705176820411, -0.0531098360941, 0.368566664008, 0.184435611745, 0.354746405806, -0.462165955883, 0.42622935986
0.356894226676, 0.0967786054839, -0.0446446658794, 4.94517700422e-05, 0.040750771927, 0.0316827851259, 0.179711220209, -0.0280418741173, 0.180000798669, -0.0353661298754, -0.0160135378914, -0.00405833857971, 0.183521994895, -0.0208351266679, 0.0939095557154, 0.0612100066871, -0.0522578307373, 0.00830353071614, 0.0291163055154, -0.0425028985495, -0.0600292401833, 0.0273390918021, 0.0294747619665, -0.0792693084201, -0.0107239346037, 0.298822870847, 0.0604425443049, 0.122640247651, -0.0024498805619, -0.134463456333, 0.0362073074711, -0.333342309678, -0.0466661784779, 0.131186870331, 0.0258696535429, -0.143889486987, 0.161562056434, -0.00648859878121, -0.0652271933749, 0.152446965404, 0.051873194019, -0.250325027389, -0.0163444173012, -0.109220763909, -0.0477262239871, 0.0752850398167, -0.00444360743776, 0.00387433982947, 0.0105792435023, -0.214691161037, -0.149875553182, -0.0555741432159, 0.0649070021337, 0.0218166112475, -0.112215884173, 0.0521869258698, 0.0254723229463, -0.0487321223373, 0.115030061809, -0.208409646157, 0.1085979927, -0.0211800235504, -0.0419477841996, -0.0341563895308, -0.0539273613542, -0.17333760724, -0.0411862823547, 0.0592053231273, -0.0604003413978, 0.0942400986128, -0.044736161153, 0.185475495737, 0.0484248283342, 0.0159281117196, -0.182303916185, 0.0631919378399, -0.0756170340834, 0.00210457226003, 0.0452712464801, -0.0573463863202, -0.0681232488101, -0.0997459621443, -0.0647127002133, -0.0192823157135, 0.0117483252411, 0.117846937259, -0.0226416747317, 0.0217036896033, -0.0762412134906, -0.0561217737053, -0.0089931305663, 0.0803849777082, 0.0227554091138, -0.0666416055675, -0.0983755121177, -0.0606480775708, -0.00173856310386, 0.0409144718096, -0.0625073262929, 0.056908805003, -0.0086936736585, 0.104134435592, 0.118567930195, -0.0501772774335, 0.0910697810099, 0.160290827367, 0.211577786776, -0.0138421628889, 0.0492745878486, 0.0299620658586, 0.0229424013657, 0.0617667106164, 0.158944570757, 0.117582280303, -0.00891094662053, -0.12838755514, 0.122937411631, -0.0111092031604, 0.249786359743, 0.0723586719624, -0.00445577839239, -0.0982863759023, 0.0929607860216, 0.00576879474251, 0.0328084611978, 0.0649196072554, 0.0189022769449, 0.0864553546977, -0.0670810790925, -0.0911210718878, -0.101780923634, -0.0293944063167, 0.0841855550732, -0.112334948679, 0.0122730163169, -0.0138712843777, 0.0479701340985, 0.0339961699285, -0.0924479421483, -0.0675097606366, 0.0478865198484, -0.0512024404392, 0.0860679739034, 0.345852940705, 0.00181522934198, 0.0573666879683, 0.0894725590269, -0.00659277560206, 0.203994252391, -0.0270582875308, 0.0153639018044, 0.000528599208137, -0.0265606793222, 0.0416212036105, 0.0857291584775, 0.05898016761, 0.150638719041, 0.0639574129851, -0.0489484033426, -0.0290898252659, 0.0255616618223, -0.022612876123, 0.142976809286, -0.0789662287593, -0.0723363763066, -0.0429855179401, -0.038696720078, 0.210235646531, 0.0162635495362, -0.156416108908, 0.0587228218893, 0.0662584482441, 0.0314869843695, -0.0502228610881, 0.203792817897, -0.076216756029, 0.190165931813, 0.0433856142566, 0.130914789628, -0.0780356795737, -0.000955374235061, -0.0337453601359, -0.0444498538301, 0.0913976223621, -0.00705663047666, -0.101434784045, -0.0961056622039, 0.148964302345, -0.025669976579, -0.168095732923, 0.0340159674957, -0.0393012838119, -0.197672871731, 0.0166608364882, -0.135023722608, -0.0343804616161, -0.346355150739, 0.0845161620429, 0.0993280408152, 0.0321436554357, 0.201217413132, 0.172636692965, 0.0463669631404, -0.0454969259239, -0.133063503808, 0.132029115859, -0.109790129525, -0.0180189712279, -0.107877444703, -0.0562701427471, -0.0362939335266, -0.000330509518036, -0.195408493087, -0.0257392765767, -0.100025329541, -0.019680780221, 0.0556439922679, -0.0632205204942, -0.0522864937762, 0.0989906011897, -0.250935897374, 0.0868025390388, 0.0126083281957, -0.0890418789119, -0.0374985883512, -0.138063748392, -0.0878590712775, 0.104315206315, -0.105694684069, -0.0313700272664, -0.0299212644503, 0.0363120626209, -0.0691881851525, -0.103706320846, -0.125479254531, -0.0766121298394, -0.0688667735607, 0.00941190429389, 0.00940728662152, 0.000258618375582, -0.0706082969343, -0.148179352632, 0.102656138455, -0.0960931086138, -0.00206164852404, 0.0270805038345, 0.0544492111918, 0.0271085176393, 0.684074898587, 0.0397130718667
0.0530483231135, 0.00338182360459, -0.0846471102199, -0.116654834179, -0.112755104746, 0.187813123151, 0.539764593906, 0.184922181854, 0.0157380954204, -0.132030378335, 0.358471150325, -0.0488614275388, -0.0117260522266, -0.209323092586, -0.0655141718502, -0.393907475419, -0.129924533591, 0.0557960966433, -0.0609929926361, -0.0359756570415, 0.227755116718, -0.0278200881882, -0.144618759811, -0.0907133379725, -0.0176630489394, 0.119218563666, -0.247342000706, 0.341267343552, -0.0533113009859, 0.00762610976519, -0.103571172651, -0.626827795661, 0.0805994687597, 0.275914563372, 0.587738452879, -0.0722579930944, -0.218845105911, 0.0923426298034, -0.0733133778695, -0.167345620453, 0.212532289623, -0.0279448073335, 0.0506258523835, -0.611550048162, 0.255357983936, 0.258310132632, 0.221430978753, 0.192829502406, 0.17494531477, -0.585832367255, -0.109555518324, -0.0544557295658, -0.00426719486126, 0.422323261476, -0.177848606199, -0.139084412128, -0.0461308772283, 0.186764077349, 0.378056709143, 0.0110521077651, -0.0251617755273, 0.0545622523453, -0.131342785938, 0.301498522613, 0.130789754501, 0.0647994606613, -0.119281911258, 0.430379774993, 0.368855833372, 0.378617706003, -0.20611190688, 0.836813697405, 0.15357540094, 0.367601200696, -0.594036850449, -0.506687061694, -0.113378340524, -0.196583630431, 0.0078880993923, -0.0157644062465, -0.0037604050021, 0.30006991442, 0.0125388490816, -0.183468881794, 0.193733543274, 0.119487164997, -0.323282688685, -0.141351163409, 0.549306921554, -0.333506940017, 0.291827605959, -0.337155106107, 0.623993034137, -0.143603034166, 0.10266542329, 9.98184605243e-05, 0.8615186379, 0.0359607777875, -0.0869829092982, -0.114793528778, -0.150508761812, -0.585716682167, 0.181952312436, -0.080261305438, -0.216950545513, 0.23406851842, -0.789324135589, 0.284434221708, 0.194658543497, -0.138572090385, -0.0637737692419, -0.172630680768, -0.294348589618, -0.00286680003142, 0.276855922523, -0.057337404919, -0.318474377361, -0.0313552999013, -0.290479135535, 0.271910525633, 0.300040521511, 0.332146963833, 0.412403893638, -0.226046446747, -0.048951178821, -0.0236081518414, -0.220537259091, -0.0276814871258, -0.0435886299664, 0.0211807639422, -0.224864571851, -0.117378262606, -0.0450229696337, -0.156177949404, -0.221171394418, 0.575053729518, -0.117591442622, -0.228826983429, -0.116744235524, -0.0374723790305, -0.0627709178454, -0.295879081815, -0.331942062083, 0.442951970168, 0.0760261506522, -0.0758622741083, 0.280538769861, -0.26794290527, 0.124640970344, -0.14032929896, -0.0575902994194, 0.0818807799827, -0.420624449115, -0.0340256726989, 0.629362465926, -0.239798952631, 0.533474586283, -0.176326313117, -0.121847735098, 0.113686722594, 0.0271221951318, -0.184100591079, 0.151055049142, -0.371780724975, -0.088948651862, -0.174496157643, -0.443100970409, -0.424378424567, 0.433860274981, -0.233783558192, 0.371502203637, -0.0832087245241, -0.101128739098, -0.108586070936, 0.0104381350841, 0.0550137879443, 0.387803191951, 0.0718182824349, -0.149203814404, -0.105676089193, -0.26327218482, -0.0158994940707, -0.0765600093812, 0.0668550523926, 0.0857038643098, 0.287920295699, -0.0378520919519, 0.27032090587, -0.243143209352, -0.0142634157224, 0.112155216411, 0.542725710733, -0.13115212972, 0.103327951695, -0.129257280556, 0.0452305728104, -0.372579507151, 0.0570200834802, 0.173857723471, 0.0176651209136, 0.148014282343, -0.195488140457, 0.160104711227, 0.00870438345149, -0.218796700929, -0.282502207131, -0.30564417406, -0.00205208295125, -0.212869226845, 0.121129143333, 0.0437068266906, -0.0736274759458, -0.0917744068495, 0.533110656982, -0.0841286441568, 0.848807663494, -0.242979895901, 0.0298402309017, -0.179251526144, 0.090710238236, 0.536487747836, 0.352836838143, -0.203998393679, -0.0434454909784, -0.428219828616, -0.335338589208, 0.456820894771, 0.134227024351, -0.116868302763, 0.182884645105, 0.295344107278, -0.0861295409223, -0.0711647406901, -0.0179164796349, -0.0505873977122, 0.0487554173796, -0.00425290769423, -0.0437566208225, -0.284942427999, -0.133027427471, -0.0526217750959, 0.372443546949, 0.0754629888353, 0.0212078813967, -0.00345684997131, 0.0117425445217, -0.15208970482, -0.231557163364, 0.266136732032, 0.0117617221059
1.11882643006, -0.419493737975, 0.656659986155, -0.256044362636, 0.624206135357, 0.282616352636, -0.618922903327, 0.278103720955, -0.168755395256, 0.420959831373, -0.0380153430371, 0.000474755807102, -0.240614344449, -0.513724747894, -0.301392270061, 1.07115811269, -0.512395490875, -0.133897584118, -0.612286553752, -0.134885080819, 0.223095831592, -0.378513124189, 0.211810071336, -0.146353696669, -0.12346625396, -0.211410263944, 0.0710659951727, 0.15858074645, -0.21290758081, 0.151891277619, -0.428736552206, -0.441500564595, 0.824705447498, 0.595958441826, -0.190185847651, -0.354949682704, 0.0776618613934, 0.234984824341, -0.139304583438, 0.170158938884, 0.486060844027, -0.36061287843, -0.40365252402, -0.280347416473, -0.511530147203, 0.856146041251, 1.09751366319, -0.202055029097, 0.0212683899249, 0.323950571261, 0.127561039842, -0.289409797365, -0.347499614541, 0.119443236377, 0.196151020324, -1.06911700004, -0.371088018861, 0.817540079168, -0.207063092554, 0.0765038587425, -0.661683521259, -0.69994115663, -0.380031866776, 0.291142057766, -0.00384289534449, -0.50285351796, -0.280725205415, 0.0428015528572, -0.0723778320629, -0.586432408577, -0.352647674197, -0.337174574188, 0.0829975384565, 0.501927935392, 0.00179853855738, 0.00421382785043, -0.267901884411, 0.234228564692, 0.0786862732909, 0.414456931977, -0.514873429305, -0.111094861765, 0.420613919148, 0.311232786591, 0.212837064919, -0.0919164102761, 0.356030974168, 0.0250141637086, 0.175879818879, 0.2806165104, -0.379925563465, 0.637109652434, -0.714426812044, 0.408901013043, -0.12436823758, 0.693917876998, -1.08226665151, -0.263752591347, -0.158578207369, -0.113864189869, -0.522538987051, -0.416588874919, 0.392581127589, -0.156763950363, -0.62248263558, 0.311061275413, 0.48639933413, 0.835015468916, 0.0740577468321, -0.248667551135, -0.270373088248, -0.350503270426, -0.424723389272, -0.102428724413, -0.0235752987078, 0.332133370851, -0.370136888041, -0.209514373098, -0.86015437186, -0.340191009496, -0.462833173085, 0.393772686618, 0.454893888269, -0.066313566193, 0.324084892177, -0.0743839347237, 0.201837634817, 0.369772481486, -0.0515002438097, -0.0247112456965, 0.407944007184, -0.211948176998, -0.415707369771, -0.261671344714, -0.640601024246, -0.0643130506463, -0.386107364749, -0.35461874411, -0.10277768537, 0.2275416229, -0.318732252955, 0.145823458541, -0.562630030257, -0.165924568598, 0.196448779367, 0.624431896597, -0.0112811950132, -0.0257409323789, -0.397095382548, -0.248155485765, 0.834145701414, 0.0898011139889, -0.673277921341, 0.675916561881, -0.321840259571, -0.550094412004, 0.336167876282, 0.920884104109, -0.341818571305, -0.557447255265, 0.208882700532, 0.298103245172, -0.126941472565, -0.287409293167, -0.232033426408, -0.0462263773786, -0.0822653883241, -0.517677845433, 0.443384048974, 0.422293001645, 0.978588780979, -0.0830021473164, -0.531199763336, 0.787151436577, -0.412160780859, 0.195786736112, 0.671609505124, 0.442076241245, -0.156604900589, 0.0537460164143, -0.615211180929, -0.108602495088, -0.0174066194263, 0.0255543977127, -0.143445575386, 0.755519206517, -0.707956739153, 0.629343098104, -0.622985150396, -0.246989115692, 1.12911777167, 0.378584808043, 0.641605022404, 0.333663490914, -0.806395522877, -0.128029002805, 0.0436219018496, 0.677238401596, 0.376469999414, -0.46077171027, 0.139265802581, 0.394589357219, -0.456598340704, 0.793311368334, -0.436121471235, -0.315722321888, 0.643544169364, -0.132839620663, -0.493415492533, 0.01498251595, 0.707224366364, -0.291394725442, -0.427042141164, 1.22715508525, 0.235866394702, 0.179827142999, 0.538335593694, 0.702603252472, -0.0640133497807, 0.0707167042572, -0.450091716909, 0.234062210232, 0.184201697607, -0.392780180221, -0.409733818081, -0.916471888136, -0.575482638574, -0.769601203217, 0.35700493953, 0.390146333139, 0.516238260417, 0.746088060835, -0.383797730958, -0.0399240946975, -0.563126794282, -0.277947711666, -0.327579873326, 0.431786418759, 0.0156996745785, -0.313055088931, -0.201858519212, 0.235311563015, 0.512482722046, -0.000986070857042, -0.2277324303, 0.439393735003, 0.609271382437, 0.765413211097, 0.874174547712, -0.0519219180661
-0.118262615269, -0.144701117246, -0.0540973310717, -0.154536130864, -0.253463764999, -0.202817699215, 0.159195745917, 0.0540474043764, -0.295299920278, -0.0126170610163, 0.585773926637, 0.183833753673, -0.646512653149, -0.0817475928531, -0.208276613681, 0.706318628493, -0.0786178471282, -0.0805588873872, -0.117127601318, -0.0138260913251, 0.0102134108136, -0.298778811983, 0.0856498400773, -0.0750465859685, -0.0921453925352, 0.981584966338, 0.328237090823, -0.323056244671, 0.239961519564, -0.0607487256941, 0.0138175012864, -0.2277507685, 0.0661542472943, -0.543879649835, 0.0482362906489, -0.0888412679904, 0.0347414931739, 0.00851263658991, -0.0550356034998, -0.099846188568, -0.011741281759, -0.403936043945, -0.106375325752, 0.0252359563096, -0.202000095774, 0.554402357184, -0.467557987506, -0.218361711687, 0.239382655865, -0.445247126237, -0.391337393474, -0.0862731426975, -0.0109987380172, -0.223061620684, -0.234304172116, 0.151808615231, -0.226533171999, 0.566574736462, 0.377139145427, -0.123064317562, 0.0819981997099, -0.18160109193, -0.0326174770786, -0.0184463057881, -0.0218898341686, -0.148803432871, -0.0882641974673, 0.170009824611, -0.340664599687, 0.56405140694, 0.140460994127, 0.116731506766, -0.00225030559863, -0.344613423902, -0.181371756385, 0.760253943601, -0.107531449968, 0.400366344033, 0.172558334515, 0.0869423026723, -0.0842120228667, -0.202695098856, -0.0717691806206, 0.0552239226884, 0.113620631906, 0.333283463887, 0.310179990195, 0.420534367594, 0.56694093478, 0.578234436945, 0.106347303174, 0.2634572234, -0.246665241415, 0.447888837547, -0.267587785863, 0.107097039833, -0.359355188597, -0.120639150947, -0.0727877342198, -0.136638880302, -0.0647728901856, -0.388802614662, 0.533124382304, -0.0602718436547, 0.304476569743, 0.527772941416, 0.291475425957, -0.370658469434, 0.553303707262, -0.0767351786597, 0.0297215316611, 0.279375812716, -0.198918633055, -0.238587698669, -0.208138166369, -0.302295728065, 0.612043432937, 0.0515618640609, -0.138075138652, 0.163329978081, 0.0517067032622, -0.017786878576, 0.140087737047, -0.0376970970213, 0.555806522049, -0.349007920475, 0.0764173332066, -0.155879255363, -0.0741366112149, 0.755183841287, -0.140451702242, -0.140657595811, -0.0202459171015, -0.118327552513, -0.143986339098, -0.0410230268154, -0.0147146737912, -0.172155583773, -0.0519511501237, 0.579182696893, -0.0496964373543, 0.371914718036, -0.394122333337, 0.211023869429, -0.162010881525, -0.252405000432, -0.01110949695, 0.0408405772282, -0.0158794568126, -0.102485177361, 0.0142807983577, 0.595130775375, -0.114230320233, 0.25127953676, -0.530519382839, 0.522203637119, -0.31799284892, 0.265686581348, -0.0352158296418, 0.290794883083, 0.194232593442, 0.306074492886, -0.425484043057, -0.109552330036, -0.0920286107403, -0.0949724387534, 0.777492171649, 0.130985077972, -0.283277288185, -0.282496253546, -0.723577327261, 0.0112445420156, -0.400971931547, 0.511665393639, -0.0603150482757, -0.412305221619, -0.277125060737, 0.428908064363, 0.226294733204, -0.091880400994, -0.123915811745, -0.0519491119079, -0.236833293075, 0.0500619214746, -0.109800134009, -0.77295381513, -0.214912635128, -0.30251671995, -0.0351310466024, 0.0277302620058, 0.481765049261, 0.700224162829, -0.434499827677, -0.223638830996, -0.135280569972, -0.042798635075, -0.309322583887, -0.262905376809, 0.468874896077, -0.0808491781959, 0.407713845128, 0.033750738446, 0.050913849659, -0.0235148544519, -0.0999823885661, -0.232296342805, 1.11814591946, 0.0891499825671, -0.210359826544, -0.0658334569674, 0.287585159734, -0.0743464435589, -0.106877879346, -0.00310461168145, -0.0752293978897, -0.190490849047, -0.0840292301895, 0.27626681448, -0.0907602092973, 0.212471650308, -0.62156800867, -0.0882031667582, 0.0208951771338, -0.10601237339, 0.0639134694826, -0.21354091093, 0.166360437868, -0.0637322927395, -0.034128256088, -0.13817301068, -0.131486051207, 0.327548984019, -0.085456696384, 0.120159917862, -0.304109753395, -0.0788819244877, -0.0546199343537, 0.145431776262, -0.0416828061637, -0.0117092813106, -0.063087396106, -0.277169729139, -0.143826788086, -0.156989708604, 0.731096590138, 0.335387703024, -0.0193664850998, 0.105863196364, -0.490414472209, 0.0936487915221
-0.0603069496304, 0.0233201047389, -0.193339244063, 0.101843981611, 0.0214366348758, -0.0927921115433, 0.0867413292132, -0.105939759111, -0.0340187543385, 0.0203477039359, 0.010498149887, 0.0884528624809, -0.29180853204, 0.00378479532536, -0.0476961419328, 0.106983370667, -0.0666453990038, 0.0675882891814, 0.011795289093, -0.0283953526475, -0.0796657903201, 0.00415348728387, 0.0857193232451, -0.071678754297, -0.152266348714, -0.355305646723, -0.129315062757, 0.0527233121384, 0.0883992675544, 0.0466901040267, -0.0237511031008, 0.410768308274, 0.108150815961, -0.449956946697, 0.17194293451, 0.112592343631, -0.105134903662, -0.265572077432, -0.0633603396411, -0.0508194746624, -0.000718383863616, -0.257365277814, 0.176308906656, 0.131662416383, -0.273971766522, 0.492487020229, 0.170868448123, 0.022990824728, 0.142126328217, -0.627404076518, 0.167084096046, -0.0415632277037, 0.0860063407008, 0.0809137159677, -0.199516632493, 0.111681175233, -0.0741444753955, -0.168084857336, -0.258625421563, -0.15650619619, -0.268317859803, -0.03426101737, -0.0601253909794, 0.129982920328, 0.0201390650788, 0.170798905121, 0.19795274956, -0.0715350240337, 0.246092918914, 0.222174094901, -0.10393813867, 0.135398013842, -0.0873042497847, -0.248311100782, 0.0167332697314, -0.130343476296, -0.0584657556354, -0.01243277014, 0.170608372972, 0.13402062278, 0.17172070447, -0.0572754221824, -0.0653902001899, 0.0508297979841, -0.24299447969, 0.0334396537624, -0.0887965588294, 0.0198074436011, -0.22051576465, 0.0524886554554, 0.132391270975, 0.142679052414, -0.118623730386, -0.188588536817, 0.0165458840571, 1.02942691478, 0.185099650524, -0.0130791623692, -0.0642365000083, 0.00267582552039, -0.0706157320373, -0.00402703676072, 0.10706363818, -0.060481072181, 0.309687411848, -0.216368348539, -0.180775269432, -0.0623941694302, -0.260898795213, -0.0873082767092, 0.0577866318026, -0.046161707743, 0.289169802885, -0.071275652679, -0.0988888903004, -0.128374462177, 0.151530865169, -0.0309483382146, 0.666813584939, -0.0581110070367, 0.0177718028003, 0.0442152076298, -0.0782783478445, 0.373461762656, -0.162952560017, -0.0402422880655, 0.0181979088342, 0.0697120220175, -0.110442643603, 0.120726055965, 0.0263295323619, 0.000993748763544, 0.112117416789, -0.139922041249, 0.0956099624496, -0.169618922742, 0.0215473827928, 0.0802627994322, -0.0652253326971, 0.802414135749, -0.0284366910208, -0.0425280275293, 0.0356976495096, 0.260609436985, -0.0944211303889, 0.239760990955, -0.0444704388697, -0.0425781470765, 0.14746524014, -0.120183187612, -0.05701097422, -0.234257371307, -0.319339443664, -0.0182682506267, -0.0687126839542, -0.0809737678387, -0.262010304761, -0.35198795377, 0.206956043417, -0.0272172168572, 0.0855947896397, -0.250880114006, -0.237685521329, -0.0834494362098, -0.0667613588137, 0.0375231484135, 0.209004912685, -0.0125939559643, 0.259684551561, -0.217812822453, -0.211468580477, 0.188820904201, -0.0959803606122, 0.187867803881, 0.217742506859, -0.0783992091403, -0.0782147442283, -0.00181814423446, 0.0698875189878, -0.0747842124181, 0.0251873965383, -0.0698322574546, 0.0246737008105, -0.0140878905997, -0.11731391735, -0.0197558075277, -0.0712678822686, 0.119086654714, -0.0649979029974, 0.185023342931, 0.0388030512217, 0.133157925126, -0.373683286859, -0.0490500057797, -0.0916610677439, -0.0195258387472, 0.235154706521, 0.00318544262383, 0.05277418548, 0.0138700716533, 0.0609486255442, 0.0540267946309, -0.150760421532, -0.162139424245, -0.233034510423, 0.00302085985128, -0.122072891206, 0.0115724583891, 0.186224778178, 0.0107594604805, -0.0531131659011, -0.0264138910569, -0.262511466139, -0.378144036529, -0.0940216128722, 0.25075972477, 0.318846931846, -0.105845059625, -0.0504589677679, 0.0832706542406, 0.345551195289, 0.21696441327, 0.168489944071, 0.13298843482, 0.263111417631, 0.564251258032, -0.0626185248468, -0.086546242556, -0.133162956635, -0.0650100342777, -0.158484105221, -2.80530125286e-05, -0.10835055304, -0.145314011173, -0.215550808577, -0.0925207309812, -0.251727239245, 0.334978528172, 0.571184615721, 0.0565609593851, -0.0454109705415, -0.034014806888, 0.241759393423, -0.0423815697313, -0.0851447685423, -0.0174682807211, 0.413752356388, -0.0321911313082, 0.447501084548, 0.0532212770177
0.388177925929, -0.163224741102, -0.406967895311, -0.114893060648, 0.519623577282, -0.522319407059, -0.400370760336, -0.282982874885, 0.305516487291, -0.2763169382, 0.340681647674, 0.217494149229, 0.242832698926, -0.217596697146, -0.171305278996, 0.393083494317, -0.0843696026021, 0.123222518143, 0.167950711296, 0.0910082604874, -0.0945461667691, -0.264158199406, 0.815543815434, -0.0788809572582, 0.376928019377, 0.333697033106, 0.201542548353, -1.09259142941, 0.257777162405, 0.380883931955, 0.0187272801828, 0.173722701604, 0.124596579199, 0.04142617883, 0.313707482323, -0.406331143164, -0.0248336866718, -0.279527182044, -0.0740439334793, -0.300381156754, 0.475314095157, -0.516270504083, 0.814065085879, 0.412307024684, -0.213827006138, 0.426460053397, 0.153851228899, -0.29124567292, 0.0933218829798, 0.393113968764, -0.0496487429439, 0.271745995533, -0.0617979063284, -0.157609536283, 0.56092146069, 0.11640237481, -0.293049679057, 0.641491578671, 0.399662546198, 0.0674087367543, -0.47560519179, -0.232661715866, -0.0425835869437, 0.00977699093533, 0.721414764268, -0.541119171567, -0.025024765105, 0.0226711858528, -0.84156420955, 0.340088638951, 0.345169404721, -0.0986891717352, -0.0609357344038, 0.094328709293, -0.53368223358, 1.14322597905, -0.112923372307, 0.460710310208, 0.0253039216443, -0.145439960651, 0.336895655447, 0.0876056263406, 0.061184337952, 0.0484091335177, -0.454246334598, 0.185336480224, -0.368033906894, 0.338031164522, 0.229572514433, -0.0303007158999, 0.253852049439, 0.41898615278, -0.22960233838, -0.325480924683, -0.323725391546, 0.0230073474128, -0.542647508392, -0.0683811828393, -0.0688012706745, -0.237234017119, -0.150101933325, 0.245544985636, 0.838011151312, 0.0130151388891, -0.289956433797, -0.510558849414, 0.340659647097, -0.372791765369, 0.385254932052, -0.284522224101, 0.416565304281, 0.224827745725, 0.878228458023, -0.232669289349, 0.103282689301, -0.165551000516, 0.120659308827, -0.0544478274756, -0.325392212935, -0.347895944335, 0.512561463548, -0.159098535017, -0.574637256474, 0.32689041939, 0.689617316796, -0.651382325794, -0.277435288815, -0.0777178449994, 0.382965865527, 0.484233920355, -0.528885008975, -0.23124035822, -0.227196677858, 0.818811255807, -0.074751755332, 0.828599056145, 0.35361315502, -0.165625779624, 0.0162249134931, -0.383091104332, -0.0788912699678, -0.20247459718, -0.42415835179, 0.553287344023, -0.067435930167, -0.145999270783, -0.175348218435, -0.00666165230684, 0.0368879211377, -0.206757139977, 0.303716856578, 0.0558999552352, -0.0829100591505, 0.1154433183, -0.184217499863, 0.89762754733, -0.165208777548, -0.41331443109, -0.220823092196, -0.224750818232, 0.183237358868, 0.373517195927, -0.494150302519, -0.0196034777862, -0.0918449202923, -0.114885641357, 0.44600339402, -0.118261278015, -0.174591606132, 0.531294118934, -0.156550970352, -0.249800968759, -0.592568858638, -0.190281233692, -0.429087520409, -0.105558272215, 0.0325391537672, 0.208675728579, 0.252277341366, -0.0866360216916, 0.0598293590563, 0.130046364396, -0.446468139481, 0.103408041805, -0.333103752291, -0.645341758103, -0.286667589485, 0.206221718698, -0.102873603283, -0.236630780741, 0.358365817215, 0.707125562145, 0.760860279577, -0.224832300415, -0.19190700027, -0.221052051267, -0.565655743347, -0.454756765104, 0.410046729615, -0.236515058172, 0.561969369646, -0.33599048606, 0.212475015131, 0.213777434793, -0.139409160728, -0.239660411895, 0.0352791408722, 0.144474103498, -0.225366336315, 0.0253125008858, 0.683612260304, 0.0683666911516, -0.206365843487, -0.212947215717, -0.10103801296, -0.0288059649511, -0.0631402776447, -0.139437623239, -0.0730198602594, 0.203048096055, 0.549347871844, -0.173355864218, 0.109653437558, -0.3193040166, -0.249707627478, -0.42534254253, -0.615377663803, -0.0301338926667, -0.0985816734931, -0.410364800187, -0.241763777437, 0.0915217007868, -0.0420925466474, 0.177504265562, -0.111186880556, 0.148801575558, -0.384568224834, -0.178528444973, -0.420253751649, 0.6193353395, -0.0915744897031, 0.656393811908, 0.654486033554, 0.114031639895, 0.315662989439, 0.0743524196655, -0.987606610841, -0.23884462799, -0.345576506054, 0.300209986017
-0.481534882678, 0.0476949445858, 0.102140516724, 0.0904061673454, 0.126191199524, 0.748255573214, 0.489680922729, -0.193868978581, 0.0152835266455, 0.0417178472318, 0.0542161107851, -0.0498191098432, -0.12640894844, -0.0821442991764, 0.130415073405, -0.10453729191, -0.0594170560216, -0.127800087721, 0.176774144152, -0.0263161783417, 0.0881752015107, -0.157770910239, 0.216064983911, -0.0823879581503, 0.173219575855, 0.138892270941, -0.341947701725, -0.223342751341, 0.0375203887783, -0.0904030946862, -0.140356685057, 0.486424441636, -0.0207783327906, -0.133069142183, 0.371885946476, 0.0846030410318, 0.0540385891877, -0.26113163054, -0.0782247041827, -0.037571792196, 0.146039248084, -0.222844573835, 0.0378557585204, 0.0341968973453, -0.337577779193, 0.330339809562, 0.2455122036, -0.127956309097, -0.0414619401774, 0.177179493393, -0.0906566125805, -0.0963939055471, 0.205635809153, 0.121869738927, 0.252931149236, 0.0799214953554, -0.0565740392818, -0.303637170169, 0.864356244905, -0.44286460682, 0.311026148033, -0.263548152649, -0.0669134199481, -0.131127709052, 0.557110012808, -0.0404042379409, -0.0495154501208, 0.472914034586, 0.099771090512, 0.198267962187, -0.343717804528, 0.288769433388, 0.0858271607674, -0.221774593532, -0.320695116322, 0.574467726276, -0.111118811078, 0.152153241755, 0.0697130628468, -0.285794442338, -0.145147475796, -0.240005559145, 0.0271776954792, -0.0896351039399, 0.240666739915, -0.100196805031, 0.111368834696, 0.124467409104, -0.0950121474356, -0.103992990292, 0.378635928378, -0.156211651939, -0.0285682728645, -0.212816065306, 0.124292000255, -0.201924300409, -0.11847351649, 0.0875518304014, -0.0657251754329, -0.136507325126, -0.027786113956, -0.162561648221, 0.29829328582, -0.0394780760034, 0.759510935273, 0.252995877906, -0.142562785274, 0.00529904639489, 0.29143642602, -0.163318208858, -0.0978302760776, 0.112461225681, -0.19869644916, 0.207038898802, -0.301584756687, -0.0561227871512, -0.213318285118, -0.0740979322609, -0.265648124994, -0.159650025889, 0.326844869073, -0.141696257276, -0.507991580763, 0.0176409223085, 0.0380253799759, 0.172135541251, -0.144934790973, -0.0297087410454, -0.0400963524681, -0.0582315420829, -0.145661475692, -0.0979211241823, -0.0916192834277, -0.252476265959, -0.0797818688989, -0.1046893316, -0.0508622899961, -0.270542346652, -0.0866619828916, -0.125264901068, 0.0794209657781, -0.189241157211, 0.347419404385, -0.32372404302, -0.0802669785258, 0.300724266516, 0.175265532122, 0.281891483331, 0.291846948185, 0.173615537592, 0.0826289116319, -0.176906922496, -0.0581964171751, 0.144890561351, 0.00768377643251, 0.0662488716158, 0.393293757902, -0.220154973937, 0.068525816088, -0.0688916725498, -0.0743746226842, 0.298893236706, -0.177842738526, -0.127377597421, -0.0998263617147, -0.0944303519254, 0.210572552953, 0.139466041762, 0.0704366996356, 0.0567138965568, 0.301124117563, 0.0509731039927, -0.0526381446966, 0.371006388868, 0.0488442033405, 0.0840350964587, 0.0640913640213, 0.186605187599, -0.244497130019, -0.089575146106, -0.0695442070763, 0.0998204188703, 0.115662812286, 0.0952237549403, -0.425975480568, 0.0246436917656, 0.0136188423342, -0.0948582998312, -0.0591234744396, 0.0500571472327, 0.186981101603, -0.0628890811704, -0.711713970024, 0.0908991034027, -0.0992050488268, -0.0320620730822, -0.0330033946898, -0.00717114261455, 0.212325424939, -0.23290998625, 0.29022926341, -0.044945421437, 0.673832361254, -0.141018435799, -0.094498469877, -0.245422091015, -0.217343070264, -0.00500612114641, -0.14374116689, -0.0185304610807, -0.073779386587, 0.0756419292183, -0.168495488841, -0.0557830624997, -0.0910235727004, 0.216596214508, -0.0997141718348, -0.0665848314883, -0.110206931337, -0.039756737812, 0.700447431296, -0.252870036348, -0.510373710099, -0.377152779238, -0.205641156997, -0.211120362743, 0.267453813462, -0.10562886933, -0.0433029501751, -0.194097124426, 0.0563924021624, -0.0658156346997, -0.0209387139649, -0.060953342814, -0.218153849159, -0.0997384155937, -0.00772619194699, -0.272382883135, -0.0780593638475, 0.51219638107, -0.0127087522137, 0.674180262253, 0.253181493846, 0.210330468412, -0.112418054078, -0.0483753880678, -0.0641469647625, 0.0166082439221, 0.00102081139207, 0.252399324218
-0.058599831388, 0.310506296165, -0.380408626028, -0.363607929623, 0.0711956512462, 0.90619324691, 0.921724297796, -0.208855647648, -0.191623752364, 0.373608251703, 0.394613170223, -0.214505713583, 0.099064988258, 0.0527939139886, -0.344653683027, -0.82775462158, 0.269348200944, -1.04156413523, -0.469034032053, -0.350235847705, -0.103270993906, 0.435612872716, -1.42931118834, -0.144993401093, 0.618907028832, -0.611025324316, 0.601775004536, 0.698263051515, 0.0109183183208, 0.575548745424, 0.452708780248, 0.307855953119, -0.757099906394, -0.461457878558, 0.725393689265, -0.0979339837338, -0.123797821498, -0.141189698932, -0.151790155659, 0.413163364502, 0.106123607442, -0.747778362391, 0.128154280173, -0.0746213574995, 0.00355211691857, -0.33442875845, 0.114841374042, -0.421682787011, -0.108896732116, -0.176665434739, 0.0346547032982, -0.106408014934, -0.161899456971, 0.542736932884, -0.0395684749556, -0.013345936573, 0.0427805791859, 0.0842828975784, 0.210683120164, -0.1093933434, 0.599809068154, -0.159028312332, -0.0985368066237, 0.0615191739577, 0.353075192417, 0.0276615446235, 0.170403754382, 0.276945261357, 0.871622645789, 0.246576670984, 1.53229863027, 0.464568536192, -0.398926268234, 0.520731183643, -1.22370232753, -0.765940782014, 0.196839575388, -0.190650144822, -0.1287312779, -0.0349809390187, 0.105685151831, 0.412799680339, 0.100800831504, -0.410738500468, -0.0464087340412, -0.576116623498, 0.528286546698, 0.0306816808016, -0.135119130472, 0.150023411293, 0.424496653517, 0.296350310013, -0.232215539227, -0.527217242731, -0.186935688256, 0.229592595598, -0.610793951071, 0.23571465826, -0.144166264613, 0.543789232607, -0.265011268532, -0.444766588926, -0.125090201233, -0.136524095653, -0.153465303148, -0.313470132095, -0.0653987999596, 0.0238801287691, -0.552662688192, 0.46061648605, -0.0187325227685, -0.186707917231, 0.103943852798, 0.153008655716, 0.326247175751, -0.512536696787, 0.545245371318, -0.218805633932, -0.989035777769, -0.629531938662, -0.0537147431753, -0.116420831354, 0.238027731194, 0.804111744371, 0.0534871319223, -1.09579956762, 0.0186170992269, -0.277145632658, -0.228952445137, 0.216841725039, 0.355965699688, 0.225689614535, 0.149089638756, -0.209026418229, -0.429039765657, 0.395588417121, 0.334325826593, -0.453264579779, 0.178738536835, 0.280030753593, -0.0546460886639, 0.247311449597, -0.677915027788, -1.31449726435, 0.153473079222, -0.841118860789, -0.106781150219, 0.305979725486, 0.370341682056, 0.203925207554, -0.300009283723, 0.690364457467, 0.17143904761, -0.323110964947, -0.492138895939, -0.526061278775, -0.349632011118, 0.0455222529037, 0.404745954377, -0.0935436164203, -0.217130539745, 0.548697357046, 0.0848033891049, 0.50595154564, 0.0695256283536, -0.249051172203, 0.286763536181, -0.170537043034, -0.0276035004071, 0.196296413872, -0.667717588976, -0.309942427769, 0.434728725079, 0.538115944709, -0.339464561629, 1.46084882592, -1.00629677197, -0.174971753619, 0.126854412173, 0.0751026203031, -0.42387446778, 0.0393938998664, 0.499413455161, 0.461218007353, 0.201836100968, 0.438249699575, -0.2700602171, -0.124804673216, -0.0488771138904, -0.191431643098, -0.03883943511, 0.706391484787, 0.448747570697, 0.120634046908, -0.809648056194, 0.854459230551, 0.0192681349224, 0.089116861885, -0.53486887951, 0.160136661774, 0.475288823903, -0.910889476123, -0.448418383055, -0.122167906518, -0.344177643205, -0.938053965747, 0.468701350256, -0.145109702824, 0.111013038944, -0.231524519464, 0.514862811467, -0.00770271566212, 0.756087424571, -0.0871847254037, 0.128756803505, -0.20601943458, -0.0713009964256, -0.169795797624, -0.282268036735, -0.475803266024, 0.254648876944, -0.575729431836, -0.552694728273, 1.11942375117, 0.437458425626, 0.21875776398, 0.255327606146, 0.537657504799, 0.197050946225, 0.339540213039, -0.255023690049, -0.173515214191, 0.0354236488458, 0.485650615632, 0.460651625507, 0.0582872021464, 0.246406003744, -0.001922252239, 0.681635931892, 0.158832528758, 0.0772152164847, 0.528461768831, -0.464957308468, 0.0535239455463, -0.197605919133, -0.629790950055, 1.16314304724, 0.252262328241, -0.0272753064432, -0.357987689561
0.396115704811, 0.369355487559, 0.139599222969, 0.197761490689, -0.0645831951505, -0.0404469305871, 0.128501156775, -0.0492088215087, -0.293432890468, 0.167012424602, 0.42490568143, 0.0891869905134, -0.147099308887, -0.0112047272488, 0.212274877313, -0.295111876937, 0.487582558306, -0.34863465969, 0.121757740065, -0.141013462172, -0.382767519993, 0.239760811438, -0.157373342575, -0.0986228154052, -0.420216943263, 0.443458454951, 0.168436586853, 0.702279851665, 0.162371962805, -0.350251866253, -0.400693319504, -0.191640294838, -0.208232439739, 0.13553758735, 0.100085742031, -1.05461498418, 0.386231575028, 0.332558640526, -0.0927490723764, -0.707458618141, 0.117265596926, 0.0109851975467, -0.199071099413, 0.331760783705, 0.275554987959, -0.0160220481716, -0.378488813914, 0.144569138962, -0.0775913935864, 0.630479542184, -0.11886076096, -0.227442449741, 0.00717194969026, 0.171351855587, 0.18253764059, 0.451954118654, 0.00846450685715, 0.124437553668, -0.179556025939, -0.324007945592, 0.468532855174, -0.142810626248, 0.0149619596004, -0.386138485168, -0.121391627133, -0.375217294122, 0.415228408874, 0.0750672489477, 0.0869026417155, 0.168381377041, -0.531690481052, 0.213929200524, 0.0733449278336, -0.132082116889, 0.198208637255, 0.255410203223, 0.0219912018332, -0.16786565475, -0.124106519597, -0.13963102873, 0.229005572272, -0.0928427629271, -0.0316549643252, -0.103055570782, 0.238473430498, 0.257014216627, 0.0282283961289, -0.136627395369, 0.187150935089, -0.37740401559, 0.195058873657, 0.234854952249, 0.0763771257589, -0.23346073573, 0.176166534358, 0.394586384084, 0.351069724009, 0.0125303061374, -0.0942553067898, -0.106664822751, 0.345624462457, -0.183957676069, -0.390567028139, -0.0985683658608, -0.0416951043186, 0.490248104659, -0.13645282403, -0.250764959319, 0.328599456488, -0.405573455826, -0.0575879868282, 0.127534966299, -0.279367265564, 0.235393066203, -0.00750212004495, 0.0200803405084, 0.165629029247, 0.0259124830182, 0.45343071268, 0.306435489597, 0.338175011338, -0.196254205099, 1.00201775447, 0.447094044854, 0.018256604911, -0.440102771837, 0.0116602218143, 0.128330222755, -0.0281080127923, -0.180702301528, 0.132818756125, 0.251024386612, -0.0585685312742, -0.0915593902377, -0.226332746427, 0.231550367677, -0.569376659967, -0.324297219365, -0.0766923407699, 0.281904947153, 0.302825993517, -0.125526892458, 0.193038597641, 0.159828539416, -0.0695598400859, 0.0369631286694, 0.0067258978833, 0.0495926863932, 0.527640204248, 0.190692130862, 0.0593134525152, -0.365872861176, 0.570241289574, -0.337333834358, -0.551185005638, -0.0684916804258, 0.257753241509, 0.0577274749643, -0.408828338477, 0.19945158344, -0.0140418921525, -0.0398839945427, 0.279786631686, 0.35351522045, 0.0780589714679, 0.121429208772, 0.272298929397, 0.101941739867, -0.110675508462, 0.17909904295, -0.357413005072, 0.192720852429, 0.0310327333464, -0.331905780829, -0.209147085332, 0.35489947254, 0.0111383361431, -0.117796978811, -0.214176511481, -0.126722876055, -0.454660219686, 0.0990360027845, -0.260775544726, -0.171177296296, 0.195657976264, -0.188533854634, 0.141950146803, 0.56292592702, 0.149062895072, -0.195485203711, 0.0599950376894, -0.379393868543, -0.429698752491, -0.116904025667, -0.19059004687, -0.288998400184, 0.390190967505, -0.250054964595, 0.0941514618967, 0.417662043265, 0.292860314298, -0.163748593206, 0.346148172277, -0.282823540468, 0.193062769174, -0.0834160884198, -0.406726529524, -0.0928511815697, -0.321914157569, 0.001036740197, -0.0432608644953, -0.148222295355, -0.0807527504722, -0.0447155978757, -0.0800521849103, -0.185134497655, 0.11393799487, -0.226238599053, -0.148412386487, -0.0310286271528, -0.441464320389, 0.103379066723, -0.582593110009, -0.540359970842, 0.0134285206711, -0.344772608008, 0.208396854774, -0.549494414855, -0.259320958851, 0.290352313057, 0.40194433317, -0.0628630328122, 0.276091273667, -0.167420754675, 0.146100443638, 0.484361506138, 1.02748063941, -0.307346557939, -0.259152476992, -0.0492025411164, 0.0842051974354, 0.076345839521, -0.0249546385802, 0.157435423026, -0.314708195174, 0.386430414259, -0.537372026266, -0.0995720508615, -0.399889513024, 0.292893195919
0.572696836731, 0.0188402753773, 0.514787208961, 0.116114370756, -0.315718195275, -0.0376153908961, -0.432513984081, 0.322374926597, -0.0371076569835, -0.253305715942, 0.12316332791, -0.133745043133, 0.208181193583, 0.55780644989, -0.429042384632, 0.0598846397002, 0.18845067276, 0.150627225353, -0.26764911601, -0.0443360350026, 0.129290501379, 0.659083278141, 0.24866428361, -0.102127946631, 1.10190920402, -0.16692428, 0.773609504074, -0.510311525703, -0.00756595235816, 0.077552199313, 0.704117824736, 0.033141639558, -0.926589208579, -0.804152344127, -0.528139732092, -0.294084100743, 0.0248014013826, -0.200447964056, -0.10214894572, 0.612870577531, -0.328827071902, 0.367314584686, -0.427339319802, -0.411136639282, -0.0131973372643, 0.0747515289102, -0.388336420221, -0.134790728473, 0.0249509848951, 0.0266057152835, -0.0411441333107, 0.00259125563206, 0.0742639520194, -0.0862247252521, -0.249174671872, -0.673615531347, 0.265516655729, -0.527132863237, 0.600465331466, 0.000446239367504, -0.0161788617287, -0.0947482020098, 0.0707934400324, -0.265576396185, -0.0085859351593, -0.0634280463773, 0.573833364564, 0.340859910765, -0.133681448055, -0.490352104968, 0.399488684747, -0.305011737154, -0.00781818441547, 0.259957004423, 0.259300540047, 0.0449430060375, 0.150144442491, -0.076645555483, 0.110589088727, 0.481876125271, -0.211368071274, 0.0625424861432, -0.114016587788, -0.216330318284, -0.36633815808, 0.0460182429274, 0.367771462149, -0.0462277037451, 0.207283830481, -1.33283616071, -0.981156629414, -0.0840491586282, -0.0940543572005, 0.298374331435, -0.601865246869, -0.515810093107, 0.464275787436, 0.0432904841592, -0.105765223413, -0.0653100017378, -0.135955143949, 0.455935168615, 0.149234899212, -0.0989719966896, 0.00965824741673, 0.296165677016, 0.859323287597, -0.220625727342, -0.579399339303, 1.13925101638, -0.219191598305, 0.143661327978, 0.180340624219, -0.0579483428958, 0.0530561063917, -0.365567552378, 0.721334192199, -0.0839587407032, -0.195159170897, -0.651761569746, -0.366691625378, -0.280817790087, 0.0520234165265, -0.137162740805, -0.0320750643555, -0.197339110608, -0.37186378407, -0.219113106189, 0.275943836337, 0.786755114433, -0.230544577193, 0.142765209015, -0.0954150964682, -0.0636776014558, -0.0389745381133, -0.114360749582, 0.739291384321, -0.0673838542622, 0.192424118124, -0.507357501909, 0.181631432132, 0.609327090752, 0.54645885114, 0.00978623159105, 0.0806021226063, -0.210128150059, 0.0729533042899, -0.216836687157, 0.72309003077, 0.334932369486, 0.108100393954, 1.14294896976, -0.298658373739, 0.0434636933711, 0.0756088767723, -0.128028711165, -0.809949180727, -0.356433177076, 0.360913137396, -0.268635370523, -0.140602651618, -0.388649459563, -0.963107765214, 0.541802624166, -0.0563045821063, -0.0147530119104, -0.144754381829, -0.443818854035, -0.146559330745, -0.517990922868, -0.50260168293, -0.26707588862, 0.162947454105, -0.120913919164, 0.667120235233, -0.306397246817, -0.468102807085, -0.0268500989408, 0.791804119849, -0.11387018419, -0.391292273045, 0.35726597735, 1.08138599954, 0.724216415418, -0.0928119799613, -0.215269291556, 0.388852304736, 0.472532783732, -0.221449866799, -0.121616509357, 0.406757071041, 0.939369524974, -0.114821324172, -0.164893788562, 0.164738261003, 0.57005594798, -0.186987508956, 0.0513991791298, -0.237055842759, 0.377963584762, -0.074393625933, -0.029315095284, -0.540191678402, -0.138297329008, 0.395551147579, 0.479891353735, -0.527509084576, -0.00525945009671, -0.136323500553, -0.0535360476193, 0.101960804034, 0.387421040014, 1.49599851894, -0.107375612339, -0.202926490879, 0.349139001511, -0.148845764863, -0.1123106316, 0.157100835272, 0.0828390098692, -0.470821137792, 0.265614828904, -0.0564230320778, -0.29353440919, 0.252683943787, -0.115167316816, 0.36194582835, 0.28986632156, -0.269198704171, -0.282789240385, -0.346618630615, -0.0956798231083, 0.0241722727786, -0.360762417569, 0.0253564162698, 0.225116644701, -0.00178588442242, 0.0685834465662, -0.296116558105, 0.0156260031211, 0.251336715637, -0.830097050863, -0.306522094764, 0.0560412762972, -0.179465830107, 0.267218713211, 0.0257247527876, -0.102646574518, -0.708958601247, 0.510274039469
0.117627124628, -0.179971288395, -0.0270646047564, -0.233680704026, -0.104808685492, 0.279030121102, 0.578066782069, 0.253700871201, -0.019438397415, 0.115540782449, 0.510625429715, 0.12347354053, 0.179950245199, -0.209942153011, -0.0951490165299, -0.207574892449, -0.0225162757488, -0.071811934572, 0.033591505119, -0.0297048491905, 0.15467189109, -0.255109614448, -0.392368884185, -0.0741398441983, -0.338764252809, 0.582621210711, 0.0951777653404, -0.26442264279, 0.234939293091, -0.213323621721, -0.171513859037, 0.48791194471, 0.337002502432, -0.0193848597864, 0.504092140734, 0.0593534153733, 0.151662102313, 0.0569142185834, -0.0680711291192, -0.0594536396374, 0.103006224574, -0.406679242577, -0.0978735353872, -0.128178523069, -0.156620328368, 0.70157243963, 0.240546257686, -0.255269795758, 0.0460967637717, -0.237749969375, -0.322044057336, -0.0532604488614, 0.0269450715953, -0.0227516901551, -0.182359814481, -0.20752615579, -0.112384592479, 0.502308958668, -0.194306658289, -0.228226613553, 0.186798465441, -0.136372829693, 0.028991645975, 0.457710935876, 0.730465724044, 0.095463408398, -0.0275610422645, 0.0360032291201, -0.184019191387, 0.82731628186, -0.247000989313, 0.589830277499, 0.00512208959597, 0.44019181463, -0.124614593287, -0.545223854251, -0.086376933404, 0.00268077052936, -0.0315817050406, -0.167586830152, -0.0935746365187, -0.218071255024, 0.0127540045102, -0.0162194747448, -0.0429709293619, -0.0426766799953, 0.225194473186, 0.483128850916, -0.319731865988, -0.214034156422, -0.109693945512, 0.0819191763677, -0.242867387663, -0.0950577645073, -0.173178494417, 0.013687814173, 0.138547425492, -0.0278146075048, -0.0719544872348, -0.176001500534, -0.0522256289952, 0.118528425274, 0.240544335659, -0.063743014297, -0.135632867806, 0.654476630089, -0.153507561705, 0.119235919888, 0.207343926023, -0.265877988653, 0.0450558694218, 0.00158871732122, -0.208187558351, -0.0925904803694, 0.207203104798, -0.126603001508, 0.207027183802, 0.00418812767262, -0.322691765357, -0.342962716521, 0.185632530326, -0.0571507255455, 0.152600616339, 0.635431488546, 0.119771553006, -0.168126124007, 0.326112155698, -0.0167608348504, -0.115581029881, 0.229098706859, 0.0740929960903, -0.139429203535, -0.0457415756542, -0.113096752278, 0.0336924995174, 0.231267175584, -0.263893436697, -0.0889992717263, -0.107212952194, 0.0857213743228, 0.080624160392, 0.212052708437, -0.310691469882, -0.392612826117, 0.102687334105, -0.119722002219, 0.0343676224749, 0.259065240335, -0.44379910739, -0.0933101333125, -0.0627009891025, -0.142319524571, -0.0664325963278, -0.327054216182, 0.343195758244, -0.0663533937263, -0.286826892694, -0.193243557198, -0.0631824228022, -0.00347345478366, -0.0251406415362, 0.18057276074, 0.112545885548, -0.0663055208378, -0.0909167587871, -0.0505208599374, -0.00128089302687, -0.101246496658, 0.122183364264, -0.161412561243, -0.211927566363, 0.10128049601, -0.125670942067, 0.105352948492, 0.316475181791, 0.514432095071, -0.154513573022, 0.133463385315, -0.0140506074231, -0.0789425667698, 0.105925712153, 0.0182398612309, -0.0872483233933, -0.197466306486, -0.079568921439, 0.461084911439, -0.0874437084847, 0.332693632477, 0.0128532081925, -0.359849137255, 0.0370783613148, -0.147632016525, -0.201140196201, 0.00266508634342, -0.134102525348, -0.0541769398325, -0.148526173664, 0.216470754581, -0.260997248259, -0.256915220972, -0.13105260068, -0.0795710544488, 0.0205632949518, 0.115872559835, -0.10033114001, 0.0152681305543, 0.0525527221617, -0.00589865135405, -0.273063553911, -0.052598343043, 0.101263050563, -0.0423887027423, -0.140431471445, 0.0464373368374, -0.0696273092664, -0.0138321213509, -0.180164326497, -0.0401062808946, -0.105843178786, 0.0823422131426, 0.0323131805651, -0.0564727234997, -0.146919499335, 0.173215950682, -0.0549920052111, -0.00518867625553, 0.0196779330664, -0.22071337255, -0.0221238121468, 0.126120196047, -0.00439077578794, -0.0232572252914, -0.0929511499884, -0.06054255069, -0.0600695916706, 0.0167394136556, -0.0379750314222, 0.278229707076, -0.0771730090886, 0.109583871932, -0.0690323578273, 0.110264830605, 0.425077330362, 0.342746150834, -0.0970189661863, 0.231048904093, 0.0750792030398, 0.0814518667986, 0.420485020311, -0.33890357606
-0.0734194256601, -0.071923182034, -0.00175254020215, -0.115307751959, -0.105185721778, -0.203309670465, 0.560577218875, 0.178505079388, 0.042643402657, 0.0430224721499, 0.299307541803, 0.0511258499275, -0.108370644038, -0.303687027824, 0.052683939653, -0.103896074943, -0.0040901487356, -0.0381086725664, 0.0101803828289, -0.118582735137, 0.00179439757926, 0.0328829657388, -0.384841605451, -0.0755479074237, -0.170583502346, 0.295369909775, 0.101351979139, -0.313041354322, 0.0748823404997, -0.0544449581254, -0.101580672262, 0.219162610295, 0.833590008628, -0.0672488841993, 0.332395501095, 0.245747342721, 0.289564459179, 0.00903130624421, -0.0413534605959, -0.108219917085, -0.0184981450217, -0.107559666965, -0.118942918061, -0.322695221171, -0.126043896548, -0.152531398406, 0.140131448496, -0.205513488412, 0.146708717128, -0.100827946669, -0.185808816143, -0.0529858512791, 0.00336521264792, -0.022830450365, -0.0596788566452, -0.160580106145, -0.117951164015, 0.289088418849, 0.0526063580152, -0.227314479555, 0.172199616897, -0.126983274757, 0.00277076268061, 0.121925287319, 0.348556564325, 0.203373803146, -0.0653499676369, -0.0712634000331, -0.167354159479, 0.531807518108, -0.189943737366, 0.144421193248, 0.0902425509394, -0.0271287297032, -0.0438078256873, 0.195798138734, -0.0822647111941, 0.120046748657, 0.0919855739957, -0.127271272701, -0.0724900749009, -0.168057932223, -0.0243608721752, 0.00108560655387, -0.0145512216186, 0.0363613009008, 0.225940023173, 0.53872781755, -0.601831387296, -0.335716456034, 0.0981202974897, 0.350680209612, 0.0448667955673, -0.0535790562299, -0.140814815272, 0.0871802424177, -0.00887386289312, 0.00430385293707, -0.0660916409105, 0.0284859209127, -0.0818081886049, 0.154709283734, 0.380126340182, -0.0540613292076, 0.498933712565, -0.0352659818825, -0.163220363887, 0.267980974626, -0.867423824436, -0.14436285911, 0.0360551357256, 0.107395776264, -0.0452036658995, 0.0281741930936, 0.158279254139, -0.19574080983, 0.042616139465, -0.0343702580631, -0.118762070323, -0.128549854784, 0.289252764378, -0.168040656585, 0.400210388642, 0.471156553271, 0.0749035745473, 0.203407425399, 0.135316307569, 0.0197057911616, -0.061831282538, 0.0591334248157, -0.0847718744411, -0.108725734309, 0.148435351289, -0.11849704738, 0.0228389338364, -0.055326131451, -0.0564110810318, -0.112007910781, -0.0889191521293, 0.0988014295516, 0.0683111789482, 0.362409247208, -0.156662162, -0.386186719201, 0.0544718741074, 0.450378250295, 0.0185653417463, 0.315725634113, -0.166393567178, -0.0809687428461, -0.135365935778, -0.151760265358, 0.137767199766, -0.0829105658687, -0.0963617661425, -0.0756935787975, -0.142299997063, 0.430158365437, -0.144668880597, 0.037698156398, 0.00595845948939, 0.341616767498, 0.0426565579197, -0.0971797117763, -0.0763074039389, -0.0816157264845, -0.345600616219, -0.141513465971, 0.302793500332, -0.0185820639096, -0.213307176142, 0.188228277585, -0.102374546995, 0.205192884594, -0.142163239942, 0.0797908143617, -0.137115756336, 0.245895408741, 0.0217714393315, -0.0749096315072, -0.0100379614959, -0.0463641102631, -0.161165511074, -0.108288802272, -0.105463637483, 0.0598825151669, 0.0175098138981, 0.0943736164271, -0.0850683253463, -0.280261035353, 0.156589276812, -0.0412277404046, 0.278710310474, 0.0809038293376, -0.107523434958, -0.0738034448994, -0.310951361338, 0.210970089973, 0.0518715475061, -0.171476036317, -0.0948851623385, 0.24166581916, 0.129283965053, -0.0137312547864, -0.101675586673, -0.013520901864, -0.0658692745325, -0.0235564353124, -0.204821036241, 0.00777920388275, -0.0493219974385, -0.0781895870793, -0.142600488178, 0.143047559986, -0.0767186506346, 0.0400242495254, -0.10878281623, 0.0366547676052, -0.0801513577318, 0.0361145392143, 0.0475426432417, 0.223727478885, -0.549587633589, 0.114966815234, -0.0914999546748, 0.00712205771173, 0.119263298425, 0.0195513019828, -0.0499433653705, -0.0337308414329, -0.11781709053, 0.0850959990425, -0.07953242188, 0.0886961037168, -0.107613360753, -0.0461730080754, -0.0903327222178, -0.277621623334, -0.109554931961, 0.372865881572, -0.0368723143678, 0.204945639251, 0.334678525789, -0.145200624667, 0.0830124428667, 0.217390525294, 0.105601601764, 0.174242085926, 0.154209700396, -0.255481233856
0.210546313718, 0.280296883689, 0.123558504716, -0.0278827904987, -0.196092580445, 0.0279499180198, -0.186549183664, -0.248240095684, 0.418958231531, 0.295167652056, -0.312231752652, 0.0695944431502, -0.0142985313657, -0.105424630332, -0.0268011165354, 0.186528732488, -0.0787748976018, -0.0145134295649, -0.0829057499385, -0.0124045433711, 0.107985934775, 0.162073599707, 0.564460785337, -0.11787024814, -0.0770748260217, -0.366415169795, -0.0595161768187, -0.281467288883, -0.0929992963104, -0.169608552578, -0.122569658551, -0.0465778927391, 0.189384384653, -0.122497809853, -0.480387713485, -0.171177484132, -0.272210247503, 0.508915487269, -0.116356653532, 0.673529517156, 0.0199399151753, -0.49974433839, 0.805634356619, -0.706428449513, -0.205367434818, 0.129505023919, 0.055747453497, 0.113439475217, -0.0648272812695, -0.011654358731, -0.100916253595, -0.148823546728, 0.00239107152098, 0.0883398479961, 0.693644577422, -0.896077895845, 0.194083421989, 0.324257676682, -0.288912526236, -0.356773096921, -0.567142686729, -0.388739621685, -0.163725885498, 0.0725021017076, -1.12591357404, 0.387107547753, -0.17814938978, 0.0403628552077, -0.129382214515, -0.977033390239, -0.378952182323, -0.419331343232, -0.216387363934, -0.0898960028418, -0.0950419905666, -0.25159923188, -0.0482443757759, 0.366807349112, 0.00384964103832, 0.0648693442649, 0.197321456426, -0.171102748559, 0.0791154039524, -0.130782498936, 0.257249740151, 0.0177084969862, 0.475709082244, -0.0125799091389, 0.151788888035, -0.502191397173, 1.33407497944, -0.34966034679, 0.69749506342, 0.549198424267, 0.518089082269, -0.507886034911, -0.190228986951, -0.118607653034, -0.0945115725448, -0.206168745338, -0.0641348490934, -0.272991434893, 0.0902295648473, -0.122521483233, -0.0799913821327, 1.00996981676, -0.45339124549, -0.0404402003552, 0.88849691795, -0.346242560987, -0.0408060949449, -0.122975638827, 0.314651764159, 0.0457594582384, 0.533199656033, -0.240237696952, -0.335105342174, -0.114311527598, -0.356225568858, -0.115627732213, -0.263686007647, 0.223257608308, 0.0183050220288, -0.102389434215, -0.123771252989, 0.0143253672296, -0.0970539203758, 0.375325439347, 0.392717625948, -0.164559048614, -0.204930301391, 0.35880852297, -0.436128027145, -0.297902218629, 0.448861435972, -0.379267030478, -0.0578260474769, 0.365466792725, -0.12939309711, 0.230782085346, -0.166555199029, 0.382385077431, 0.251951778311, -0.061091931819, -0.505607103945, 0.824073037735, 0.29290634338, 0.027627534291, 0.265800684952, -0.0901916392073, 0.610656974941, 0.347278500387, 0.0174867785499, 0.328027385492, 0.398050923011, 0.226401915736, -0.110476477775, 0.475411320455, 0.272615129234, 0.255838994334, 0.012740915985, 0.483951376746, 0.475538104274, -0.25848066233, -0.128958525027, -0.0374205351721, -0.440193668547, -0.799911224068, -0.0744799917111, 0.748465795736, -0.0639985571092, 0.0649102790906, 0.221510805974, -0.0982860900684, 0.388852766037, -0.544470708447, 0.0277442532588, 0.320597882007, 0.141478513155, -0.118563929704, -0.173269879012, -0.0750695182245, -0.176754726343, -0.0602094069686, -0.19906857051, -0.456365720258, -0.0286161862583, -0.0690347704118, 0.0220946811404, -0.241526786505, -0.325531897222, 0.0128209314885, -0.0912129544513, -0.211058099858, 0.0722377682941, -0.0602683837907, 0.388873215827, -0.432984694721, -0.556899379724, -0.370026686397, -0.563408431098, 0.125027721015, -0.838343926851, 0.505862136642, -0.0394085324072, 0.054582680365, 0.577922041854, 0.105229516324, -0.0106564081654, -0.16992636141, 0.393220067308, 0.0364463386869, -0.0900032028757, 0.490191334347, -0.0877356127668, 1.40408870357, 0.261053068033, 0.560419125497, -0.213817985568, -0.00261564531668, 0.271491242306, 0.427269788332, -0.732662458987, -0.0911172215907, 0.0277715765997, 0.433503232138, -0.32595609255, 0.106799850232, 0.273839345273, -0.44252187618, 0.523268139698, 0.0246639521846, -0.178678769561, 0.052752859131, -0.0520393829963, 0.146197898756, -0.695212431486, -0.333110153755, 0.450394270518, -0.980906919429, 0.0914615875347, 1.28593264336, -0.117052587107, 0.293754774068, -0.178443141718, 0.0448698906044, 0.0283546878181, 0.507731397176, -0.499823427937, -0.311508778053
0.17638109505, 0.112182018525, -0.0477938803865, -0.0435502584265, 0.250980273303, 0.311038582198, 0.272336399617, -0.16717792572, 0.16053125248, -0.0210774097492, -0.0936031174219, 0.168216410635, 0.0237650971192, -0.13669043783, -0.241668408472, 0.112682319323, 0.180291898266, 0.0637180003141, 0.143149924578, -0.0300284126216, -0.193520942087, -0.133608508133, -0.0883065333118, -0.0837305713667, -0.141971393418, -0.100261042267, -0.269645821601, 0.0461598828757, 0.142352589551, -0.0602312160987, -0.13019323819, 0.303905700747, -0.0651288058168, -0.524064825405, -0.0903525406425, -0.0877776061574, -0.298722781689, -0.163056962319, -0.0765769931904, -0.467773302163, -0.100780867169, 0.186725214394, 0.181296530219, 0.0159588189279, 0.510661578918, 0.287140101253, 0.119116631132, 0.189793072166, 0.114334504012, -0.660462265063, 0.246534023693, -0.0601766954078, 0.163682171665, -0.182676012262, -0.241993702837, -0.0142717820757, -0.0659096384384, 0.139062772801, -0.0514635199727, -0.195057009759, -0.596161000176, -0.271054645711, -0.0248477733797, 0.135686842917, 0.514570532603, 0.390968976575, 0.540236776815, 0.0570584422504, 0.521990320652, 0.0324459436165, -0.578040235639, 0.321099992335, -0.118241187988, 0.0251855620994, 0.0860371016056, -0.100726666862, -0.0889712047259, -0.101825821957, 0.195286076569, 0.24426096896, 0.114111161753, -0.0923158512339, -0.021586124283, 0.0445029615697, 0.365845973267, 0.0297945486785, -0.0807748506614, -0.0132663590435, 0.72491385428, 0.67746258257, -0.0422509524381, -0.0903884547493, -0.123228478055, -0.126471157348, 0.00179888016108, 0.170207365723, 0.459702094652, -0.0069732977983, -0.0742982182723, -0.0961196025198, -0.00109158887017, 0.0313872869667, 0.106023527363, -0.0623195899686, 0.730735428784, 0.160018777292, 0.0113125302088, -0.243852547359, -0.179782402611, -0.18485248717, 0.0885110969127, -0.168363376386, 0.394040400073, -0.104028637526, 0.285659562676, 0.253155432504, 0.0327580933353, -0.0525859919312, 0.368391126804, -0.0632779081377, 0.0134769554159, -0.0961231944, -0.361086146337, 0.394053183035, -0.229431651856, 0.00989449143827, -0.316934551981, 0.0879563548057, -0.302992974561, -0.0590290926737, 0.0666029300268, -0.0289797600894, 0.137039228325, -0.0789452659512, 0.271588804438, -0.114677374289, 0.0567113790807, -0.138907832606, -0.000308533421947, 0.0755463718239, -0.0270656633286, 0.121815661187, -0.0192359410054, 0.1304379002, 0.0610930904502, -0.326642679759, 0.109494543639, -0.272169662061, 0.14515310116, -0.073790975748, -0.0714918309416, 0.0395875766215, -0.281946371664, -0.0187252521359, -0.518077663967, -0.0234863517916, 0.765114698879, 0.0279481948133, 0.08524753033, 0.100442577334, 0.115086638731, -0.331502295714, -0.461154507682, 0.355549266403, -0.0577550104081, 0.0932820938502, 0.0413194094785, -0.0452135352735, -0.386617783973, -0.549292031841, -0.52335848258, 0.126688550056, -0.279952794911, -0.184661511987, 0.414169572311, 0.295421468208, -0.24368994394, -0.0296675855443, 0.306108659482, -0.0917298504959, 0.0628667048428, 0.0288545126128, -0.316432585476, 0.0939587361695, 0.0356532730378, 0.145106128188, -0.0204111914706, -0.234773906679, -0.00473071778645, -0.16427951465, -0.0914391522241, 0.393272061031, 0.348371018625, 0.00386951653055, -0.159870334945, 0.214639434592, -0.275429418134, -0.116909154498, -0.193974479518, -0.167171234436, 0.0693948256587, -0.220016437791, -0.263083088467, -0.244086682865, -0.00819691373757, 0.0473912954812, -0.0357059894998, -0.0305850237318, 0.0902002043317, -0.101035739837, -0.00690457519014, -0.128463402487, -0.608387041146, -0.381733474849, -0.0979799894961, 0.107181652067, 0.240855741756, -0.00554397089884, 0.0197692426083, 0.0351394736398, -0.158285558463, -0.0230866358728, 0.17698052364, 0.554866433156, 0.40515676936, 0.238810726781, -0.111168164305, 0.0517915496088, -0.100653352937, 0.190780297207, 0.266466377068, 0.0527352669648, -0.107381939211, -0.105567729508, -0.186965831832, -0.0154367460197, -0.493166187343, -0.333840894129, 0.503836595347, 0.558983960617, -0.0577757050404, 0.0556335886794, -0.245786702629, -0.0273318390869, -0.0688995293319, 0.215502205479, 0.340975916379, -0.00110350232937, -0.27076597865, 0.255123837791
-0.174239649242, -0.150263745022, 0.159744919642, -0.137117936052, -0.0250091100104, -0.0448680035295, -0.103712655167, 0.027949526957, 0.249518838993, 0.096870561934, 0.101428089316, 0.12506963848, -0.200017639095, -0.29775240061, 0.193683311359, -0.00952729986931, -0.0626752206487, -0.0249224535556, -0.00873098466619, -0.0458658435254, 0.0739059331133, -0.30024005206, -0.182466991075, -0.0723028474777, -0.240444441039, 0.0714799540975, 0.000752619668956, -0.0114382077174, 0.14929706202, -0.176255984378, -0.140965819868, -0.0156224439036, 0.181285514977, 0.083656422615, -0.0355586352353, -0.00159530851468, 0.257025740546, 0.0532410236637, -0.0731791977599, -0.110972723871, -0.278774006043, -0.087659124932, -0.0854992229022, -0.220205921369, -0.0956887327777, -0.222135012412, 0.277109224545, -0.150337508114, 0.0638642915502, -0.104648557813, 0.0589723353216, -0.00349966686447, -0.0395055333059, 0.0027724647072, -0.16858869583, -0.156846145692, -0.274222800127, 0.055530554782, -0.21469217259, -0.167836740192, -0.135967176497, -0.0930911783495, 0.0325259958891, 0.287052962985, 0.132718011854, -0.0549118344538, -0.0710451432178, -0.214709231684, -0.121925094353, 0.48499072244, 0.231843166815, 0.136442274119, 0.104989442009, 0.561328154454, -0.352521255276, 0.158045184974, -0.0896910462696, 0.0406209846276, -0.0274025952621, -0.133365026095, -0.0793652270944, 0.00126422999921, -0.044268908753, -0.0620354521574, -0.0495441085635, -0.0365069619514, 0.0550799136716, 0.233860939543, 0.293294244463, -0.153590157365, -0.072839741535, 0.282952485843, 0.107661215434, -0.0467981363521, -0.20065224968, -0.374973705747, -0.0160198809062, -0.0546177533094, -0.0747636490702, -0.161693011959, -0.093910795779, -0.217110132563, 0.0106793598402, -0.0494144252045, 0.0335449316404, 0.775263450131, -0.0787364969682, 0.152052154411, -0.119686919283, -0.158502056394, 0.107140799896, 0.114527588297, 0.105864305152, 0.123052393316, 0.076973776227, -0.176649347111, -0.0529389258729, -0.0543588038306, -0.106377744662, 0.00665678420512, 0.316672049755, 0.156271976245, 0.380413053601, 0.144445887839, 0.0619883665969, 0.18954383916, 0.337803130853, 0.0588651047323, -0.0369812088431, 0.463679463733, 0.215098486827, -0.115240957112, 0.0931594607093, -0.0114160178839, 0.0303359496892, 0.23735107241, -0.118245688847, -0.116854468984, -0.0907082511962, 0.387414973585, -0.0356090390675, -0.0670832768368, -0.568564194605, -0.307851447218, 0.301964954228, 0.759577494803, -0.0480621401756, 0.0427041974593, -0.0839054599152, -0.124190984451, -0.0282706470738, 0.0344748037448, 0.120394762662, -0.0738438629946, 0.54325415486, -0.174400418605, 0.0594393708858, 0.388962154698, -0.164431855276, -0.0556670139102, -0.0495155169671, 0.135354269893, 0.146173870166, -0.118467178714, -0.0884255777074, -0.075416972956, 0.691230074031, -0.175099084676, 0.0907245652155, -0.236480756772, 0.270406892323, -0.0303444177546, -0.319860927837, 0.360582952501, -0.295803613531, -0.267814453673, -0.130697348673, 0.0363394706188, -0.132234002816, -0.0768691542111, 0.0248575148111, -0.0525263604204, -0.152917939432, -0.117772625616, -0.0918035704944, 0.0346913283442, -0.133859887296, -0.104959061775, -0.108989020482, -0.192479280337, 0.0912896361973, 0.278596057905, 0.654847200664, -0.0988128098808, -0.132439217681, -0.0339519900479, -0.267604128759, 0.0444565564673, 0.214703676853, -0.148148326255, 0.151706763114, 0.117815968759, 0.373138045802, 0.274934631414, -0.121971559707, -0.226659143085, 0.379551459004, -0.024413684591, -0.129440986169, 0.0625189230618, 0.210882879035, -0.08117071783, -0.153704540015, 0.0739986762021, -0.0961355581278, 0.123982110088, -0.189773643754, 0.102577814221, -0.0432698361257, 0.0178705024858, 0.378071849486, -0.0672802467852, -0.218085075207, -0.0150385876332, -0.0985461453859, -0.0478346982108, -0.276095539833, 0.144064417399, -0.0904664393517, -0.0083680208122, -0.0608569453655, 0.0357639682257, -0.0910113280513, 0.136944141658, -0.0752530913943, -0.00528113647366, -0.132517101399, 0.363691499279, 0.136913832045, 0.0489796995407, -0.0525788069373, -0.0773079095992, 0.224685582214, -0.12344589806, -0.0384447637112, 0.309688967807, 0.0980949362418, -0.0879781105401, -0.337062484618, -0.26586594891
