0.709454082562, -0.0836337432527, 0.203151914203, 0.0726751615308, -0.0630135053439, 0.869095721715, -0.555991821308, 0.274198957435, -0.198095957551, -0.130515002949, -0.230344116538, -0.245925580028, 0.272209097808, 0.192697402076, 0.107530800585, -0.406415257381, 0.166160537136, 0.179662810372, -0.454665850677, -0.134210459997, 0.0990771302014, 0.104444528129, 0.479868714064, -0.448645417013, -0.10301267021, -0.685840202788, -0.0482840582459, 1.19329693403, -0.421410264466, -0.305514107753, -0.479680574301, 1.20021733728, 0.0811789285219, 1.01563149203, -0.102498634127, 0.372302094734, 0.102897771266, 0.0325010119826, -0.398694638535, 0.8848629758, -0.504773303789, 0.250012698005, -0.0781703188052, 1.44001149797, 0.513014695608, 0.206366459072, -0.14627165679, -0.0493821252201, -0.334860454338, -0.00353808747192, 0.628623962202, -0.117445358322, -0.387687032084, -0.372914448582, -0.170709540414, 0.0299611841895, 0.0841947694081, -0.0459708003848, 1.54638846644, -0.173757580746, 1.32869314263, 0.208426071319, -0.198710076985, -0.345238994206, -0.363884987707, -0.109337039922, -0.153749278719, 0.165085006634, -0.326031103756, 0.211798438306, 0.807335614705, 0.526168131116, -0.231166168934, 0.3224088629, 0.636849898929, 0.296811145158, -0.190056221685, -0.584247889537, -0.401193988942, -0.0427244852578, -0.0514208639213, 0.31591428729, -0.122356818068, -0.287546342565, 0.555333766096, -0.46401947996, 0.259188926784, -0.197016802524, -0.198596023953, -0.467308424878, 0.291090805951, -0.0930153942562, 0.906594485359, -0.152822837272, -0.098505560578, 0.565881198133, -0.802147238064, -0.18203566817, -0.414191082335, -0.048058002534, -0.172341173701, -0.140996164025, -0.541140777477, -0.329115263661, -0.393313444743, -0.0879522859817, -0.0407868010985, -0.491703880812, 0.294986966905, -0.297243585438, -0.25582411444, -0.183132776842, -0.0979483195326, -0.00422745273441, 0.0858435940178, -0.118559149482, 0.428988295731, -0.149286993345, 0.118761003742, 0.555659047186, -0.649227655595, -0.279482190896, 1.24879744236, -0.293518779049, -0.300199360844, -0.528356077243, 0.163727515876, -0.0861883750423, 0.296769318528, -0.155507189656, -0.410046707264, -0.0842658960073, 0.246148979517, -0.171499017039, -0.168277121075, -0.352100486324, -0.436518501936, -0.239919942379, -0.135756367683, 0.0588754926466, -0.201703959692, 0.233712721256, -0.0994764800626, 1.71169222192, -0.323732716153, -0.92954805512, 0.347469223726, 0.326359810594, 0.657920319107, 0.234258733938, -0.30314477297, -0.413714104341, 0.290775803932, -0.101878250464, 0.670657775375, -1.34102664303, 0.374625803291, 0.634356122329, -0.480981475453, 0.19548062801, -0.271545956165, -0.222211332323, 0.94968971023, -0.244539972579, -0.274631956229, -0.258687128111, -0.459006275662, -0.328143572227, -0.32907066933, 0.101310766658, -0.23060087322, -0.315053649754, 0.149104735109, -0.559463541739, 0.733922271817, 0.188303895465, -0.0733732483952, -0.513860730548, 0.0396025998273, -0.3251915769, -0.0244535507546, -0.103859028944, -0.431456138727, -0.114285505891, -0.0372777266889, -0.249763523778, 0.166148983964, -0.653499498579, -0.22844077206, 0.376583519584, -0.176333376825, -0.151090911699, -0.569381051011, -0.217858712443, -0.413162854897, 0.0654052691992, -0.053075757556, -0.258966007885, -0.19651492756, 0.0354032105023, 0.829838616081, -0.272869984733, 0.313442687074, -0.33260943899, 0.161851771888, 0.402435493173, -0.365346327762, -0.20516747766, -0.117787251181, 0.198782462962, -0.364824143558, 0.457241964281, 0.363608993101, 0.0287966855424, -0.279030037124, -0.349350732629, -0.324168932995, -0.308761175051, 0.0627619633656, -0.27643257921, -0.0263634652252, -0.918857905411, -0.0271095857359, 0.705401853472, -0.672837994419, 0.394958572813, 0.0661847670958, -0.596903604648, -0.353123008051, -0.15393671371, 0.217443105283, -0.226475647008, -0.101399185092, 0.0298378676755, 0.454264319041, 0.00598361700008, 0.358923492816, 1.88583278701, -0.160960872148, 0.308956152394, 0.00499037375008, 0.508246532892, -0.749455989326, -0.374587296658, -0.071854578101, 0.252913114474, -0.0344082755896, -0.056924909856, 1.4167847664, 0.0831499335227