0.740266523286, 0.838415747926, -0.432621843104, -1.53319685844, -1.16776622341, -1.04434340222, 0.849300674466, 0.521097915542, -0.713074641236, -0.687196486639, -0.197624488117, -0.364589037453, 0.315758329177, -0.327920871999, -0.22714425164, -0.0338232833446, -1.31937699074, 0.291905153686, -0.379116432902, -0.198977424493, 0.957163501628, -0.615829829378, 0.537487713988, -0.0705280995257, -0.848520391113, 0.434833457629, 0.87285112354, -0.05220265363, -0.385073899454, -0.39965525988, -0.00683348362273, 0.605215000685, -0.555265419839, 0.26567599672, 1.11929792598, 0.141947089352, 0.361978977156, 1.03388665319, 0.245110526604, -1.5945181347, -0.950739135017, -1.24698187502, -0.691646131426, -0.640683951094, -0.00961605381232, 1.76768925518, -0.560777502638, -0.143433129954, -0.723567408359, 0.278258825729
0.696285504193, 0.094511693369, -0.786726853544, 0.196729322453, 0.41595922633, -0.235777968414, -0.662731863505, -0.191855658518, 0.346071185937, 0.345579228925, 1.14456253129, 0.804877199024, -0.0370972393636, -0.117167692277, -0.221544330695, 0.218309581343, 0.308234992082, -0.0175229431159, -0.278127626688, 0.439146008499, 0.963644766234, 0.250493399459, 0.638044439089, -0.122919253429, 0.732868784918, 0.684345172013, -0.372095722048, -0.349298220223, 0.122552085238, 0.242986765534, 0.41231863284, -0.369319128913, 0.481662778823, 0.663886731451, 0.466987704478, -0.382633962342, -0.399870318716, 0.915583277396, 0.0700378428315, -0.0118933484559, -0.0910990545092, 0.680741814296, 0.924024369687, 0.162717609711, -0.219489749424, -0.478605011235, -0.0617363730397, 0.182903248409, 0.116023380118, -0.508560923649
-0.313966859422, -0.349196443136, 0.2205529462, -0.305884575134, 0.0587345939418, 0.540446074953, -0.61772299602, -0.607637854629, -0.358191483655, 0.104103799258, -0.85926600298, -0.099135083807, -1.18997702913, 0.142512631413, 0.313544069935, -0.298996587017, 0.882247554525, -0.479213597981, -0.313295225458, 0.786995130606, 0.643671770576, -0.278975940344, -0.736338160279, 0.38212747766, -0.220099536313, 0.294428588456, -0.763436769854, -1.42969066313, 0.790273961466, -0.154544781644, -1.1984756114, -0.0717742965081, 0.587194292076, 0.0518629597128, -0.505579564769, -0.995205270534, -1.0039958445, 0.138306145836, -0.160070035405, -0.758599642263, -1.03499636353, -1.48751672999, -1.08053370732, 0.2411803791, -0.0590851213674, 0.51389092353, 0.122672351565, -1.18378893303, -0.684330389161, 0.0655686379219
0.112483719312, -0.249750661945, -0.207851221534, 0.146638161556, 0.153342335182, 0.134206280039, 0.112569868868, 0.52968482649, 0.568706189631, -0.103257648031, 0.808652147159, 0.321421864468, -0.805792818247, 1.01235659237, -0.0445912416802, -0.221189941482, 0.724356844544, -0.404209887754, -0.0698575394892, -0.643319856198, -0.118339837997, -0.360686974718, 1.20505582387, -0.693145453029, 0.146839605336, 0.0844939997055, 0.0326165756858, -0.420747280106, -0.0520741246336, 0.169089713043, -0.632164489326, 0.00394643662148, -0.333852316115, -0.324480161361, 0.212068543068, -0.360074822524, -0.464989124479, 0.639537740307, 0.627047913842, -0.215315095707, 0.0855052543351, 0.153544884097, 0.576761190519, 0.282073241323, 0.195640472855, -0.556187908212, -0.03836575718, -0.146332602163, -0.017678277047, -0.0775914045758
0.837936707519, 0.294180236311, -0.429957632528, 0.0321988328572, -0.207350611508, -0.387270720856, -0.510796939208, -0.00493675278677, 0.0703124539752, -0.75110992199, 0.410520858433, -0.28823593574, 0.225569349183, -0.10623049001, 0.158804259121, 0.444164155726, -0.235901651195, -0.104484177388, -0.345130367983, 0.475910017162, 0.622629561322, 0.36672944285, -0.590989223339, -0.163169849157, -0.0229820201879, -0.0628998034341, -0.212641107187, -0.0885416450516, 0.00915817952232, -0.452433036968, -0.317774301936, 0.313956256386, -0.15617979718, 0.220553603502, -0.307003126817, -0.0895209717896, -0.448678127014, 0.351436935574, -0.664720202105, 0.310008379073, -0.229752229645, -0.810509592909, 0.126404258877, -0.323118970033, -0.0935896737446, 0.213953117998, -0.0820171655957, -0.300743401965, -0.279926189368, -0.418249943157
0.485239237243, 0.244590884853, -0.136830249851, 0.0374529948374, -0.298279513048, 0.329481196304, -0.0945848480342, -0.059667895644, 0.504998129836, -0.962810321314, 0.42205870768, 0.533395634907, -0.0236197503292, 0.239214014204, -0.203186928617, 0.221665223125, -0.0362861424834, 0.0947780769459, 0.293265684268, -0.602021568257, -0.180958663559, -0.201065440926, -0.281777260153, -0.145896569976, -0.584032402326, -0.32035699075, -0.142618954012, 0.448417160213, -0.262038727579, -0.0870437113684, 0.0210492864733, -0.239130164654, -0.208477726492, 0.251140021817, 0.0850340385421, 0.0471605518336, 0.819778477203, 0.254028087465, 0.563966623858, -0.212506749619, -0.00396997407113, 0.233734815068, 0.0723370764619, -0.157509094409, -0.0824899296645, 0.13042359087, 0.361618264068, -0.0699321758346, 0.22580078314, 0.412734984243
-0.245678790705, 0.168034532715, 0.201567560017, -0.314986671738, 0.778675620699, -0.817561076664, 0.501002784621, 0.363093833754, -0.92287463608, 0.298939595417, -0.18587948327, -0.403176353148, 1.15420308202, -0.416120871298, 1.0021236739, 1.20064046894, -1.38634026397, 0.172904538457, 0.580485751641, -0.208425108152, -0.362651054529, -0.157990694084, 0.365362260081, -0.549941779304, 0.878160547051, -0.559675815339, -0.697251033611, 0.746595022272, 0.48088617255, -0.093844174671, 0.281076367184, 0.251047169476, -0.213467937885, -0.248746256076, -0.536022817759, 0.317999133479, 0.104606665281, 0.351732746271, -0.243234147049, 0.674988025042, 0.193808577756, -0.634179130669, 0.264442289764, 0.281317653874, 0.413754489419, -0.0528391674596, -0.254763999249, 0.882452757618, -0.149690459905, 0.387926548773
0.158054429905, 0.629285155088, -0.246324701431, -0.186418234151, -0.183163360405, -0.695832338504, -0.188377783598, 0.0468210403559, -0.0791714336492, -0.420162771624, -0.353928367259, -0.218373469216, 0.490244114106, 0.0570990117203, -0.266985965164, -0.661671994871, -0.184593796666, 0.12942596669, -0.080588410933, -0.307509604106, 0.102204885711, 0.0463302004143, -0.0752064774099, -0.336388855522, -0.487709360537, 0.277657220029, 0.312539330802, 0.191160958968, -0.351231926288, -0.190710923575, 0.185231563297, 0.23221978615, -0.243803475954, 0.227102284699, -0.0660160029966, 0.518030518618, 0.232833589951, -0.266980744039, -0.0380507620397, -0.277092731412, -0.222236148916, -0.28039827909, -0.0947056149344, -0.47202477417, 0.0127682053267, 0.538177268125, -0.112230635614, 0.0486441259418, 0.17670463342, -0.211094495073
0.0606716984051, -0.221275072824, 0.162773944722, 0.501626075961, 0.0471229630272, 0.607082023875, -0.0115630598928, 0.0522569033702, 0.400420972052, -0.281331737081, 0.631244109911, 0.505076002871, -0.345190374992, -0.288739546469, 0.0068060772651, -0.715383087734, 0.418586612363, -0.102434353924, 0.339279533023, -0.00132535749623, -0.0177884711711, -0.160710893497, -0.115493357511, -0.0314710588732, 0.164354222369, 0.0213158315805, 0.0375898916836, 0.440627684837, -0.2894590163, -0.315098125205, -0.240078403342, -0.359807658245, 0.177646158405, -0.0541732388304, 0.0455416260465, 0.101516877192, 1.09739137579, 0.182301093053, 0.24924768255, -0.0900470532187, -0.0672713982419, 0.940285554417, -0.735903989515, -0.231305457803, -0.366014725924, -0.148705687444, 0.387955465429, -0.0665330297485, 0.148850306856, -0.266702393667
0.825414749564, 0.708319438147, -0.431079107105, 0.689832368656, 0.0972714772735, -0.888777256552, 0.178491187481, -0.22098119974, -0.511479562901, -0.490457019238, 0.461662739471, -0.194309839498, -0.880589432157, -0.481408664137, 0.178098179733, -0.463037844014, -0.0500927863029, -0.0272958305021, 0.0463595006032, 0.0154364696263, 0.121485241923, -0.143098116575, -0.664479102056, 0.690896237527, 0.4177102248, 0.446497209371, -0.309896270131, -0.248715460713, -0.89508154084, 0.581489137142, -0.385766013323, -0.275990215044, -0.43625389965, 0.532225367864, 0.846024054767, 0.422484163687, -0.25922248995, 0.400612605636, 0.0456442170181, 0.549648921274, 0.20344789359, 0.563748756348, 0.013600192381, -0.662100306507, -0.759360024917, -0.551677003834, -0.18220512698, -0.247221244881, 0.564497549301, -0.422518244716
-0.468438827912, 0.083403322338, -0.253001083891, -0.295943793404, 0.404884608278, -0.687010408356, 0.335212985573, -0.116672409897, -0.747023050253, 0.458700649575, -0.37789048087, -0.621954884595, 0.1804361485, 0.053407418029, 0.161913817355, 0.25336554935, -0.482501504493, 0.189518252136, -0.156251604698, -0.491828272253, -0.0737869714593, -0.130556957656, 0.721761126223, -0.17139051513, 0.470797377143, 0.548344941558, -0.368400522389, -0.414766048031, -0.0243286924966, 0.360749214903, 0.12549215886, 0.345566296008, -0.154062388171, -0.305589095514, 0.0234556087777, -0.0105174435114, -0.490190881152, -0.249690350771, -0.32351591307, 0.0241867261164, 0.460692759015, 0.060075182554, -0.315899873403, 0.326670961402, 0.405226948034, -0.319584599321, -0.374180575568, 0.185799818036, 0.0589376055435, 0.248613866712
-0.00458733951081, -0.228541178386, -0.483391435982, -0.233927250022, -0.109436828449, -0.315108480473, 0.116738523066, -0.0211197360904, -0.886079044991, 0.311368333163, 0.248069275857, -0.627387630907, 0.242035185268, -0.329604686898, 0.114252764293, 0.878007044039, -0.761041727085, -0.143677618006, -0.0190401262281, -0.0363885014236, 0.270561592214, 0.0778706247519, 0.397737991942, -0.498891955988, 0.55861302796, 0.339825997477, -0.698832737277, -0.0997858509887, 0.14579573927, 0.182008601682, 0.0930223453203, 0.0257092415485, -0.149955763064, 0.105570067421, 0.238937921402, -0.0393922926524, -0.486684178593, 0.26825957769, -0.583542703428, 0.0882165936038, -0.293604424522, -0.0551594425701, -0.137540001886, 0.123049606176, 0.275385853172, 0.461885625279, -0.2944250756, 0.0952240628491, -0.362711327691, -0.123547953818
0.99171915228, 0.424600678257, -0.697561346604, 1.24901707355, 0.970216988214, 0.227923471958, -0.0868673267449, 0.238972442526, 0.227956228797, 0.0299365779691, -0.141194767827, 0.845464511822, -0.125394613038, -0.196891667521, 0.536591776144, 0.784690976829, 0.07401072629, 1.1187820875, 0.405846053196, -0.528582480921, 1.30012405696, -0.166365209116, -0.444944088058, -0.573882146722, 0.254891704652, -0.0567470880522, -0.59439906999, -1.02198894011, 0.893107155609, -0.211906974109, -0.0711806325509, -0.792529793262, 0.218593016658, -0.0636937041945, -0.338786430488, 0.294544913202, 0.585823148702, 0.382533647076, -0.168564603136, 0.12763113948, -0.685133380978, -0.366773861448, 1.1874034842, -0.508945408633, 0.110641050356, -0.0111994673832, 1.3862097775, 0.467974976197, -0.0361966734674, -0.126562059162
0.433089524015, -0.297576977514, -0.522178765476, 0.378428917567, -0.532915890572, -0.0422785189022, -0.326431244013, -0.246603438363, -0.256093999683, 0.268007951213, -0.0735975710279, -0.103894404241, -0.0559422993566, -0.613124641991, 0.649879276347, 0.19002161887, 0.158478865339, 0.236846673634, -0.568839654848, 0.768670324532, 0.191057202713, -0.143988783431, -0.787127967424, 0.504913103591, 0.116503174349, -0.281326973175, 0.375493050558, -0.653957679909, 0.326752327072, -0.498827319081, -1.00218259211, 1.10432432738, 0.345259076075, -0.252522034879, -0.499628139096, -0.378868446047, -0.29976735841, -0.250895395001, -0.391428149953, -0.770481010558, -0.911610100927, -0.782803039062, -0.390371723319, -0.426770444354, -0.206908066433, 0.482167119498, -0.59524257164, -0.849828453257, 0.285721121699, 0.454458109059
-0.261531964431, 0.317674881448, 0.0138271577119, 0.200575562267, -0.264481548327, -0.306473108961, -0.361922129622, 0.252559854022, -0.0231206488225, -0.491511942363, -0.67130579659, 0.262685047414, -0.163968909755, 0.128324283966, -0.312945508611, -0.476181725017, -0.349188233436, -0.0423316198195, 0.23052272284, 0.00877122122875, -0.366016403595, 0.183691783991, -0.697912177772, -0.107041806304, -0.334462792647, -0.355097152461, 0.133789952688, 0.451674305279, -0.352642629146, -0.445688452343, 0.0740096118388, 0.0919437472476, -0.0314053340083, -0.0280054871382, -0.116565349732, 0.0429125946481, 0.495991553107, -0.290032427636, 0.13829339509, -0.374338928568, -0.308493599333, -0.311352012648, 0.646645285749, -0.29370530036, -0.269316059161, 0.351047159484, 0.0106926105204, 0.177132736186, 0.313445574118, -0.115752619164
-0.702237908915, -0.191650473097, -0.127383561925, -0.121574308278, -0.406651409042, -0.191738924211, 0.688301504663, -0.0950148044404, 0.0124006778165, -0.40951997787, -0.578282781164, -0.337523568062, 0.0784504730619, -0.062267847692, -0.145675390075, 0.0873294586843, -0.531545027263, -0.245246076398, -0.166679677751, -0.614815437763, -0.455933084463, 0.00652115034201, 0.62998725059, -0.546504017763, -0.0235843376279, 0.323949995239, -0.899178811139, 0.362476456989, -0.141374612195, 0.235197256536, 0.452310842946, 0.216931571807, -0.222075670188, -0.235507478821, -0.147111434211, -0.562563099764, -0.119131876328, -0.217504297941, -0.272908463082, 0.404566815233, -0.467949536447, 0.228054534179, -0.405558250432, 0.110437192206, 0.886345380867, 0.169300562039, -0.0228248713354, 0.586583226079, 0.108150803225, -0.255348170345
-0.342856688506, -0.130489538268, -0.0823893075646, -0.0943836650308, -0.363124295878, 0.0261380610414, -0.00779106743598, -0.127406018207, -0.0694822476153, -0.12121276757, -0.278014344238, 0.0905877441062, -0.410139041015, 0.0304203402585, -0.127415320134, -0.0465813966896, -0.292681333461, -0.160600700308, -0.097596864023, -0.332692692725, -0.505261647473, 0.117708097882, -0.0573830505716, -0.0361754097236, -0.293087529353, -0.20428251475, -0.164605244285, 0.0648795700087, -0.00315930720787, -0.115203713318, 0.276486515445, -0.0156021084984, -0.414992286518, 0.0587176377074, 0.178919513153, -0.0920756455068, -0.0193690766884, -0.311436608153, 0.252948682451, -0.0758841346128, -0.0786872934176, -0.0600388949118, 0.210112060112, 0.185933454505, -0.172428222536, -0.263194452664, -0.0733882819169, -0.040288546168, 0.0942490452924, -0.0597438898769
0.0263413285818, -0.0360197748284, 0.00522849604037, 0.0980678832285, 0.0099863101945, 0.0883345996661, -0.105843178311, -0.0588790484656, -0.133137960602, -0.209039302771, -0.130206987618, 0.047848845888, -0.0492699487766, 0.248955241147, 0.0994934568701, 0.022892668182, 0.207935578271, 0.00363049202636, -0.0986347053427, -0.0206202169912, 0.181025285359, 0.239265173917, 0.0789438409096, 0.17226167884, -0.214653596469, 0.145461501961, 0.0335428537795, -0.0237103695997, 0.13950273319, -0.00101442810965, 0.00737325748699, 0.109625985762, 0.26507690534, 0.250054124679, -0.0256098818693, 0.0679149419732, 0.13815401192, -0.00234304324991, -0.0307552381345, -0.206433955782, 0.178530279997, 0.16453587755, -0.0130613304339, 0.129884559862, 0.065590118553, 0.176635205226, 0.132325248903, -0.194540252048, 0.235325296812, 0.0259792547975
0.238542345544, 0.442237450364, -0.167349500836, -0.0346215293064, 0.0733090912509, -0.391666069259, 0.0208730824031, -0.24860606566, -0.091313822395, 0.00809063614765, 0.106697874897, -0.02240912479, -0.243358302783, -0.21618123013, -0.191374072776, -0.162344026537, 0.0417831932012, 0.0169304340478, -0.0421806778658, -0.248932565199, -0.067258658523, -0.383836464258, 0.159890389805, 0.169330812568, 0.166960905453, 0.221061509991, 0.0231969471342, -0.437547320929, -0.315401507002, 0.313805384603, -0.0472215046299, -0.297589811395, -0.291082791823, 0.245960330904, 0.470624901062, 0.118438815767, -0.118257725965, 0.277650624079, 0.301940876931, -0.180451985998, 0.133430985273, 0.169391428687, 0.120311777189, -0.172501233085, -0.296511417622, -0.156556503079, -0.0162665042756, -0.00426473661263, 0.122729993966, 0.068215891904
0.183296759677, -0.336339656018, -0.174809758015, -0.111860644196, -0.0287634553396, -0.0790616464054, -0.54744591519, 0.353006362652, 0.145403885453, -0.186395156622, 0.434793611643, -0.0956695851758, -0.0161211177625, 0.156495612227, -0.162986253868, -0.18653918806, 0.344526328666, 0.0591461851959, -0.489018095248, 0.251274875379, 0.235599748025, -0.390550739109, 0.0853893489515, -0.181593874319, -0.711849441906, -0.269399880085, 0.276789665771, -0.112384694814, -0.0155443309739, -0.257769202878, -0.398212740046, -0.171810945123, 0.062002792467, -0.146244685522, -0.482604725339, -0.204108970921, -0.14351188904, -0.243970230987, -0.448562925582, -0.33952175718, -0.307797433986, -0.410086072143, -0.387100113518, -0.151261642668, -0.394480343972, -0.0333282674897, -0.441080879832, -0.451863935573, -0.320461620269, -0.570982054318
0.576013326048, 0.643316681225, 0.0815358867703, 0.158261544565, 0.251500252937, -0.313524280592, -0.560599908244, -0.0191525795634, -0.00787189442458, -0.241365396911, 0.375073364911, -0.456108557468, 0.61917502319, -0.532133097863, -0.426606642176, -0.972621057151, 0.157596674561, 0.19242521378, 0.0175570882717, 0.395875629195, -0.0188463182912, -0.682709255924, 0.0025891214566, 0.179789556851, -0.133787309216, 0.195370141207, 0.390460193564, -0.0996015854973, -0.364753785663, -0.306768281254, -0.326728237984, -0.640666057505, 0.292989890897, 0.22267633192, -0.0712842040606, 0.473205082488, 0.557441252557, -0.153581562752, -0.033993656647, -0.0788116562256, -0.0695413753155, 0.428017598246, -1.28153103795, -0.148265755674, -0.731852074489, 0.388488299962, -0.38928224544, -0.127555861028, 0.0329760573962, -0.629040926848
0.166431213561, 0.908632448172, -0.0738799699555, -0.293146224988, 0.200730512869, -0.31097592668, -0.571103204204, -0.497615661152, 0.108508680533, 1.12572923665, 0.078539612824, -0.410297712719, -0.70038497611, 0.292985092208, 0.0357184568688, 1.1590922806, 0.135281151153, -0.24156395826, -1.60158364801, 0.452815616077, 0.579872838205, 0.605281671333, 0.22802591581, 0.290836388139, -0.794856731719, 0.824819832212, -0.173728222221, -0.601764942247, 0.588581459818, -0.124719816342, 0.581750238766, -0.0817252649121, -0.594355200415, 0.973334588843, 0.387028178057, -1.1257856689, -0.141069835946, 0.407393314862, -0.472415068032, -0.488089930428, 0.736043796735, -0.107174870472, -0.0739692545262, 0.640991922665, -0.893814379704, -0.742123999258, -0.633148642341, -0.437367670597, 0.29145293428, -0.269284033314
-0.453098402052, -1.31975638486, -0.459718436135, -1.06880074969, -1.40959621156, 0.278907346468, -0.235856536878, -0.326304405765, -0.936512768476, -1.59843873027, -1.29057578612, -1.08835257358, -0.439612271322, -1.25097371926, -0.643628052268, -0.327478364262, -0.930490937075, -0.734295652977, -0.372061046916, 0.368390507413, -0.732349697864, -0.784048397194, -0.0141694921113, -1.05490123065, -0.213627499246, -0.94192655266, -1.50445203584, -0.157984164543, -0.670154622693, -0.577318676084, -0.704114207684, -1.18867392771, 0.147232153092, -1.42478787989, -1.26055628392, -1.68085346082, -1.15862366449, -0.381361505726, -1.52816167397, -0.8445097508, -0.994227135984, -0.166317846489, -1.07722285133, -0.644865383345, -0.210215680264, 0.434235048251, -0.282730601243, -0.371835936702, -0.647966424003, -0.855546783347
0.00635393273723, 0.00496019309055, 0.000488354906685, 0.0156980205963, 0.00545486616024, 0.0104910944924, 0.00499918038935, 0.00103157661719, 0.00454797580283, 0.0105229250415, 0.00618793259619, -0.00466749689113, 0.00606637566347, -0.00136251053578, 0.00452012584072, -0.00312451500614, 0.0105411383245, -0.00514636406543, 0.00234152524353, 0.00668341814748, 0.0097817052944, 0.00622505663225, -0.00432626673452, 0.00294660826011, 0.00852560298081, 0.00372441978151, -0.00026291643453, 0.00647555391785, 0.0108650512978, -0.00177885615511, 0.00800844367706, -0.0053917693398, 0.00120526217523, 0.00609880577848, 0.00825614802559, -0.00123286110672, 0.0155472595006, 0.00302280791736, -0.00251266124894, 0.00930132103689, -0.00190533246155, 0.00757260213865, -0.0056216355405, -0.00307859125922, 0.000904311642514, -0.000717824720477, 0.00349761173119, 0.00414193559206, 0.00424069453962, -0.00454235883977
-0.753101394846, -0.170512905694, 0.325249624581, -0.282870990965, -0.461485758497, -0.592580129731, -0.757212521537, 0.00542417107661, -0.71520612398, 0.334668821236, -0.521592115507, -0.221681893797, 0.380485603709, 0.128353802262, 0.092116386856, -0.505690056396, -0.591438643598, -0.0853506798843, -1.04643680532, -0.0960336138358, -0.423565157556, 0.634311315949, 0.605961584424, -0.354674695904, -0.885432141891, 0.37462574518, -0.092582844945, 0.591256579823, 0.418406300762, -1.21279555009, 0.708611377592, 0.22008694542, -0.397960561025, 0.350844685322, -0.326170995888, -0.323866978779, 0.201880841474, -0.555026073436, 0.279176901938, -0.754218167903, 0.328884924685, 0.00197948122342, -1.02828450109, 1.1638322488, -0.297109331362, -0.294583402539, -1.36881927956, 0.141032034086, 0.343946716394, -0.56922599307
-0.59299692541, -0.843630631533, -0.540397977322, -0.268938334428, -1.0214493701, -0.777381312923, -0.0881424287504, -0.012891287156, -0.912475422753, 0.825509997153, 0.0126519358574, -0.807692573127, 0.121807666025, 0.449555190862, 0.816887919609, 0.672693884234, -0.95376885408, -0.932246016154, -1.11036763889, -0.534872287492, -0.86337284022, -0.270604413716, -0.373013634591, -1.07176615304, -0.498919226679, -0.409623096906, -1.10010497563, -0.0102091239934, 0.311931450157, -1.11345969301, -0.397792655307, 0.523202382123, -0.560648493988, -0.299310327113, -1.55490634579, -0.414112968271, -0.784241795761, -0.254117600297, 0.137497567453, 0.250516908282, -0.438770888225, -0.885547976149, 0.157435167729, 0.333713911145, 0.472057658823, -0.666900690859, -0.623099320614, -0.896818441695, -0.416602154235, -0.589052175688
0.138579495446, -0.680158928289, -0.0595856416097, 0.584668829476, -0.684096440329, 0.256991380627, -0.66124798613, -0.0343339732709, -0.171523291208, 0.173615017769, 0.279747967869, 0.101344600715, -0.935648695824, 0.00442879720765, 0.230712641007, -0.231885417534, 1.16034953451, -0.163313880619, -0.893256422418, 0.532278915959, 1.21604294023, -0.319805539952, -0.410788007064, 0.299587232186, -0.39243811892, 0.157132446979, -0.0889597900713, -0.414335024903, -0.345682787607, 0.581541693917, -0.68167731521, -0.759204183797, 0.46916647701, -0.201081651157, -0.802759067105, -0.152467271356, -1.067672472, -0.0112019477425, -1.01130338617, -0.0938714660101, -0.543683887872, 0.197398056356, -0.533268992164, -0.793949324769, 0.0496688570997, 0.0162738934183, -0.35042806609, -0.865414869749, -0.472754240766, -0.838057625893
-0.334197608796, 0.50215694479, -0.29574333856, 0.24934389393, 1.39098236796, -0.132963880205, -0.665029660566, -0.715336887277, 0.848244723279, 0.714996474075, 0.0333467786777, 0.450414831173, -0.150343033999, 0.454123159871, -0.193145203298, 0.0902993778544, 0.666398571116, 0.552983760585, 0.23612605565, -0.287364781694, 0.328591326959, 0.31533081249, -0.673215259887, 0.693765180886, 0.00762709676157, -0.182028985799, 0.476706612185, -1.09672297581, 0.743768524367, -0.312367903283, 0.579872355058, -0.343806259257, -0.313702155072, 0.495820638684, 0.689679694997, 0.234598006334, 0.997302340592, 0.103102051425, 0.312762927983, 0.114779676781, 0.764813960917, -0.540817632693, 1.26475756475, -0.188373191177, -0.733542359131, -1.04089028114, 1.03756045815, 0.321423742357, 0.220541312, 0.659045508666
0.205007473068, 0.0460693908047, -0.390894246556, -0.354756694934, -0.0427034971172, -0.229009154684, 0.0700550579419, -0.13310988367, -0.256756017744, 0.0328469460358, -0.0522229017696, -0.0900035498709, 0.0204846129112, -0.00385980368559, 0.165247399937, 0.443724910195, -0.354260301292, 0.032829191409, -0.232501646054, -0.326276713443, -0.0448374430652, -0.065180519568, 0.218856669114, -0.335562450656, 0.14306581028, 0.123216321056, -0.372623948396, -0.259956262703, 0.134209333132, 0.0598605995539, 0.130541965133, 0.284012350083, -0.320525224244, 0.017457995528, 0.0549923702047, -0.0705592053243, -0.483934373379, -0.10926724252, -0.0597730208381, 0.048961297365, -0.0363816426329, -0.278476030768, 0.138053108737, 0.107162646017, 0.0274949418752, -0.299924507121, -0.17001699715, -0.189750576371, -0.0792506581693, 0.120256823905
0.326623233661, 0.212198007683, -0.347266153301, -0.0163178256888, -0.23585471973, -0.165094516311, -0.908184576104, -0.48593587201, 0.329592244846, 0.78601904942, 0.590006332138, -0.174190816478, -0.645099608752, 0.456874282726, 0.120035988675, 1.04224861326, 0.607849868661, -0.337072292158, -1.79132678246, 0.496551512566, 0.556614196489, 0.538021744183, 0.274149707528, 0.415655190295, -1.18712056312, 0.443100466117, -0.108610798146, -0.563730973718, 0.852682859821, -0.676208939202, 0.733370206011, -0.510376235068, -0.366835435062, 1.08746327748, 0.594003078485, -1.2426592478, -0.339624892704, 0.540599092546, -0.31368574234, -0.644930406031, 0.608131467172, -0.0841081097599, -0.146539884683, 0.923498688912, -0.538773812527, -0.831489152339, -0.697989672583, -0.59607895429, 0.291636064135, -0.257244625279
-0.850042671148, -0.579462862783, 0.129508956449, -0.205185824644, -0.578667340974, 0.404535523284, -0.812523426557, -0.371325850094, -0.398954454935, 0.378745462312, -0.554469264187, -0.407481498025, 0.717070824398, -0.416628662211, -0.268029427001, -0.556063870722, -0.00699573377721, -0.299687079395, -0.545527723634, 0.160371626398, -0.367406471078, 0.582240711379, -0.056495407752, -0.392169397751, -0.499631074276, -0.22828382127, 0.164747597247, 0.550194582669, 0.457750989648, -1.47967912762, 0.72936803554, 0.146865363467, 0.193026375551, -0.00883566590839, -0.723128705397, -0.650287675622, 0.0183391361382, -0.988250096517, -0.168180085949, -1.23420364952, 0.156084576279, 0.153363898246, -1.15305249667, 0.589563341415, 0.395867997203, 0.468600010768, -1.00395749934, -0.221690622776, 0.219527224313, -0.272487883534
-1.15057417163, 0.555727591185, 0.229404665266, -0.779055093073, 0.568284028796, -0.700922454002, -0.159450118925, 0.976289798186, 0.363740344425, 0.847133598372, -1.26162719076, 0.647311235629, 0.901187559205, 0.00546088137114, 0.31052115999, -0.0918121121025, 0.010521901105, 0.129520155624, -0.568377418344, -0.522707298173, -0.318492687858, 0.194411914661, 1.41888154757, -0.228520734888, 0.344974668107, -0.387718442792, 0.587723206465, -0.121596384705, 1.01302164473, -0.067254027111, 0.332753846367, 0.0148279355086, -0.0810895897475, -0.280731513838, -0.668510321178, -0.635415762259, -0.543297448397, -1.1337596351, -0.390515344057, -1.13105755298, -0.0122113185964, -0.940406613398, 0.892865388514, 0.234421186902, -0.848237950487, -0.31590941756, 0.297722852702, 0.807993592738, -0.340482592189, 0.567647218492
0.0663649546378, -0.0391871522403, -0.161650930047, -0.0961244637257, -0.132033206822, 0.40183545749, -0.112306785869, -0.690751017972, -0.108043389796, -0.576869531177, -0.667342059926, -0.0910500391665, 0.467119850419, 0.198484639692, -0.307471272151, -0.201022805512, 0.18002580346, 0.167392483006, -0.207726461449, -0.278862668271, -0.0474380322483, 0.247908599449, -0.681530481346, 0.607932426613, -0.535980534436, -0.593187008199, -0.0754820433373, 0.0184238726097, 0.274705021523, -0.36153376041, 0.301945946028, -0.0984362152065, -0.0633937073855, 0.0284895284217, -0.441690822473, -0.045205315439, 0.405580119697, -0.242784169996, 0.154573585966, 0.183324677546, 0.0608003668655, -0.602308231717, -0.288852781853, -0.361391094175, -0.113383955743, -0.120607093912, 0.237555688487, -0.177689769337, 0.384700554413, -0.0101217425624
-0.201603298054, 1.51194548822, 0.480705786978, 0.496899602922, -0.005192678698, 0.0417149654311, -0.488539376722, 0.117898579198, 0.195182377045, 0.545876778078, -0.18408453691, 0.225695533303, -0.409314513845, 0.318105027988, -0.745716625295, -0.049230169228, -0.501752583975, 0.758197905042, 0.0626667745067, -0.881130347313, 0.106953066721, -1.41674688682, -0.360465636684, 0.224178294186, 0.403244031216, -0.446097938444, -0.143485350067, -0.245854874816, -0.636597705233, 0.856989433065, -0.803911972253, -0.879914077739, 0.190720440418, -1.2906665509, -0.587380176676, 0.294139807551, 0.181416598898, 0.0820844427503, 0.832438103024, -0.618868633191, 0.0730344729032, -0.438425866166, -0.54118130921, 0.0155306068629, -0.0398254642333, 0.179424386018, -0.174677942971, -0.0332484924616, -0.331566194848, 0.897066164421
-0.23289497294, -0.507761586401, -0.218349725457, -0.164248470567, -0.137550941268, 0.119272578537, 0.365069902925, -0.00266592583915, -0.0128770699964, 0.565811998808, 0.364716694206, 0.0149731822691, 0.119489478971, -0.13307163124, -0.0391487568698, 0.407360161873, -0.124529268912, -0.189789323118, 0.268034488242, 0.209333275713, -0.423153078179, -0.48261750303, -0.169555602781, -0.269335789, 0.54230283473, -0.0349733993274, -0.632931812174, 0.307354912984, 0.0173233547367, 0.466887879758, -0.0267988029138, 0.0621913946662, -0.235590941473, -0.0956360980338, 0.0279332592185, -0.503279734649, -0.756742417958, -0.0432425541901, 0.119968890694, 0.4248387853, -0.585777167415, -0.262098831066, 0.0746251009694, 0.0836197770223, 0.451869647603, -0.118685769447, -0.314756253954, 0.0142718963934, -0.366976807204, 0.186797915142
0.583658253996, 0.643644875992, -0.725939411424, -0.41654234585, 0.411887409182, 0.475043332876, 0.0792425911641, 0.195408595818, 1.87325529811, 0.337601279578, 0.294120347187, 0.619047352552, -0.0722527642093, -0.036044687625, -0.481806970304, 1.08838708029, -0.535888555317, 0.254026251466, -0.971854058263, 0.588347724836, 0.0922677156453, -0.681942894667, -0.180825395917, -0.408910912037, 0.938940359063, 0.153431226235, -0.428122037235, -1.12200378038, 0.572116291418, -0.112836613587, 0.178453982296, 1.07735146347, 0.483350728921, -0.118483102418, 0.279566188542, -1.91120539625, -0.41810670034, 0.664457723669, 0.210705918718, 0.104431304059, -1.15737344293, -1.50799339063, 1.62620989747, -0.592646997232, -0.915796905941, -0.829757517114, 0.775051374417, 0.137829997185, -0.377026404244, 0.307656257507
-0.00885320237183, 0.73289043389, 0.247359885101, -0.532675869039, 1.15319428938, -0.90740603082, -0.727926680342, 0.447236374947, 0.420314035854, 0.691307343856, 0.04299921326, -1.21282188866, 1.41269061121, -1.04617518103, -0.706805605109, -0.303764870754, -0.785468396956, 0.144765002209, -0.11822139658, 0.578408352071, -0.337046518979, -1.00139124754, -0.430539893304, -0.784734780814, 0.255437946693, -0.185713037876, -0.328567663689, -0.260414170691, -0.32474114528, -0.237628868184, -0.424588593172, -0.200907260999, -0.299052259291, -0.600841794169, -0.472126142091, -0.475749480113, 0.57323893181, -0.296911085409, -0.645057164398, 0.379711114377, -0.737796441074, -0.834744502538, -1.10287219218, -1.26855254327, -1.04934612567, 0.217826677393, -0.674428979912, 0.972657383148, -0.763043423732, -0.602305423833
-0.257609328583, -0.111734801731, 0.135263477333, 0.0468414781835, 0.504244561723, -0.438379729748, -0.209337410717, -0.0174003668297, -0.173741706577, -0.452349344703, 0.0762617165301, 0.0255052583447, -0.0224934947271, 0.215906048484, -0.0532220953991, -0.153680969472, -0.280792938924, 0.204651250371, 0.566984696947, -0.46758590813, -0.51015156278, -0.906264756785, 0.0104086367078, -0.43485287613, 0.814696051165, -0.824174265273, -0.11978441113, 0.0624325578746, -0.397398665713, 0.12025211975, -0.580107853847, -0.282021985807, -0.100631996965, -1.19043797739, -0.528596447578, 0.202481813128, -0.346935214626, 0.00992892473341, 0.0612475540017, 0.0153355311013, 0.311641416309, -0.575065422358, -0.0452219528138, -0.130324305407, 0.122867622495, -0.734508685081, -0.24505188092, 0.16565479894, -0.397279696347, 0.580158867343
0.0264243377095, 0.000138804141506, -0.077981349125, -0.104696911131, -0.0651404143868, -0.0503603200944, -0.0811952406852, -0.0139167356084, -0.000346980609569, -0.0805447497168, -0.0252006308931, -0.0129510656618, -0.0284215045224, -0.0451888788473, -0.0553440388557, -0.018268591444, -0.0732789206322, -0.0393839983684, -0.0796824163235, -0.0316975779721, -0.0234082823346, -0.0225427670773, 0.00446164190869, -0.071393232524, -0.0531946081739, -0.0220465753605, -0.034806040359, -0.0824128420259, -0.0258459369807, -0.0568140925272, -0.0286325925659, -0.0216609959118, -0.0324134193558, -0.0192172712307, -0.0226092453448, -0.0889571184137, -0.0622833199186, -0.0267822984064, -0.0436618788468, -0.0899215966475, -0.0799526803826, -0.0563511621682, 0.0104571027104, -0.0234206454421, -0.0858827976846, -0.00936151470165, 0.00469235223416, -0.0452843448399, -0.0500946444509, -0.0496679262423
0.113851542036, 0.0231422290704, -0.0690840013754, 0.0409365619171, 0.140328450842, 0.203240653841, 0.0514153513338, -0.24228820749, -0.302091345229, -0.657094778, -0.101717814177, -0.255824340871, -0.258104532241, 0.0849141974467, 0.212029453462, 0.0263134057341, 0.0511264153822, -0.204112073694, 0.353672061309, 0.0687351342119, 0.165231444315, 0.0566684765073, 0.416224402692, 0.00420797645258, 0.276818781757, 0.159419126598, -0.243769164581, -0.0628004471538, 0.115870218139, -0.186057822202, -0.010683571882, -0.125802587414, 0.0604582098346, 0.257921582135, 0.406357011691, 0.115949035381, 0.247021876068, 0.337872439087, -0.0259598737273, -0.202724336023, 0.43392415516, 0.120489520042, -0.416967407481, 0.354784594874, 0.148988310206, 0.244596234128, 0.141453975005, -0.136093797028, 0.0627358513535, 0.218116910221
-0.336356900287, -0.0754694271499, -0.909756987876, 0.118527410926, 0.260805379605, -0.871093057687, 0.344900938766, -0.479551066979, -1.21038621431, -0.313621328104, 0.0116543791301, -0.851623188357, -0.355767071812, -0.716578094414, -0.465234432054, -0.478903681446, -0.866879500628, -0.199147922255, 0.484198497756, -1.14000802195, -0.22424060766, -0.943228258613, -0.579705881524, -0.0531916820396, 0.98872796222, -0.344711280416, 0.0340509335391, -0.79768830303, -0.682660248814, 0.21541435244, -0.668774185938, -0.377601588571, -0.269204794091, -0.612008775911, 0.579045087395, 0.862544740961, 0.00612628324286, -0.17559794524, -0.451003426326, -0.327465469644, -0.147565843403, -0.202481556308, -0.69605442027, -0.765812907636, -0.193557454436, 0.0785456413681, 0.25596264749, -0.481513454069, -0.596361413129, 0.29106076771
0.220325438819, -1.21982593004, -0.51600532789, -0.949605682176, 0.318193269849, -0.0602203522346, 0.314542530619, 0.256037573641, 0.664767770483, -0.590889383632, -0.341762591151, 0.977376883893, -0.114508702359, -0.14200716729, -0.399339146508, -0.802954467734, 0.596888016042, -0.0179734800495, 0.338682045826, -1.07792196185, 0.920867614156, -0.0148752641041, 1.28520169087, -1.06207396996, 0.15609913983, 0.495782409588, -1.33779256108, -0.54062692048, 0.601837885655, 0.293974356813, -0.0764330436213, -0.416543592462, -0.472721731628, -1.2077260328, 0.0585889401151, -0.365036089201, -0.636279250733, 0.287906796857, 0.0460529643146, 0.130573552409, -0.580953321459, 0.0725033525527, -0.103872604182, -0.286710317841, 1.34106134445, 0.44564073349, 0.670860168789, 0.591648175737, -0.737283034797, -0.66942203097
-0.556040369699, -0.244409972446, -0.109642396453, 0.289268108491, -0.50604099248, 0.451750164628, -1.08627683063, -0.0792026940339, -0.0418512684305, -0.673477592619, -0.482047888415, -0.0745959922398, -0.603381962453, 0.0878460811421, -0.135054645858, 0.115222824258, -0.585570074959, -0.159267953583, -0.49617442065, -0.404448086732, -0.168377035312, 0.544142184719, -1.08584804708, 0.361817584453, -1.50962532696, -1.31742703976, -0.163273008527, -0.172669320004, 0.654622004124, -0.511763821549, -0.214511229772, 0.49153980432, -0.823275588809, 0.461478087962, -0.324452948972, -0.361669968832, 0.804276929205, -1.19626094503, 0.381435158198, -0.678501632463, -0.335469352292, -0.879916496031, 0.553126536991, -0.397131246254, -1.16538185486, -0.341208962946, 0.381350973463, -0.6272719832, -0.107794708587, 0.321600029681
-0.166890529637, -0.247223886173, 0.473533215451, 0.212840235936, -0.720029111434, 0.135566074231, -0.153531319704, -0.168654237301, -0.0396365538498, -0.150653223848, 0.783959825877, -1.04770639972, 0.823983940686, 0.562557247357, -1.33121891398, 0.718383830348, 0.934465919607, 0.111572270377, -0.999384623842, -0.439012846278, 0.364642275505, -0.173395918335, -0.362675522701, -0.86948486729, -0.80055066053, 0.313578093892, -0.000783636026182, 0.760770884254, 0.203636665031, 0.0668712319357, -0.244892790158, 0.236439301436, -0.0907544177441, 0.31292008436, -1.24129206088, 0.0533542149092, -0.592793229305, -0.115029618291, -0.660637832849, -0.247307384605, 0.0525389906277, -0.81187110033, -0.580020620476, -0.450808169831, 0.348552827577, -0.0480253049871, -0.0744723181382, -0.050447177009, -1.21024037957, -0.325320164179
-0.0775571088833, -0.193562960784, -0.11082790721, -0.127544277458, -0.249163598378, 0.459187955673, -0.29900146544, 0.317231913654, 0.0931168232233, -0.560665639195, 0.320535629901, 0.337206890381, -0.156189795068, 0.170873027928, -0.237089012721, -0.166192875233, 0.0665783258682, -0.165474861024, 0.0578467889781, -0.253743212116, -0.0304673146848, -0.0525697922056, 0.294988549329, -0.166216887258, 0.0701373876972, -0.1146699512, -0.0179437253449, 0.0203115460486, -0.139954898617, 0.0497270022582, -0.326473407749, 0.0378381815014, 0.25913708702, -0.0716146860366, -0.12008758593, -0.00651701113885, 0.0533746669188, -0.0492015550032, 0.210709917347, -0.809977761735, 0.114473849675, 0.00751942427444, -0.0281068621618, 0.165623621194, -0.179025572019, 0.254866347805, 0.482690570857, -0.378593214512, -0.133893548001, 0.0603703315465
-0.775647710982, -0.262721734993, 0.03128676665, -0.0641396629382, -0.602095632012, 0.518995877719, 0.578562573405, -0.0855715975077, -0.176485151003, 0.150147895153, -0.642612148859, 0.160566626263, -0.459214713838, -0.335507808129, -0.421964682651, -1.12359262738, 0.357048048666, -0.63822285357, 0.026639050828, -0.317047458855, -0.442512998187, -0.263636530626, 0.130393221465, -0.705380150243, -0.0744428570383, -0.487412673665, 0.0314751326847, 0.68662167398, -0.342535288184, 0.0103345898782, 0.462453381466, -0.735953121573, -0.212914501558, -0.425440456186, -0.361058720281, 0.0545317880999, -0.1074026956, -0.103320364329, 0.308225305859, 0.100818327131, -1.00979546457, 0.206864471433, -0.129030193357, -0.602956309864, 0.135361997734, -0.0233165418162, 0.257676755682, 0.209802101207, 0.161081326126, -0.351584327153
-0.171337745771, -0.179316489005, 0.318381087284, -0.0100625438513, 0.0103046778259, 0.226003981127, -0.0130879519265, -0.117409906276, -0.102430220388, -0.580586083077, -0.538933384599, -0.264283638851, 0.170870887281, -0.0147418770061, 0.0345751505368, 0.0885682618866, -0.202118729617, 0.225938964525, 0.0719236403315, 0.155676981968, -0.312246199329, 0.205952144493, -0.448818216752, 0.381880605889, -0.566916108367, -0.378492205074, 0.117315510354, 0.207381877289, 0.0124475378617, -0.35638055243, 0.210205172595, 0.19846283386, -0.0989651571484, 0.0537783084646, -0.287036975022, 0.0071181256946, 0.257104611824, -0.616848576412, -0.300564562405, 0.27033044, 0.184959133388, -0.580595100394, -0.245108212193, -0.0783729034176, -0.11696372178, 0.019031392969, -0.154555460005, 0.000313943752996, 0.161712065199, -0.264777771267
-0.0777668188512, -0.0310892700902, -0.127332787003, 0.0514170657932, -0.0756241646517, 0.178794846042, 0.100313681792, 0.164885953743, -0.201436621499, -0.498815579376, -0.112065503184, 0.241547800687, -0.189737612904, 0.186094938851, -0.00867567847567, -0.232641413561, -0.136303974909, 0.0666466142966, 0.286643592449, -0.400770607442, 0.08855960941, 0.213158277899, -0.247152906099, -0.0679975901233, 0.0478404298868, -0.0682170499744, -0.00553873862048, 0.301799655652, -0.0886252801703, -0.108418918485, 0.132779443177, 0.0501106899989, -0.0443138297063, -0.0122779119288, 0.00429134237162, 0.382040317216, 0.0859561702224, -0.367011718011, -0.037909940328, -0.0659618061119, 0.0899780847437, -0.153564192676, -0.0179949920797, -0.0353580310907, 0.016467545855, 0.077045917046, 0.357720585893, -0.35373204061, -0.0337408156224, 0.0241164323389
0.316848544207, 0.447680159149, -0.367346255379, 0.194319571007, 0.421594328116, -0.628174997707, 0.0216550139264, -0.418836191353, -0.331654473495, -0.0578048521103, 0.0628509368471, -0.0165449015029, -0.498523149836, -0.592383431848, -0.0536568785857, -0.350216440813, -0.063438171847, 0.0656943231691, 0.221599206422, -0.196091089913, 0.0530356318956, -0.366755344226, -0.339206149086, 0.502429851068, 0.487177373391, 0.114298219401, 0.215501930065, -0.744633014791, -0.446398590371, 0.233017315505, -0.219317566226, -0.420871450731, -0.32802853923, 0.330921481241, 0.943948084653, 0.385853121451, 0.124594344993, 0.365958099749, 0.0807162922011, -0.108674987417, 0.177849132182, 0.255575146647, 0.275354726461, -0.598608493504, -0.623772986867, -0.252598853809, 0.309107084352, -0.0658774192089, 0.125799985458, 0.145082365611
0.27306888731, -0.0508609642219, -0.269793271668, -1.21640999258, -0.681954470801, -0.899793491997, -0.115411624656, -1.2690247755, 0.133064164862, 0.146368658198, -1.39834429833, 0.258712951481, -0.726847691188, -0.471862181378, 0.688195697361, 0.386922307578, -0.414098422862, -0.113533385232, -0.356394462765, 0.523065151654, 0.0582406414958, 1.22087247672, -0.287350317904, -0.105635286951, -0.0294119050831, 0.562401229908, -0.915851059843, -0.856612571654, 0.140393811135, 0.229930583901, 0.311254506889, -0.232235397889, -1.01993002696, -0.503479612899, 0.532004566379, -0.797241021421, -0.568813498938, 0.779442503827, -0.158991858608, -0.00170614190079, -0.187683216608, 0.0134984501806, 1.06374935139, -0.313960324786, -0.122694496374, -0.542668543908, 0.561926095232, 1.03154504532, 0.465205635877, 1.0949180098
-1.26001817166, 0.443563580498, 0.429889549766, 0.141613060293, 0.741650406814, -0.578470486446, -0.32173707934, 0.797763964646, 0.527766825086, 0.99496062113, -1.32950280586, -0.106669259369, 0.635678982899, -0.0174323138867, 0.106555665898, -0.0277449018439, -0.621998361477, 0.382584262048, -0.697759383281, -0.217480857354, -0.0545014358782, -0.285830880442, 0.257349149612, -0.0301297738403, 0.0433305403715, 0.578852147226, -0.268535433276, -0.174341923721, 0.151558249281, -0.93487226862, 1.1619967487, 0.233859572111, 0.0351649554412, -0.652390159157, -0.731729300882, -1.68297121176, 0.403362546704, -1.04359183962, -0.115705206754, -1.31648670907, 0.776518746219, -0.337916513048, -0.162341994301, 0.284619168291, 0.368362129829, -0.290827073626, -0.276906718713, 0.752839091075, 0.349636374446, -0.0278795759702
0.04923556219, 0.0165508948873, -0.315977961239, 0.108914646072, -0.0562647626251, -0.244788200312, -0.0511815915905, -0.019166491824, -0.222234720348, -0.146537316661, 0.0767012807382, 0.0181955431219, -0.282257002197, -0.0109467073349, 0.0155012939289, -0.126764162478, -0.163331843259, -0.0480020100172, 0.0183849827535, -0.253922399152, -0.167914859163, 0.0719673468262, 0.0593457321306, 0.0220209877956, 0.215345175352, -0.00364238575524, 0.000760180985141, -0.165936066768, -0.146454881506, 0.0164833671081, -0.0974949262325, -0.0339379905834, -0.164666642026, -0.0489621074171, 0.204612292495, 0.111082385815, -0.193571219623, -0.0348602554131, 0.043769151315, -0.198850823565, 0.17468244444, 0.081300338882, 0.175112231604, 0.116410544784, -0.137978041217, -0.160112314591, 0.0324509000775, -0.148812694445, 0.18295196166, 0.0128755315525
-0.566128378628, -0.349508921542, 0.246653158724, 0.085205622741, -0.424029050817, 0.140815698635, -0.34022050889, -0.199136609932, 0.15502555437, -0.0207665364427, -0.221462623327, 0.197178384638, -0.17856401828, 0.015500996165, -0.0951849909305, -0.434407387394, 0.0742366527255, -0.149706463044, -0.188995482296, 0.199274948395, -0.419366649142, -0.061723143987, -0.303757646744, 0.169196953093, -0.524582655003, -0.412415423598, 0.225862052561, 0.191335720548, -0.123114854244, -0.291346418034, -0.103876099023, -0.100602234552, 0.0292432247862, 0.0130933264675, -0.324409334614, -0.189082761299, 0.195500758551, -0.242364282521, 0.208229683382, -0.179343083005, -0.22965092694, -0.142142563922, -0.0720649036642, 0.0104601232167, -0.112983191198, -0.0643072996464, -0.370101589658, -0.105218582439, 0.104867856442, -0.190302722514
0.335706285984, 0.671740011459, -0.798581986724, 0.238319437334, 0.121188487115, -0.207283390475, 0.0374953709606, -0.468936200138, 0.177506223837, -0.24889867127, 0.0252372624108, -0.165861376626, -0.465866299345, -0.439079474737, -0.375249847275, -0.81646376214, -0.00830210849432, 0.0823558585472, -0.389678303952, -1.14424855775, -0.529979528267, -0.641767872288, -0.590410557137, 0.566493732419, -0.0928814983892, -0.393846437707, 0.324856159904, -0.810828154517, -0.342395668443, 0.281580259026, 0.260837829603, -0.867034908069, -0.745284308672, 0.425398099868, 1.11233123986, 0.276307715159, 0.52856032974, -0.419347591565, 0.50018015288, -0.319783436774, 0.0817636090193, 0.422264749481, -0.116172421255, -0.908645241743, -1.32988191754, -0.978833282163, 0.310437722032, -0.48590934642, 0.547607674169, 0.519422628295
-0.34488774961, -0.205040191961, -0.397243911123, -0.0833957204448, -0.313922454147, -0.218135008932, -0.217497384586, -1.20518749986, -0.295135542662, -0.976157714591, -0.913505872972, -0.0106480664588, -0.660719413321, 0.701483199195, -0.295077421235, 0.245146254696, -0.121405876059, 0.0577148681027, -0.65934856634, -1.06672240425, -0.0296764996421, 0.695916394154, -0.680874400102, 0.563276598105, -1.30109916226, -0.493124939817, 0.362403762702, -0.964538247709, 0.128696346405, -0.523924170815, 0.23248915552, 0.287090756465, -0.131386314477, 0.207241929698, -0.140665330776, 0.037478502266, -0.0890428925842, -0.450097665078, -0.0870855753948, -0.560429853955, 0.643286630012, -0.656109922462, 1.14542377572, -0.0315999549945, 0.20462354895, -0.807402212819, 0.189513263998, -0.619931515499, 0.342229969562, 0.295842672175
-0.165563314163, 0.271127368045, 0.030451795901, 0.0876184465957, -0.0575831200518, -0.00325068059185, -0.280428066364, -0.0701260608321, -0.039041452021, -0.218589462591, -0.355304077198, 0.0727936157343, -0.302997254368, 0.145603922044, 0.055760230658, -0.117457769754, 0.149748543259, 0.0597435152883, 0.0368773658128, -0.155517813325, -0.136412012468, -0.0300345850721, -0.0100291774476, 0.125836899126, -0.305775246467, 0.041072498173, 0.00702086673326, -0.146442789217, -0.270154829512, 0.00519664086418, -0.128981569269, 0.029682749927, 0.206574785771, -0.0668605503144, -0.121366038896, 0.0961032103236, 0.189981651795, 0.0371184404729, 0.0129866084601, -0.316398389868, 0.0861495355044, 0.154296324332, 0.15401308266, 0.0371418697943, 0.139221904084, 0.247819817763, 0.203139241833, -0.106410809278, 0.29640283798, -0.000261263418439
0.573483509762, -0.52117886157, -0.0205746810474, -0.529411724799, 0.255951761698, 0.0609854290178, 0.216474028712, -0.307823588848, 0.598961369978, 0.309423240592, 1.15516975866, 0.45012439398, -0.225153215382, -0.295001244748, -0.244266783547, 0.482216506979, -0.00768855100395, -0.160999663867, 0.0741821212736, 0.548817222817, 1.05311760965, -0.247071704423, -0.259186137229, -0.331647250828, 0.490913030238, 0.454977210876, -0.487254040485, -0.0471494036059, -0.148491206439, 0.0601004918563, 0.351394072805, 0.0833892622144, -0.190013887631, 0.183748946822, 0.290369944348, -0.0782239278835, -0.997698552795, 0.609705155059, -0.0250230147727, 1.11314615704, 0.311485304622, -0.352735454718, 0.0946442996244, 0.0709789671453, 0.409289895113, -0.843057891413, -0.812249051268, -0.195063086942, -1.25903109819, -0.763152099082
-1.0708442443, -0.439961988838, -0.143148874362, -0.664071296296, -0.842998684404, -0.0637205642679, -0.406209249527, -0.853962775372, 0.571625390615, -1.12390216072, 0.246601587811, 0.47471145598, -0.554980042346, -0.638025811428, 0.0401459806931, -0.837618157002, 0.231803816589, -1.01969761117, -1.19352693144, -1.06166334487, -0.862895111806, -0.422543461747, 2.29358882916, 0.295558746981, -0.632937044152, -0.323501147789, 0.757504517662, -1.27742292104, -1.21194053288, 0.155370591421, -1.01851161651, -0.402685294354, 0.534933475065, 0.195357157683, 0.656828281731, -1.12736375839, 1.03638040913, 0.597880019773, 0.117102145451, -1.41931440904, -0.379235098694, 1.91757757038, -1.48465921138, -0.396800688137, -0.273868811271, -0.0323299340635, 0.362285276828, 0.0976179822388, 0.978946725715, 0.68513205838
-0.0929497951704, 0.0437616624514, 0.108737472492, 0.175745846345, 0.888054272692, -0.0573681927016, -0.23610515647, 0.787593240749, 0.864002183156, 1.13300246238, 0.0979072796203, -0.422923452622, 0.442571552111, 0.277898054287, -0.800937545255, 0.190166860695, -0.104640872976, 0.251484556251, 0.119919848897, 0.0104773219045, -1.24021345628, -1.22862176257, -0.926787756167, 0.00947862372709, -0.444869375616, -0.777753051353, 0.395190183967, -0.116301745068, 0.455489128154, 0.312648686152, -0.647837627673, 0.225319762611, 0.986406047193, -1.21147282483, -1.00351535355, -0.144413473132, 1.05591229721, -0.435582413006, -0.175435939173, 0.442418470574, -0.858897185524, -0.278321703504, 0.682015589295, 0.217902335601, -0.637008253342, -0.52381615442, 0.0758469727004, 0.0420587725402, -0.166052715877, 0.554335788697
0.161778783763, -0.376206559882, 0.694603234323, -0.947530866896, 0.298067133221, 0.403505940046, 0.855512801693, -0.0485076722709, 0.403215799112, -0.0759006040763, -0.861066671672, 0.217806630415, 0.209679154902, -0.865353184654, 0.313385856375, -0.438830295273, 0.273637075071, 0.171836564415, 0.0749842378267, 0.180953415, -0.00225289795835, -0.297385112858, 0.250326122794, 0.000741701717372, -0.0915722202148, -0.250700082284, -0.123705398502, -0.240239636457, -0.1865614032, -0.0409861507341, -0.198559979687, -0.247196391093, -0.0346836614358, -1.13167100655, -0.52621749606, -0.971015654974, -0.46345582894, -0.319190934976, -0.20438696549, 0.57099662088, 0.0149725384473, 0.484039142269, -0.652263902224, -0.444984123493, 0.175630713262, -1.12611380352, 0.010883505773, 0.657291538149, -0.340248590639, 0.35583301528
-0.268957322472, 0.421435967524, 0.654320015825, 0.120524776455, -0.912984487957, 0.212190004623, -0.579580246689, 0.138127571241, 0.125853178849, -0.842489436153, -0.627550172309, 0.872719309173, -0.219987846308, -0.362644984106, -0.0818159866133, -0.58378675558, 0.187711621984, -0.431334436607, 0.30151604516, 0.0557394290134, -0.640754405608, 0.312730058466, -1.12624540611, -0.508026275814, -0.30622981226, -0.302467879612, -0.270590676112, 0.672491802447, -0.168075887789, -1.0126476691, -0.247166292816, 0.351294598067, -0.988524482598, 0.460030538222, -0.389994323091, -0.60549627991, -0.186981945766, -0.412201963211, 0.882654490816, -0.969519436825, -0.633396742139, -0.987466176575, 0.392702918104, -0.485585850976, 0.1835933721, 0.478355545016, 0.615224338597, 0.0932793894402, -0.150548463613, 0.068686284116
0.137737714718, -0.142220225076, -0.252873850978, -0.179376737838, -0.136775333569, 0.0260478882449, -0.00738787734758, 0.0427148012188, -0.358383683499, -0.363478495495, -0.335802058004, 0.20239623816, 0.0658616193959, -0.0515618677602, 0.0352338011738, -0.0697894632138, -0.252260725123, -0.092774459893, 0.24257083715, -0.233079287332, -0.0494815618496, 0.429254526994, -0.0226590451617, -0.158610404018, 0.0720368953284, -0.151683322488, -0.141182696366, 0.0707814196656, 0.0568871681991, -0.238379471184, 0.291921827445, -0.0528444395892, -0.0398827812656, 0.0554932134874, 0.137038410426, 0.0783125622914, -0.0357718158016, -0.0526397453571, 0.126084750027, -0.158020060771, -0.0341786112919, 0.143825628782, 0.538790518642, 0.0205626950438, 0.00238546867622, 0.102051672129, 0.335002355886, 0.0516112701906, 0.155866949707, 0.0680804437253
0.0375672113468, 0.155753964917, -0.185002520692, 0.193328819175, 0.137827118468, -0.183875766355, -0.0508365043959, -0.127182417063, -0.17549303976, -0.111748898909, 0.119142578676, -0.210820664812, -0.147838710376, -0.0133147582005, -0.0867709381502, -0.111833281688, -0.100634141171, 0.119283523371, 0.0525490419649, -0.290109703559, -0.0811068182064, -0.492174308695, -0.366184348095, 0.0971603401789, 0.0583964530016, -0.189487975969, 0.0169169347501, -0.134522513452, -0.146670060423, 0.0267926377855, -0.135050921312, -0.246870467897, -0.244212460933, 0.00105315475128, 0.112336082118, 0.374028312097, 0.084346843768, -0.14993568066, 0.0529716127605, -0.0280266440561, 0.115689087921, -0.293002934618, -0.217170140324, -0.251776390904, -0.289865213683, -0.169512125385, -0.161145223099, -0.334723473805, -0.118097296311, 0.002017494635
0.25016092306, 0.240966487651, -0.144394423939, -0.159613241825, 0.13616067848, -0.821642709081, -0.203255400689, -0.465665132368, 0.138868128545, 0.0131203903997, 0.0372135822641, 0.0942148145918, -0.00297422135591, -1.05917683284, -0.920474608576, -1.06648847522, -0.0823085632435, -0.473612334045, 0.16426662454, 0.122786605748, -0.212285984608, -0.773796271541, -1.15418740749, -0.0670415771806, -0.544931373244, 0.192301004619, 0.208807078719, -0.27114909707, -0.847552587603, -0.593653995345, -0.209102502112, -0.21262910862, -0.197277332106, 0.876991390047, 0.516353358108, -0.0445003214069, 0.688888913769, 0.0573907579411, 0.690022200136, -0.0157995331253, -0.698526681005, 0.44646745199, 0.339122131363, -1.06980435162, -0.806944769665, -0.456465090612, -0.387023954835, 0.0665573178236, -0.419011714965, -0.42605100717
1.50774987177, 0.612227508095, -0.558529625109, 0.456064711807, 0.10413719843, 0.382291757425, 0.113147941618, -0.17580510909, 0.346447740983, -0.339191239742, 0.325887247201, 0.026753997344, 0.205800054127, -0.308472718528, 0.470416329544, 0.475419317561, 0.184153020814, 0.257346979577, -0.0562276771063, 0.00214186177374, 0.882056098616, 0.1422342601, -0.359349881569, 0.185652651427, 0.774450819059, 0.270470945674, -1.10768677714, -0.180795302349, 0.0420469131057, 0.11422996137, 0.216655593245, -0.39067182343, -0.0541334534447, -0.0657422132506, -0.198800641119, -0.474588566027, -0.615825707359, 0.386487916066, 0.341724507569, 0.360487552619, 0.455828202897, 0.129312112087, 0.36412208958, -0.324317147429, 0.15926549981, -0.534588163371, -0.0358964249045, 0.15128729493, 0.440248538088, 0.0588875306074
-0.0756006218098, -0.0941090953536, -0.581731346893, -0.777300894849, 0.325690667397, 0.389458637324, -0.101045504733, 0.322062766114, 0.506014839698, 0.429037594321, -0.0794939317759, 0.190061229408, -0.557115636156, 0.0847129719932, -0.433260903126, -0.00824553421509, 0.174786628695, -0.78139769959, 0.0665362134053, -0.102735307026, -0.332474135553, 0.393075181849, 0.741875113572, -1.1729065389, 1.06514894348, 0.230800697842, -0.651311414668, -0.382343478768, -0.197558594189, -0.0624680464946, 0.389562041856, 0.246468006608, -0.419791620084, -0.81718170171, 0.251821720488, -0.886797616572, -1.24533710067, 0.142545501636, -0.268818431806, 0.0196774727684, -0.276263332967, 0.112629413742, 1.08699795923, -0.428024100999, -0.134253052829, -0.386413288351, 0.721982769744, 0.364872194442, -0.26123234809, -0.291843105747
-0.140079315159, -0.0336485419179, -0.0573666493963, -0.0679132696765, -0.156424966277, -0.0703358996286, 0.0642488252126, -0.129687846338, 0.0941236286259, -0.165424728264, -0.195201591965, 0.159180265762, -0.127054984135, -0.00124692315253, 0.0996931982903, -0.131903372307, 0.031451862998, -0.148489915014, -0.090963624422, -0.066001712139, -0.078139143614, 0.0583069439107, 0.0364469238602, 0.156928080238, 0.0042981271613, -0.0940270444718, 0.0100647760841, -0.0778231538843, 0.0548363109864, 0.0547234923449, 0.0359628227599, -0.0566568978279, -0.135222726409, 0.139847632024, 0.133772409076, -0.00389982350189, -0.0658698109002, 0.0284591871315, 0.0517703524816, -0.0823650948247, -0.0490944666675, -0.143279894222, 0.0841375228546, -0.076644375989, -0.0424058382526, 0.0892007277212, 0.178285636916, -0.06444082965, 0.0420684815033, 0.0302074384108
1.84139596822, 1.66307882431, -0.893037917914, -0.516886377302, 0.538018546667, -0.0804348325972, -1.5113860427, 0.272320153973, 0.769687275628, -0.759460893153, -0.132634075989, -0.252774177549, 0.421303537917, 0.59315969948, -0.134860954043, -0.424145505575, 0.601839619789, 0.650612205462, -0.828534049992, -0.459990339897, 0.195677357301, 0.744653578394, 0.648328087624, -1.11662706178, -0.975152506121, 0.205543510501, -0.73278401623, -0.590754440177, 0.450020052728, 0.38847308214, -0.629267274565, 0.654228355098, -0.083977885734, -0.780707988309, -1.21858799894, -0.563328986826, -0.406616736129, -0.025597767144, -0.40258021211, -0.0428189850162, -0.525812072584, -0.242600548353, -0.0335497198631, -0.120035102901, -0.762421353469, -0.362068094738, 0.231838780518, -0.123208864051, 1.25644784294, -0.371247631011
-0.272780488409, -0.23396696644, 0.186709410988, 0.374234542558, 0.0904847716964, 0.258448164339, 0.227649050633, 0.0597134392597, -0.117623874914, -0.504423678699, -0.12385456979, 0.495922527292, 0.244331953045, -0.875660168986, 0.261414268312, -0.297762060628, -0.380254929405, -0.0497055861559, 0.185046063147, -0.0450946094848, 0.12003830053, 0.0118060116571, -0.0303074835174, 0.371239892243, 0.690921622095, -0.522990648246, -0.043540027454, 0.653526544021, 0.0309917691875, -0.471767880375, 0.826118451411, -0.757533220373, 0.0891350222475, 0.309202906498, 0.307323243988, -0.0238976183561, 0.817976497549, -0.00130329838437, 0.0110238236028, -0.273964549351, 0.66467638693, 0.69881676892, -0.471352028202, -0.231112583693, -0.352886037357, -0.172924389849, 0.177622775447, 0.308777741876, 0.188910943623, -0.00574449383751
0.057179329055, 0.173809752225, 0.187269060182, 0.470793092176, 0.30560226143, 0.066269129574, 0.279642696741, 0.60946760063, -0.244409974762, -0.193980275016, -0.0505244254755, -0.084297795636, 0.17590209343, 0.329470017194, 0.337643566108, -0.120708211753, 0.0176501271051, 0.135150019963, 0.303078021993, -0.410545250515, -0.258207851979, -0.463743592538, 0.0308647518187, -0.228551859931, 0.406940638513, -0.345534860882, -0.429078557845, 0.538518416863, 0.17119961092, -0.0203797923576, -0.0793461353022, -0.615827778966, -0.0262057837213, -0.441472359734, -0.488475764984, 0.182201753617, 0.0557480654893, -0.110760440509, 0.206597393692, 0.0332759950017, 0.298664993917, -0.0498719490413, -0.120900818081, 0.093747226014, -0.0495533125708, -0.207072547363, 0.0866627422962, 0.0136304167848, 0.110410185588, 0.0569029347332
0.380352326213, 0.677034874202, 0.0722062297044, 0.403298482372, 0.222243784069, -0.219348225927, -0.705065642801, 0.678880909346, -0.288069911785, -0.793612085481, 0.555102988919, -0.119395130242, 0.0997022153762, 0.0271292582695, -0.2134583624, -0.576779859028, -0.124114743377, 0.178332054807, 0.517052769407, 0.211291560444, -0.121062045931, -0.468916878834, -0.0728563570474, 0.186818295534, 0.43408500349, -0.270285440436, 0.133811306636, -0.0360500784716, -0.922538155184, -0.00508185514023, -1.66325895802, 0.117555623084, 1.14312316946, -0.772795583372, -0.727018194862, -0.0502231939095, 0.219757291046, 0.24605176762, 0.057071820585, -0.450220193837, -0.111272342366, 0.619692231098, -0.349071004608, -0.120199621126, -0.36995950879, 0.223997347961, -0.0837490480855, -0.185464561591, 0.18217420844, 0.0609983732802
0.810172254122, 0.262027344798, -0.885602979884, 0.0882650137903, 0.24237861763, 0.349082682676, -0.771252148458, 0.0890566810712, -0.149621694107, 0.319700958608, 0.0443999050545, -0.327217978258, 0.647000269176, -0.927478847127, -0.84925388834, -0.460807032453, 0.0759742712716, 0.0414818587305, 0.808569220709, 0.358172220864, 0.17337680165, 0.62072434307, -0.547789862174, -0.625527273199, 1.33649623002, 0.300032472668, -0.527329127363, -0.135266908965, 0.287825436008, -0.888277689035, 0.581068392326, 0.0641820624214, -0.0528313103023, -0.737830176004, 0.0649169237215, -0.325788880684, -0.315647561381, 0.0417474577265, -0.0201337076795, -0.687446510635, -0.599038789941, 0.200082200107, 0.410249119343, 0.114712286621, 0.189240805995, 0.562276201594, 0.97890467603, 0.603644225195, -0.0780414815066, 0.382403794362
0.220551566991, -0.770994389624, -0.132427676248, -0.465568906272, -0.678493410414, -0.0942111253903, -0.524815482816, 0.140137097868, 0.30112193748, 0.138740119803, 0.20069659348, 0.300505286161, -0.0755070381427, 0.00767499900154, -0.397012521205, -0.419289916758, 0.37358091617, -0.391930734676, -0.348078351978, 0.79288227435, 0.185945120784, -0.0375957774954, -0.673770396905, -0.351073783146, -0.544403690598, -0.205869822026, 0.317832881891, 0.0344628226457, -0.311367796645, -0.169979588959, -0.198291256582, -0.0870460907935, 0.122160670848, -0.127453201781, -0.666807566798, -0.294698918442, -0.877403211557, -0.4061125216, -0.383388257142, -0.0659110853483, -0.616692187011, -0.439237615346, 0.311622111509, -0.173993599159, 0.0213056071316, 0.047544902249, -0.484090801958, -0.578591640189, -0.722382073025, -0.593393213283
-0.238347551631, 1.50149167159, 0.45714445922, -0.445200674054, -1.27339448018, -1.79686810038, 0.0980178142525, -0.307149138774, -0.194071873403, -1.97487700935, -0.522821817347, 0.535068941292, -1.63438626244, -1.24711704605, -0.987619334861, -1.81574027866, -0.405688985863, -0.906174395675, -0.862916756128, -0.935917771696, -1.00154537834, 0.620165802937, 1.69205457286, 1.28095015786, -0.255064303905, 0.32436179882, 0.916211302956, -0.980418374692, -1.04224852254, -0.630763130219, -0.901070613147, -0.967327134636, -0.758376734246, 0.0641167105846, 0.571666904526, -0.849264479795, -0.633752392754, 0.664566417934, 0.298296313165, -1.56439960433, 0.342360919848, 0.650633420339, -0.128668316132, 0.868954719801, -1.68421195874, -0.436261701005, 0.291157962764, 0.807622228901, 0.370789694108, -1.23010720049
0.0563348032987, 0.326929430523, 1.43341641402, -0.325299962124, 0.191540317764, 0.409691737215, 1.16860518055, 0.168974524048, 0.0444040432, -0.158609362426, -1.13072042813, 0.0342123408191, -0.225861680991, -1.13755040295, 0.893060604834, -0.481364277322, -0.0819389216996, 0.786489897688, -0.466351691856, 0.4180742095, 0.46308538034, -0.272768162835, 0.303450232238, 0.265785386314, -0.542607024135, 0.329753108631, -0.50370049485, -0.211399391716, -0.408961617869, 0.205949351356, -0.0207341478432, -0.513348364107, -0.153617828665, -1.06367141109, -0.815779018253, -0.82254262701, -0.247534235024, -0.123406497627, -0.309063548766, 1.13063165859, -0.0897849493717, 0.568468846889, -0.899895681456, -0.786800244331, -0.0916283663572, -1.72367991656, 0.0752893485106, 1.23770547165, -0.1926314152, -0.170130793226
-0.050163113993, -0.766549344379, -0.89008893499, -0.74308873373, 0.519942770957, -0.903481467307, -0.334188982919, -0.688933497205, -0.692209042979, 0.124018424673, 0.655570836738, -0.330305636372, -0.016237246481, 0.278674455991, 0.609652637824, 1.14717422789, 0.0596188797342, -0.234277398652, -0.528961152511, -0.765085178341, -0.663013830442, -0.543002662935, 0.805337299294, -0.475769868143, -0.477250907506, 0.537433524059, -1.82259213335, -0.746298328255, 0.508964484665, 1.39045442289, 0.00256370950651, -0.599195598752, -0.660524135258, 1.00173907323, 0.179627736715, -0.764587091113, -0.610097260891, 0.20753747405, -0.403110662947, 0.615904656389, -0.736999360422, 0.254188492199, -0.000337853042322, 0.137419431583, -0.352237456101, -1.28811251554, 0.14474847565, -0.116365969491, -0.0705740162892, 0.0958350259012
-0.0546871351204, -0.146794305513, -0.328463643581, -0.160986127747, -0.0888405282048, -0.578409655851, -0.145756209887, -0.544483718761, -0.462831839703, -0.115933073704, -0.0466531481316, 0.00128612101184, -0.633475654735, -0.411753886616, -0.0886086050267, -0.0951671010277, -0.180241282145, -0.158185266403, -0.0931427005382, -0.268640586507, -0.0771498546868, -0.350682412253, -0.272193726004, 0.0245096874453, -0.0111939906481, -0.113876487454, -0.239257241973, -0.571661767845, -0.36157317136, 0.0342065668947, -0.247130762791, -0.57112979891, -0.579010960714, 0.0885176448285, 0.292001451817, -0.0160006118099, -0.503917812308, 0.1387451409, -0.0857979596566, -0.100451202022, -0.0410321891106, -0.223856836724, 0.154440005335, -0.315354036015, -0.343926764549, -0.522731333855, -0.14473841518, -0.212318752495, -0.267089872767, -0.169293734567
-0.462741387157, -0.286150950446, -0.0506773868212, 0.141066078899, -0.697536401793, 0.140977559968, -0.0144843196346, -0.512259811728, -0.419953519259, -0.226984518239, -0.325309942152, -0.11245270301, -0.174419598389, 0.00386650606447, 0.27055771205, 0.0680283581025, -0.131171767105, -0.365120066249, -0.214361625309, -0.0440788456838, -0.352280221387, 0.733688813224, 0.225693976933, -0.0102713789583, -0.353412132711, 0.0283088302066, -0.675853389486, 0.240311850339, -0.0332887124458, 0.531707522499, -0.298484625104, 0.0959716557371, 0.133706645553, 0.259745150574, -0.423982059586, -0.313501557334, -0.127299804354, 0.0411890388462, -0.119087496282, 0.319262422469, -0.416653273981, 0.545570575524, -0.0669415000008, 0.110709631674, 0.346115195434, 0.101834092618, 0.0418031635302, 0.200094973472, 0.660305967749, -0.0525809684532
-0.298100715707, -0.0487723097413, -0.34868708703, -0.24215888219, -0.0481641911443, -0.630062539108, -0.111194698625, -0.514092878953, -0.659179441079, -0.331434475806, -0.323962814754, -0.37432913067, -0.473488000352, -0.207076210474, -0.21703683299, 0.231730939592, -0.734817061675, -0.0420780394862, -0.0482199839708, -0.77003514118, -0.454493472667, -0.666773640934, -0.83539414244, -0.27025140056, -0.267122559724, -0.522517687442, -0.320863298771, -0.357068865897, -0.431242020389, -0.174462378021, -0.0660315430877, -0.176971520375, -0.888704863939, 0.0474580565801, 0.0689074144914, 0.495495281869, -0.215434077446, -0.45610408392, -0.164450296465, 0.192042843889, -0.0183514218498, -0.980573467927, 0.175901588543, -0.652275141559, -0.514789958653, -0.584148971115, -0.319208786567, -0.489997170529, -0.552579747596, -0.258163076011
-1.16838135189, -0.77446694819, 0.116508975666, -0.109751597953, 0.112611605797, 0.392044981248, -1.07319757743, 0.261439388711, -0.328279231783, 1.17878127463, -0.289210604714, -0.646560589649, 0.584843967681, -0.0271908102548, -0.387071475857, -0.547851823342, 0.0534963595196, -0.148190732847, -0.350770890307, 0.570449190489, -0.0915035183313, 0.267732724158, -0.156422625964, -0.225586579173, -1.01638316739, -0.458686896554, 0.204039758243, 0.441009578664, 0.483395450925, -1.08121604983, 0.214115746463, -0.709584155732, 0.334990532204, -0.200568289325, -0.606274474226, -1.01549850343, 0.438049838569, -1.04495280253, -0.259410471053, -1.12715119818, -0.0996754843827, 0.0637081326715, -1.02456528681, 0.384154780907, -0.34770147258, 0.241710502567, -1.1996836178, -0.0774845918247, 0.163123769513, -0.294932036742
0.0154297178941, 0.071658647027, -0.182361792087, 0.16503778958, -0.351869802846, -0.40327780765, -0.146396730382, 0.0369497263182, -0.0177239600449, -0.281546742335, -0.0279733188293, 0.2682472093, -0.305482346122, -0.278020433078, -0.137848857881, -0.205516964588, -0.175062692626, -0.0747134951549, -0.0833506863271, -0.0776774331705, -0.266676929808, -0.00398162685342, -0.0920463439612, 0.145653999226, 0.0568907580124, -0.228559142568, 0.107033886315, -0.00854767826576, -0.145459788991, -0.215053728323, 0.018017070941, -0.383639962223, -0.199962420086, 0.0864870949504, 0.14380938223, -0.106098815974, -0.356594143004, -0.01346966091, 0.142852019107, -0.478805548745, 0.0906612866128, -0.024767436912, 0.488073036932, 0.159432795098, -0.230221925415, -0.19095422198, -0.209560372266, 0.0354488189201, 0.119402236017, -0.0156024929711
-0.62288088278, 0.145674484745, 0.543895932801, -0.104995157477, 0.0173711382755, -0.0921343482518, -0.188917914356, 0.467074397257, 0.456708756627, 0.689980210944, -0.500538339591, -0.0313923086739, 0.83904529718, -0.332983783857, -0.113304603552, 0.137636198485, 0.174160710724, 0.134148563591, -0.39748361708, -0.132785525195, -0.150507234731, -0.0751685932103, 0.0490519248606, -0.54813448041, -0.274159705785, -0.436883950629, 0.0491125005208, 0.428496166904, 0.214055549847, -1.37641912716, 1.38559579764, -0.451328339524, -0.506641551079, -0.445191360105, -0.594947267998, -1.13070331833, -0.316294717554, -0.379855321441, 0.401196259377, -1.54128689436, 1.0241943516, -0.301750113994, -0.015432538491, 0.36596414033, 0.823207468004, -0.354319053577, -0.73906519163, 0.950653392442, 0.129740482885, 0.539236085345
-0.317588605086, 0.109170592705, -0.0366212407917, 0.130472835337, -0.289740650313, -0.15738594739, 0.0270388623608, -0.261888196839, -0.356924649227, -0.548989852679, -0.708604661508, 0.104259454059, -0.240382111164, 0.194520842083, -0.0292265942771, -0.27836597387, -0.262194699287, 0.0724066497325, 0.144623462801, -0.420287162828, -0.310790679118, 0.0512325761158, -0.433293485191, 0.119945500291, -0.284643835288, -0.2837186541, -0.0219705915334, 0.170398944544, -0.0980571463939, -0.0652074354605, 0.0758406200725, 0.0602004213459, -0.167085068998, 0.0521179793774, -0.170153412092, 0.426241052971, 0.0958063736754, -0.424321193094, 0.158009251362, -0.081677930329, 0.0249182812406, -0.417397651891, 0.256274099359, -0.10601460565, -0.0225722902348, 0.0352351555106, 0.0932975040717, -0.189490370701, 0.196448744788, 0.0209818715506
-0.132114132589, -0.458768324706, -0.109203519675, -0.369871277546, -0.162061163591, -0.329573610661, 0.018668547676, -0.089103754479, -0.213755318917, 0.0771796925245, 0.110231617471, 0.328845564946, -0.0599284914075, 0.243486599962, 0.247881854112, 0.51379242383, -0.158785786823, -0.133116665793, -0.177761933635, 0.0220533673978, -0.0616705349288, 0.265053233791, 0.49754821843, -0.228937084438, -0.0771862558866, 0.141315763775, -0.474184056498, 0.0350356566961, 0.0457028120584, 0.435583305613, -0.0854639186642, 0.251222642957, -0.0721296107148, 0.0934998637969, -0.247380623035, -0.333784693578, -0.726957287587, 0.279780965894, -0.0214451434996, 0.344683843875, -0.222362560499, -0.103863008869, 0.650212838737, 0.372270600949, 0.377327971909, -0.372824611076, -0.202326145571, 0.192478263912, -0.0264995661386, -0.103239660554
0.470456777528, -0.16699718349, -0.824520309295, 0.256355263373, 0.522985463134, -0.29844037339, 0.0637713158144, -0.404844678535, -0.504479890929, -0.119955694244, 1.06597584475, -0.310020796022, -0.937693859654, 0.374030304647, 0.0141417348493, 0.231076541452, -0.0593767155229, -0.142928072285, 0.683469673196, -0.641498991398, 0.242191935051, -0.858861537355, -1.12394299887, -0.0932292935865, 0.994902291495, -0.501015159337, -0.240970277214, -0.614300490096, -0.410911253929, 0.693541780915, -0.768504525144, -0.735826963954, -0.82397753785, -0.0597105381205, 0.56279477165, 1.40380738667, -0.895466257735, 0.41972116873, 0.0516103373432, 0.535001463149, 0.828356503233, -1.00949617196, 0.607410509768, -0.654267960561, -0.43704630094, -0.781857372474, 0.332489320963, -1.2194216537, -0.864088362504, 0.273357656387
-0.848672953011, -0.9564693328, 0.122520703622, -1.01791103215, -0.362768543283, -0.147015515222, 0.0376041707657, -0.445219118756, 0.187882079161, -0.322338910474, -0.793200720388, 0.0567086015093, -0.434973144716, -1.2115855436, -0.394148453648, -0.799334780772, -0.234937348394, -0.857184654282, -0.401081667974, -0.00677214657818, -0.152765433355, 0.144710569974, 0.111976167041, -0.180956845709, 0.00178238336004, -0.747690994829, -0.09472301195, -0.602315083743, -0.415009298705, -0.780906021807, -0.0260659835329, -1.08402109092, -0.296093042577, -0.890341016935, -0.104376851526, -1.37015538898, -0.601682540333, -0.0453500647391, -0.71783288725, -0.554421377762, -0.0326348451314, 0.338179935081, -0.430912990374, -0.422224212968, -0.138341534336, -0.790247850552, 0.0576282607857, 0.469027401677, -0.736076183267, -0.153775034012
0.896682226429, 0.537306117856, -0.296413612757, 0.618751435732, 0.0691818162524, -0.96496958279, 0.445192634821, -0.0775118163998, -0.551675633285, -0.786366524491, 0.189136015046, -0.105282968638, -0.87393376414, -0.387926994753, 0.146311373593, -0.654266526693, -0.0454574113482, 0.0178012049999, 0.0990445417871, -0.0540209500635, 0.187560333091, -0.162483388633, -0.706457122756, 0.542714395462, 0.267051317043, 0.537991061225, -0.193746519771, -0.0945026557439, -0.998017608808, 0.502066280898, -0.403637522257, -0.180436544923, -0.215004656473, 0.415229849766, 0.79220607491, 0.568593522995, -0.0337244878648, 0.378213401939, -0.0489776114615, 0.563812098781, 0.173529155355, 0.699320384507, 0.0772320476502, -0.864444320677, -0.622030494719, -0.463860597262, 0.078022477055, -0.16767887739, 0.519322899533, -0.437134224068
-0.439987798233, 0.0655286263885, -0.110539737902, -0.0325559137274, 0.0779279491121, -0.130580042378, 0.0816771195378, -0.0642299545537, 0.0532017042979, 0.109232366073, -0.0692356888471, -0.0570483000902, -0.302157991281, 0.325125253319, -0.299926191085, -0.167501140315, -0.198756891276, 0.0248124758449, -0.0147983787198, -0.488850324958, -0.470067018493, -0.390713404884, -0.0673679123202, 0.0447056584437, 0.0142883532714, -0.162978750049, 0.151543207648, -0.100909788476, -0.209280540229, 0.0644583563151, 0.246531338567, 0.11464224664, -0.285754062839, -0.114404686655, 0.165054522488, 0.265028177547, -0.0449862207735, -0.448927078646, 0.318386002622, -0.135056490706, 0.310976957751, -0.337774243288, 0.198291795295, 0.114593885655, -0.124937747216, -0.36959972267, -0.226676186595, -0.306106751018, -0.0712583798678, -0.0652089216214
0.0777632898586, 0.0373152277772, -0.165033238025, 0.00155264925875, -0.0402747817512, 0.0558488682902, 0.106920256584, 0.0640375166578, -0.0258279678073, -0.207071338125, -0.0212688119662, -0.00545868437401, -0.0473442751145, 0.101565300089, -0.0925170939889, -0.0868738233642, -0.129567372386, -0.0205719587244, 0.111749532573, -0.375704535883, -0.219665679775, -0.0148594430498, -0.011188192721, -0.119919302389, 0.0410167843767, -0.113667296783, -0.0216317833754, 0.0264136310506, -0.0197987851992, -0.00753334811191, 0.106571314296, 0.0130355840953, -0.088164683986, -0.0764081521957, 0.0463647116736, 0.243723954714, 0.0634453276686, -0.205340870938, 0.124504469436, 0.0407465999636, -0.0126096686334, 0.0266362926308, 0.118378952003, 0.00424944350845, -0.0780156459816, -0.0369060234529, 0.171214134583, -0.132481439234, 0.0463161326314, 0.000310142000074
1.27777179419, 0.486490633087, -0.785155271595, -0.272126575854, 0.511505081747, -0.389259429016, -1.07525789263, 0.710701326348, 0.849714142026, -0.817704911042, 0.99519975595, -0.250194940203, 1.19139787181, 0.185141861091, -0.0269001536753, 0.746404167532, -0.179259600927, -0.0147234651741, -0.529184862667, -0.400735844781, 0.656897232152, 0.494272520427, 0.188736473506, -0.180136070447, 0.432513922391, -0.168206827541, -0.092903069298, -0.607837244443, -0.0988606552423, 0.0203786887246, 0.40432172497, -0.220648230315, 0.0624982709546, -0.386263394805, -0.819444750069, 0.100506040572, -1.10020838482, -0.687451829674, -1.18908463206, 0.638412847511, 0.316665428728, -0.701967866581, 0.154020978721, 0.0512840497589, -0.0983168681856, -0.00492159674328, 0.28615330969, -0.335541886863, -0.407564219021, -0.384479010412
-0.12497748467, -0.384974374537, -0.445564771646, -0.0959156437872, -0.773336408649, 0.254511768759, -1.43560945421, 0.175404098059, 0.310038043044, -0.229322916747, -1.0478823404, 0.81187539711, -0.976984960185, 1.00961351285, 0.504343969554, -0.235556935942, 0.274753155405, 0.0903226480197, -1.1629218231, -0.534956835948, -0.413606213127, -0.0723258469177, -0.712327023834, -0.450684526413, -1.21681243683, -1.37424643821, 0.324592986963, 0.305190456332, 0.15722450219, -0.947627065993, 0.628235794361, -0.479545201417, -0.92345468687, -0.35011301951, -0.228294814364, 0.359957276905, 0.471638270945, -0.347151869306, -0.161331126895, -0.435647887099, -0.584583550495, -1.47247691122, 0.666052656659, -0.623116618885, -1.08601052938, -0.173684555278, -0.119147059834, -0.917695084421, 0.466442933499, -0.319768601866
-0.708229931, -0.877341742388, -0.170594870323, -0.368177149653, 0.12842615607, 0.0726114568635, 0.881868598983, -0.444269626443, -1.04048464133, 0.245201279978, -0.887353828343, -0.45725290325, -0.797264889082, -0.269658591911, 0.570882086634, 0.906617048253, -0.606247334333, -0.394561338542, 0.279289521978, -1.03600107409, -0.218547896968, -0.187436782529, -0.211984502721, -0.992451092824, 0.205104150737, -0.0524033980443, -1.51466038639, -0.40057874838, 0.177449982337, 0.137094763949, 0.110663276243, -0.573994509468, -0.735444010037, -0.354130217255, 0.192610508884, -0.134549815951, -0.516659076234, -0.15813614764, -0.474453817572, 0.624219392601, -0.112163845184, 0.170821039426, 0.123529838116, -0.328067782439, 0.612321501837, -0.622554119379, 0.388071055297, -0.0226492784596, -0.581300849621, 0.275833556461
-0.00339094416886, 0.0298225074811, -0.164081210155, 0.182433682781, -0.0735561534677, 0.0201411674648, -0.26076542635, -0.28977168896, -0.374642255193, -0.418415217151, 0.0407465847125, -0.0107228824595, 0.0440334152469, 0.285840899121, 0.225099295989, -0.342968111704, 0.337251745325, -0.157665286729, 0.247129631434, -0.261310910343, -0.089000675116, 0.313677071054, 0.180478755036, -0.173953955461, 0.131654212202, 0.00319778770231, -0.0775685143463, 0.0982374798329, 0.0104677560679, -0.216092425239, -0.221594139273, -0.0571003865185, -0.00461430268093, 0.204570242972, -0.146376885481, 0.449126342386, -0.00750699792864, 0.183274527412, 0.128546026866, -0.110667007591, 0.224325102843, 0.182615793099, -0.171683794914, 0.14378994353, 0.258013976262, 0.233504904226, 0.100826405939, -0.257055220447, 0.428287003259, 0.0683878023915
-0.179961521189, -0.0314144767502, -0.516984061074, 0.0223344835197, -0.720125451396, -0.463155968385, -0.612383008317, -0.290463330041, -0.20779900263, 0.484224567125, -0.470924349111, -1.12026636583, -0.06043348824, 1.1860003399, -0.455422553025, 0.0412147781781, -0.314054712269, -0.431039518799, -1.01278567656, 0.558070584296, 0.609055191647, -0.190715288166, -1.11109422241, -0.0290815301457, -0.837086416602, 0.712530092008, 0.102519607961, -0.145188092359, 0.0594119851797, -0.0658866208373, -0.558123141678, 0.966201152483, 0.720275274837, 0.217650355659, -0.0795675305186, 0.46553936984, 0.122800844703, -0.0969061310906, -0.277663430222, -0.686905259813, -0.239605379432, -0.739495143253, -0.337158749094, -0.152786587908, 0.0347761132562, 1.36037082271, -0.910088709493, -1.22639963881, -0.331115270747, -0.308081469803
0.141325929469, 0.107282633763, -0.0633179784012, -0.361806608117, 0.248058551803, -0.356304474886, 0.133515332195, 0.484600280937, 0.371675507499, 0.8180747604, 0.0371763555711, 0.457193493619, 0.0591361577369, -0.0146345177217, -0.0835237409321, 0.355544143076, -0.287027619807, -0.0391378049445, -0.280864224563, 0.0223711827159, -0.211380012449, -0.0886987699161, 0.487877240342, -0.299557800245, 0.447859230081, 0.112033582345, 0.0242658037249, -0.223201198591, 0.127467180411, 0.257429898603, 0.466762106656, 0.0763725426438, -0.180147303278, -0.136623001841, 0.274328540568, -0.565661411135, -0.49830212514, 0.0503911557721, 0.246010243356, 0.181571397618, -0.236025808157, 0.139480050778, 1.0893304315, 0.293267713002, -0.265118908466, -0.831843518028, 0.059255468724, 0.485560805524, -0.246971504012, 0.241895362161
-0.3365938976, -1.02979114444, -0.299226896222, 0.0598536280829, 0.111624234624, 0.0614339808475, -0.192343368046, -0.0499938495325, -0.794145008057, -0.41433008143, -0.353186063382, 0.0470498578681, 0.704324007268, 0.274908410315, 0.30461441601, -0.84522084694, 0.307269195754, -0.0328101519642, 0.149244627059, -0.108731628926, -0.38531055721, 0.0630239910933, 0.417965401721, 0.133508112962, 0.18417734411, -0.417208221623, -0.394342977535, 0.387435326697, 0.449574842076, 0.383119326372, -0.186608501198, -0.415611806186, 0.418091453738, -0.189115380483, -0.454221294607, 0.00939150753789, 0.504911788184, -0.478254531769, 0.172208882891, 0.198052487895, -0.756175795258, 0.479121479884, -0.47518049974, -0.120122557097, -0.367776038267, -0.266416583839, 0.298854695312, 0.17498528881, 0.424278136041, 0.209931953759
-0.172535635923, -0.131885130331, -0.0730208502689, 0.570074358629, -0.23478623504, -0.209489573585, 0.0861711407784, 0.0624986722981, -0.282697102184, -0.156019685387, -0.262341129211, 0.155279292694, -0.781105142839, -0.0763188229301, -0.0702103234375, -0.478831265782, -0.137069975208, -0.0485978802034, 0.159803501722, -0.457181941367, -0.186875810419, -0.333152432512, -0.647622429785, 0.150486774142, 0.191701354807, -0.241589156877, -0.118432935779, -0.0975285927259, -0.431333813922, -0.156426054674, -0.243834869488, -0.623608461042, -0.231985215679, -0.319317446159, 0.169505267532, 0.0339134390173, -0.141780828865, -0.14474724888, 0.421668367262, -0.604753481467, 0.472419301407, 0.182962762337, 0.194352404684, -0.0908116311372, -0.0902783042923, -0.326495857753, -0.111380350137, -0.212199447465, 0.106312063171, 0.083201057527
-0.0660980457491, 0.341764567597, -0.120060930673, 0.0693671280925, -0.12589226073, -0.391509723814, -0.228301568076, 0.0129525722668, 0.10089573765, -0.252026080871, -0.00154341157916, 0.0459435041937, -0.163506748894, -0.262993217507, -0.324843632667, -0.510392589166, -0.227498207466, -0.0934525446844, 0.0843111742484, 0.153252153208, -0.181389832115, 0.103563824194, -0.179992112009, 0.222026114751, 0.0731759393043, 0.0395594132849, 0.403577233647, -0.095130197396, -0.377930846533, -0.118667358666, -0.130257943187, 0.202718707233, 0.0089124220119, 0.118483729519, 0.296863829396, 0.0500170328484, 0.152926971271, -0.0438167794582, -0.0338727408403, -0.24969135469, -0.160309753, 0.0085775202187, 0.132076046228, -0.0699051659534, -0.30785017292, 0.202467039959, 0.0413193445219, 0.0613542390526, 0.0675076848548, -0.153297784191
-0.061556342321, 0.0028030438836, 0.0267778135938, 0.0319315533371, -0.0176270303788, 0.0147718571411, 0.0120092424011, 0.0384399528656, 0.0647602963378, -0.0499982649936, 0.06457399776, 0.00729272696307, 0.0134824780549, -0.0284445469193, -0.0686709484611, -0.099608818579, -0.00278683564927, -0.0201302319163, 0.0353254014116, -0.0190579758729, -0.0600664138041, -0.0362676858398, 0.0941294598018, 0.0391152242815, 0.0525545183138, -0.013664979448, 0.0744923993543, 0.0295890664616, -0.0494841769857, 0.00418828141354, -0.00222383557698, -0.00920291397326, 0.0412825083784, -0.0288371437999, 0.0214511414851, 0.0162060390872, 0.0407980558762, -0.0206627333293, 0.0351596143482, -0.0595771331901, 0.0330194048009, 0.0730444395592, -0.0753611957708, 0.0515567287655, 0.0132172329007, 0.0571034977514, -0.0167574737558, 0.0273854372812, 0.0124301721619, -0.0282383716649
0.602065371829, 0.0645166617275, -0.434081441875, 0.259148146792, 0.475070852967, -0.12184526803, -1.19381572486, 0.287379227614, 0.80322181364, 1.17238743557, 0.977290207281, 0.657967600114, -0.768632091613, 0.19361595195, -0.745489168269, 0.763154501507, 0.254635840073, -0.544093775891, -0.360543167752, 1.14709167979, 0.426946478481, 0.452702793026, -0.250502067996, -0.592737304148, 0.545521360166, 0.677852245129, -0.791661427112, -0.431634443489, -0.0679995458913, -0.342269479749, 0.623263835117, -0.48014812247, -0.0824438421608, 0.610862394213, 0.546747750475, -1.62113738661, -0.766599508532, 0.90935862543, -0.0874634640498, 0.267326490656, -0.585408177401, 0.284692131707, 2.21429380678, -0.0636384721955, -0.76871006691, -0.768794025044, 0.0793474918984, 0.429438429875, -0.39399850049, -1.27122544698
0.0518732441113, 0.24502109374, -0.225180477502, -0.0629109782387, -0.156358862259, -0.221201275467, -0.189686301016, -0.164528940768, 0.0447552762958, -0.27720674666, -0.198568911626, 0.196172793868, -0.283942240502, -0.0190240395979, -0.304410776711, -0.542279559416, -0.0018003972837, -0.12355448359, 0.0421674769535, 0.00208954507495, -0.104730369662, 0.230892863512, 0.0411919107759, 0.126545386034, 0.0397661616487, 0.228492702321, 0.140449741787, -0.246963342416, -0.366732851485, 0.0657584220274, -0.0572619792732, 0.171908881183, -0.0284893124089, 0.0896247585765, 0.278977870349, 0.00431592207878, -0.104859311826, 0.0688898631743, 0.192858924881, -0.21194190395, -0.120967269134, 0.0515259753725, 0.393087565286, -0.126478844157, -0.160353106388, 0.120242851883, 0.224022328797, 0.049946372132, 0.270576035059, -0.157781037969
0.285807887273, 0.487628114795, -0.248185455492, 0.610837751242, 0.951015901568, -0.449516778331, -0.377931482936, 0.0301334544219, 0.308615541377, -0.666794322863, 0.952333266987, 0.589437849184, 0.672469519806, 0.0414451500766, 0.523628544146, 0.376357594581, 0.0159609576408, 0.102257296915, 0.20802237563, 0.531032722597, 0.81633462918, -0.566045257555, -0.592638640322, 0.333208161416, 0.651878365855, -0.530732935245, -0.142952433619, 0.487347949366, 0.1661729024, 0.174918997061, -0.261020468076, -0.305411345641, 0.360102323568, 1.09324703442, -0.417726207322, 0.836025970629, 0.307372747634, 0.452099297284, -0.305594792382, 0.765223759654, 0.435610334033, -0.92775055289, 0.896233021895, -0.526067262249, -0.616739955968, -0.688270258315, 0.443941219382, -0.422266464473, -0.661874194307, -0.608252521777
-0.0772870436785, -0.380232840246, 0.0415515664906, -0.38460181763, 0.301484430425, -0.198398101759, 0.341023912403, -0.175211167644, -0.688524888046, -0.110942277171, -0.324613059301, -0.734319317264, 0.272847072537, -0.230950192558, 0.233787151983, 0.588295532745, -0.507793881842, 0.0579305260719, -0.0781438900693, -0.54619431296, 0.0511236274692, -0.423121724557, 0.0562750192225, -0.546912491967, 0.00823335170036, -0.255459745937, -0.698879046409, -0.31374294016, 0.0475893648444, 0.137573492944, -0.425276410433, -0.213084251458, -0.107789709209, -0.566461406557, -0.453581012353, -0.188697874359, -0.184684425119, -0.045821956005, -0.533114399425, 0.462998679921, -0.0831379287387, -0.0915404423148, -0.603782548554, -0.449840978108, 0.120501812033, -0.436243967507, -0.280016826961, 0.149337200029, -0.441555011396, 0.242023790864
0.054547119331, -0.0416427209295, -0.124243069777, -0.0552759992762, -0.00742725192137, -0.0303139627181, -0.114924390707, -0.0413245731957, -0.0254401296471, -0.135045275537, -0.029610102344, 0.0325673381173, -0.0585844666317, 0.0176900308599, -0.057083738049, -0.0292238240035, -0.046209965695, -0.00797789684531, -0.0503736979688, -0.083919662034, -0.0490470612407, -0.0621023897445, -0.0995063026589, -0.0533989401213, -0.051719855901, -0.111928345206, -0.0320743803225, -0.086527132193, -0.0239934091135, -0.0729031405989, -0.0163760460328, -0.0443860025987, -0.0268792694259, -0.0159459312436, -0.0529828035929, -0.0119173289089, -0.050128956075, -0.0879463279382, -0.00606626755891, -0.0578717185269, -0.018132934626, -0.100625583649, 0.107739294108, -0.0841662152208, -0.150824425957, -0.154462638647, 0.000206020551292, -0.137184736193, -0.0324622405694, -0.0244014525523
0.651343499539, 0.170850038502, -0.777472077639, -0.0493573107356, -0.424632347165, -0.335586409843, -0.434486138622, 0.0578924785121, -1.88551081123, -0.802963623497, -0.39569605447, -0.530056813925, -0.214490160147, 0.489155765437, 0.0121981105787, 0.980815062335, -1.16614863271, -0.536324307918, 0.422432203101, 0.100190333863, 0.330400463284, 0.485956221171, 0.746926917547, -1.32333540984, 1.33108429314, -0.0190556746227, -0.763868279672, -0.179691024606, 0.13790158809, 0.142200393697, 0.0522724101445, 0.109791154047, 0.0453104187275, 0.424541416911, 0.201717702793, 0.356147558467, -1.18329655061, 0.780523302581, -0.170144254868, -0.0976931095479, -0.208389879964, -0.410208971469, 1.42371788868, 0.497628315129, 0.29298051417, 0.836597985309, -0.125110433513, -0.286550358221, 0.063472292721, 0.242443950409
0.320404410048, 0.249434463506, -0.433360516958, -0.969948580638, 0.289595766804, -0.0290354697083, 0.512476248368, -0.488146527355, 0.262990251559, 0.308369668625, 0.207109918792, 0.0299090005546, -0.248173456863, 0.0466609598223, -0.519291409566, 1.21340880532, 0.0756780301126, -0.248727976939, -0.747447599774, -1.13660389314, 0.113815490431, -0.31442370802, 0.572249818042, -0.399958903269, 0.534214366651, 0.327127714405, -0.714184236117, -1.06570071761, 0.185686312632, 0.284179122355, 0.695928934063, -0.149317911613, -0.532594520445, 0.0654856013658, 0.293918379928, -0.534559077855, -1.15729508702, 0.340327962956, -0.0424291832587, 0.193940660176, 0.527837377765, -0.274596536641, 0.671836755614, 0.143538271956, 0.0577037999532, -1.38173987585, 0.217517629733, -0.116396525281, -0.64698964954, 0.480505256261
-0.270966336199, -0.588157304225, -0.646059359014, 0.578710998849, 0.513849523951, 0.0815581264053, 0.535421023036, 0.713644892564, -0.739612062649, 0.223802208818, 0.668952664723, -1.1202467817, -0.141171179823, -0.631347418122, -0.93279297737, 0.536748175942, -0.73658852784, 0.0793607242045, 0.978261829837, -0.781268613289, -0.18909904457, -0.470407586948, -0.669691543627, -0.377563316255, 0.71467588766, -0.156559846287, -0.149609223768, -0.128158245497, -0.226900794218, 0.294973935219, 0.105728952835, -0.000519698853121, 0.117605374808, -0.600765684405, 0.58758733769, 0.684303643117, 0.0232265718902, -0.853384302862, -1.06056673598, 0.0750852161121, -0.382643692072, 0.335331857276, -0.31393165774, -0.118497215664, 0.421094234003, 0.938207554273, 0.363982529795, -0.264541465299, -0.955125957881, -0.418124683369
-0.715229081668, 0.107292731985, -0.0107927286629, 0.149216967192, -0.168008864204, 0.118269813464, -0.171726547949, -0.582485451485, -0.128061364616, -0.0962508320076, -0.241592856629, -0.0383141713937, -0.410712286342, -0.207075580802, -0.115624586227, -0.25160211863, -0.389172773145, 0.269114961985, 0.0355158195188, -0.0350454779248, -0.601778697855, -0.247560593145, -0.99424110033, 0.596713767686, -0.210040235173, -0.483916372834, -0.157572676211, 0.358667034606, -0.40265790759, 0.133598182714, 0.0761442764561, 0.265773396069, -0.757223605483, 0.262334478676, 0.181863396207, 0.132921614609, 0.188917456722, -0.79191064504, 0.365208927041, 0.254701437516, -0.0809785581627, -1.05205171652, -0.409322295981, -0.732936478143, -0.953151863578, -0.561603633475, -0.685044615256, -0.232396404615, 0.253470498518, -0.116523615314
-0.42764508554, -0.598375926341, -0.721629647166, -1.65239499429, -0.122954409882, -0.308142805684, -0.405253236953, 0.129931185327, -0.757473663371, 0.45594082416, 0.479399969731, 0.306213835975, 0.223453588302, -0.891556585898, -0.330462109519, 0.893533541176, -1.10862402061, 0.036789147537, 0.280084355787, -0.273052498392, 0.0899193494855, -0.86018081744, 0.58154153277, -0.865549132682, 0.435292935013, -0.491976617765, -0.981437494497, -0.187638254411, -0.539685162853, 0.458484453839, -0.0825492330268, -0.431902812181, -0.497257944342, -0.357540903778, -0.126206722135, -0.0273476621063, -1.38832950265, 0.417811139842, -0.100066464164, -0.307412593473, -0.369897892764, -0.752325251312, 1.10911706246, -0.332760527616, 0.0125230075284, 0.053889938084, -0.486616054817, -0.0889484546524, -1.18907933897, -0.21844184049
-1.0695668584, -0.338616785005, 0.239686656693, 0.0234204767055, 0.0783602386789, -0.210706345883, -0.712186907328, 0.209400058255, 0.399984475871, -0.0242095640952, 0.187562426986, -0.679716243234, 0.0350749955371, 0.175646445039, -0.244185726097, -0.609268410851, -0.726757794773, -0.76229196343, -1.17094434303, 0.223708974604, -0.595207952576, 0.765865789472, 0.569934163301, -0.318211992818, -0.888681064219, 0.466817490584, -0.565183150337, 0.367551846829, 0.270736477647, -1.254094175, 0.808425823471, 0.324642030756, 0.343157023324, 0.396158465741, -0.338072596084, -1.24213524701, 0.270444087094, -0.765547363812, -0.0706630612013, -0.364828013646, 0.606935463102, 0.644847744109, -0.805806421992, 1.51011967058, -0.120015377115, -0.906056066471, -1.70615139358, -0.0842865966015, 0.313306180744, -1.23612116127
-0.319782951433, 0.0738610000158, 0.157477820085, 0.411055543154, 0.120087403974, 0.351604578302, -0.257296184527, -0.353384351568, 0.0115945008926, -0.28347395049, 0.260678207946, 0.131108083685, 0.127670862493, -0.628170291841, 0.276452404638, -0.231823670955, -0.00894789742907, 0.0118492760352, 0.315130260756, 0.277249047936, -0.0515132675263, 0.109938477512, -0.121748539529, 0.406134159529, 0.192880176575, -0.162187709735, 0.141967848688, 0.139207381068, -0.142074042617, -0.192352186701, -0.105341636369, -0.107674981467, 0.130408055238, 0.555475270276, 0.204070572893, 0.177383091434, 0.769894178125, -0.0586957140549, -0.216812014471, 0.325805298082, -0.168925465285, 0.428962967907, -0.653620905294, -0.316797912412, -0.245944556623, 0.22791374839, 0.222127481342, 0.0580991783502, 0.161100335082, -0.257748718158
0.67023496021, -0.0394310715016, -0.602577087972, -0.87294132811, -0.0366267633469, -0.595056306364, -0.00160582970481, -0.0465613582398, -0.505310895727, 0.0289229121189, 0.0335013705169, 0.0308758558508, 0.135937407967, 0.0041835632417, 0.305984552115, 0.88138126478, -0.504790865527, 0.0384385720111, -0.358986968252, -0.378189378693, 0.0970823017729, 0.195944462348, 0.711006558617, -0.769017905613, 0.277220426678, 0.355464642036, -1.0484430485, -0.382370637987, 0.131598390119, 0.370857741024, 0.107148428651, 0.226275676961, -0.590557201248, -0.258430200199, -0.281978545628, -0.498910494618, -1.44095348853, 0.0637350319312, -0.152103681428, 0.270126105964, 0.0304025599229, -0.236550797945, 0.603374574212, 0.393067784362, 0.141146707834, -0.878007220138, -0.291533155731, 0.109269059852, -0.148011333169, 0.0591894759181
-0.0531281534465, -0.338060392922, 0.394937242486, -0.156066018776, -0.0920394417263, 0.358825444795, -0.0386579371204, -0.141536612738, 0.0723157572392, -0.631109868262, 0.0480642381555, 0.560598695026, 0.0815409964178, -0.596966399763, 0.336214369864, -0.248531756229, 0.21437878231, 0.0415557165727, 0.00465599587788, 0.206368099171, -0.0351460928789, -0.140963314867, 0.214824898877, 0.356864465349, -0.118875194778, -0.216148608262, -0.0780093739151, 0.0569083681232, -0.0572820089266, -0.0463400564028, 0.0576518093091, -0.350561139222, 0.012631298799, 0.472967435849, -0.125854098466, -0.0471417399881, 0.12566018258, -0.0984052436361, -0.0114346421196, 0.292635612978, -0.223081060457, 0.174138261634, -0.390965327771, -0.310312160476, -0.408515692136, -0.192589263858, 0.278444637154, -0.0191857049256, -0.178668395876, -0.513744530582
-0.184935230126, 0.0134162133739, 0.159093796526, 0.0473334179493, -0.807062237573, 0.174971076287, -0.308780245121, 0.0532998838206, -0.129331540816, -0.896936237889, -0.867875308903, 0.261626337957, -0.0534958827653, 0.0248453139067, -0.0735329086878, -0.564138735137, -0.250487638613, -0.0312018909173, 0.113775636174, 0.0444704423738, -0.529903063069, 0.26042408384, -0.562499706438, -0.0527785755472, -0.544421509576, -0.651520761891, -0.0591479550698, 0.657610712584, -0.128692087004, -0.364375424084, 0.0755457391282, 0.0869782164757, -0.199001088677, 0.00513476445391, -0.508751965484, 0.07081683345, 0.0415083080778, -0.586822220383, 0.327846658818, -0.214652643557, -0.420380561665, -0.532746201963, 0.182231261743, -0.173674587328, -0.168039714764, 0.298808115039, -0.0853568850171, -0.0328541512524, 0.337193956585, -0.0332642948653
-0.136500812061, -0.00407269372568, 0.317445332788, 0.38398430265, -0.285037662165, 0.233950853534, -0.569240264455, 0.0873506767115, -0.158747926001, -0.080924644282, 0.272676740537, 0.532583285469, -0.237500220824, 0.441377570123, 0.00696626112309, 0.345269511438, 0.565717975338, -0.309309013989, -0.25744710232, 0.204249379838, -0.0675337035903, 0.11220249378, 0.534159090905, 0.221722628329, -0.180402062428, 0.145418021922, -0.000339774315241, -0.031355214811, 0.26607215674, 0.674457226122, -0.700575417965, -0.123278713418, 0.732388266997, 0.950887974545, -0.262378927772, -0.22297429974, -0.0550689830875, 0.317786563313, 0.0839155151082, -0.383810311068, -0.638702442307, 0.200622667145, 0.148914098082, 0.378861141455, -0.19949961201, 0.638530507673, 0.618430292795, -0.290967236805, 0.0372106728953, -0.0791495123119
-0.129255352139, 0.304922128325, -0.602464552709, -0.537630347325, -0.453740722369, 0.118201502708, -0.36925757481, -0.547299363648, 1.32958326131, -0.0429626427412, -0.691190228535, -0.731664351383, 1.08868302245, -0.543996535173, -0.816809194474, -1.69632114897, -0.227584033203, -0.834911701499, -0.419084443626, 0.00653053657433, -0.279283290625, 0.208908850617, 1.19021438189, -0.834405963024, 0.453840982648, -0.414912246147, 1.03099430717, -1.45124229772, -0.249100309956, 0.0196328175359, 0.495431372963, -1.2912304881, -0.050133710765, -0.316291254609, 0.469349281783, 0.137147794138, -0.0202019476321, 0.281031703851, -0.281753893992, 0.0310514411761, -0.347345707686, 0.0852257897287, -0.338429379401, -0.432015983159, 0.249300878712, 1.08770471064, 1.09647617511, 0.791458723638, 0.146248439932, 0.133385531256
-0.0877061403245, -0.00671346374602, -0.04040193661, 0.720997933809, 0.341041662279, -0.284639162301, 0.296305745097, 0.399698399646, -0.322862368054, -0.526299300746, 0.430235618643, -0.474523390245, -0.552992756245, 0.2351165313, -0.848871498407, 0.100491031875, -0.626191794816, -0.0542743152453, 0.918437790619, -0.39369303782, 0.0122612872895, -0.121838497343, -1.17979478929, -0.389511851395, 0.0603962855845, -0.318544196878, -0.189846234461, 0.725270463586, -0.92006926715, -0.21833659007, 0.0765139298369, -0.105280105938, -0.32841209043, -0.403101319389, 0.166514599394, 0.375826825272, 0.485729585416, -0.22130181123, -0.337774418327, 0.751332556999, 0.165523359256, 0.137621793145, 0.385038994444, -0.33391810869, 0.146137151417, -0.376909255119, -0.316402242299, 0.247275328873, -0.54274259182, -0.568501805114
-0.194170827571, -0.541605120444, -0.315512757364, -0.592635344047, -0.345320255867, -0.461828117059, 0.0286966699335, -0.202849665694, -0.505477393692, 0.382853479715, 0.0692619588265, -0.0847911143176, -0.214761107169, -0.0565067036656, 0.0744486186698, 0.71243431735, -0.503504313459, -0.282480887411, -0.320423848962, 0.0900381091822, -0.059734981595, 0.103517428948, 0.354165846287, -0.462213301438, 0.124736973046, 0.266814092498, -0.638078865502, -0.302285220434, -0.0566841302027, 0.335176760821, -0.220741829784, 0.453338267002, -0.250560025966, -0.105703340849, -0.156187489937, -0.582315396976, -1.18101288405, 0.180305276318, -0.223989806888, 0.14623495074, -0.315210609288, -0.313946459011, 0.482332846358, 0.36414692283, 0.407982295064, -0.340117282653, -0.507933481963, 0.00461656533293, -0.370439818239, -0.0910472833859
0.215373334718, 0.348795061389, -0.328140657119, -0.0647533531324, 0.82195585025, -0.913945449063, 0.253788300283, -0.182011132625, -0.346490896898, 0.354171718696, 0.0593226581389, -0.472476227494, 0.116295693355, -0.0341289125361, 0.224114856383, 0.479378084245, -0.277743889134, 0.388327256828, -0.180774399669, -0.631269235712, -0.70348064868, -0.668286385626, 0.170800557336, -0.318229338232, 0.433167446999, 0.200753146855, -0.533261996887, -0.342339688376, -0.0180760527911, -0.0287221264163, 0.181981488459, 0.494234586712, -0.849732578783, -0.340274694336, 0.0260614385202, -0.235973156582, -0.652569279895, -0.240393193862, 0.07925414404, 0.675274042302, 0.189857031808, -0.551769398896, 0.116204393412, 0.0586162862906, -0.0256542830775, -1.27188560567, -0.731790110958, 0.178440587992, 0.226070596005, 0.0260012646486
-0.0597738364262, 0.193997138643, -0.216376145888, 0.0209036626791, -0.274968677839, -0.0165360976996, -0.115382493438, 0.0442023145063, 0.0261026834818, -0.135753899925, -0.161065681294, -0.0766136921006, -0.230667222026, 0.371704195954, -0.180688102309, -0.393778617388, -0.0501030672964, -0.124853639109, 0.201626007209, 0.0677640706278, -0.274196702528, -0.0322852624954, -0.204502357442, -0.048246842377, 0.265134499427, -0.180212184747, 0.0498880612326, 0.205187821123, -0.17852481161, 0.0153161146467, 0.0910948000846, 0.063808454569, -0.258753893039, -0.191465448294, 0.153953843112, 0.238576290653, -0.281968724577, -0.0734031079514, 0.367158378891, -0.33789763267, 0.264737096503, -0.481591846286, 0.316713033895, 0.00189029416795, -0.108705292203, 0.174041337043, -0.333462892352, -0.225824295733, 0.222970956135, 0.153116669189
